{
    "size": 9,
    "voltages": [
        0.0,
        0.0,
        0.0,
        0.0,
        0.0,
        0.0,
        0.0,
        0.0,
        0.0
    ],
    "time_constants": [
        1.0,
        1.0,
        1.0,
        1.0,
        1.0,
        1.0,
        1.0,
        1.0,
        1.0
    ],
    "biases": [
        -2.930247848079123,
        -0.9058797855710239,
        -6.99514718474207,
        -9.545130698436232,
        -11.89893157380936,
        -8.97165466313837,
        -15.930589421180692,
        -9.506198635259391,
        6.242783754672704
    ],
    "inner_weights": [
        [
            -2.5541450514952366,
            -4.37633609711726,
            -10.083945991633545,
            0.5850473013592392,
            -15.724625535719383,
            15.005958615023559,
            9.64420019252675,
            8.233983635476942,
            5.487497658938366
        ],
        [
            -15.050975717602459,
            -3.4700150406293915,
            -3.0465907521076865,
            -9.93180753970232,
            8.547380623447658,
            3.735140649981062,
            13.640766847708278,
            -5.596030908737021,
            -7.8990607248072635
        ],
        [
            7.0469733943042385,
            15.902638815606018,
            -6.148058488360654,
            -10.496426186001859,
            -10.387695179125767,
            -10.757549051241892,
            2.7204600483034014,
            -0.8468621644592034,
            -1.2557775287676698
        ],
        [
            -8.47507173079806,
            11.398949513746835,
            -0.931399176249105,
            -14.253330192382176,
            15.784226545553889,
            -9.742195542762278,
            6.8007962622482125,
            10.124478813654918,
            -0.9261673256685761
        ],
        [
            -7.645242418845854,
            -1.9001906839304823,
            -9.299745467899506,
            -0.8670780171206047,
            -8.59575075642406,
            -10.842337671520333,
            -9.054011156056504,
            -10.857104570470728,
            14.303207260592746
        ],
        [
            3.8957285963476274,
            7.321118853526404,
            12.03491928126422,
            14.1335904396928,
            -12.129709660893678,
            12.247211320164553,
            -12.924858201715665,
            9.047958762390952,
            5.038930850135301
        ],
        [
            12.23165305076311,
            4.915452691536327,
            -14.664712780613236,
            4.183647603917933,
            6.753960861808427,
            -1.4490120071466386,
            5.493173232658236,
            9.502082507377636,
            -9.737680674038078
        ],
        [
            -10.584867578392064,
            -15.703362407164668,
            8.000718363615174,
            9.96333899568208,
            -14.492072356859055,
            -13.630217241325862,
            9.88565057745426,
            8.363102210978901,
            8.768718348821785
        ],
        [
            -4.259210848491282,
            -2.3072834263972517,
            5.4888098504544764,
            -10.335853125865977,
            3.361329642474761,
            -3.25076692035994,
            10.452455250388496,
            6.799676303234467,
            -14.804663222225717
        ]
    ],
    "outputs": [
        0.0,
        0.0,
        0.0,
        0.0,
        0.0,
        0.0,
        0.0,
        0.0,
        0.0
    ],
    "weight_range": 16,
    "bias_range": 16,
    "tc_min": 1,
    "tc_max": 1,
    "inv_time_constants": [
        1.0,
        1.0,
        1.0,
        1.0,
        1.0,
        1.0,
        1.0,
        1.0,
        1.0
    ]
}