{
    "size": 9,
    "voltages": [
        0.0,
        0.0,
        0.0,
        0.0,
        0.0,
        0.0,
        0.0,
        0.0,
        0.0
    ],
    "time_constants": [
        1.0,
        1.0,
        1.0,
        1.0,
        1.0,
        1.0,
        1.0,
        1.0,
        1.0
    ],
    "biases": [
        3.9306882448956664,
        7.67844856953263,
        -2.6027702341810937,
        -4.236235997835202,
        -10.591078061095924,
        9.403917012313826,
        10.657197074701678,
        7.494815593771296,
        12.009426560757852
    ],
    "inner_weights": [
        [
            -10.231369955943386,
            -15.376792272396013,
            -1.1770071520529726,
            7.197885734148731,
            -2.553484653192722,
            -0.4663328586309632,
            -15.591013933100523,
            -0.40410856576410836,
            14.137812874987716
        ],
        [
            11.22544286005692,
            7.358863047066194,
            -12.520445700192802,
            12.604933449122598,
            11.428935906330548,
            -10.717228236952732,
            4.2346884423518745,
            -15.344524390680554,
            -12.26440739903948
        ],
        [
            -5.8762460283987075,
            -10.946806186402018,
            8.287346821136172,
            10.184811451652592,
            -4.972016289305042,
            -5.798438500402124,
            -12.426840576170868,
            -13.313499413694174,
            6.807229942042973
        ],
        [
            3.1853886802449765,
            -14.218442253277491,
            -0.6464869868982284,
            -3.1463526198191296,
            11.135327921503183,
            6.9711737388761215,
            3.266049639962386,
            1.676282288175912,
            14.3712767278924
        ],
        [
            15.573546571470995,
            -5.182270411215111,
            -8.324010270320851,
            9.485944127614278,
            -13.962034215211027,
            -4.332299424126685,
            -13.759270316015922,
            -5.78023337437088,
            -13.74775695657738
        ],
        [
            -6.711562651670015,
            9.283235949881263,
            12.972810265602298,
            9.363884322557638,
            1.9781987246361084,
            3.7125883223248444,
            -4.432526649497543,
            -10.59784644526551,
            -2.0402901227148504
        ],
        [
            7.450410763141637,
            -13.987596036457585,
            -15.336544675802518,
            8.65753812528061,
            -6.401535698222261,
            6.4372568013925395,
            7.509367068944055,
            13.852948069995069,
            -3.1894901465021306
        ],
        [
            -4.529986292859,
            9.810137309687075,
            8.463715089423086,
            4.883671677298686,
            9.950930366562154,
            4.550875479713763,
            14.638209690430564,
            -5.316018513565044,
            7.624083931157536
        ],
        [
            14.394665783589797,
            -5.30034706684032,
            3.5722238955140604,
            -4.298554637531101,
            -1.2307106756063853,
            -13.599936220521098,
            -15.381012406456236,
            8.308782961669554,
            -1.5117067362560768
        ]
    ],
    "outputs": [
        0.0,
        0.0,
        0.0,
        0.0,
        0.0,
        0.0,
        0.0,
        0.0,
        0.0
    ],
    "weight_range": 16,
    "bias_range": 16,
    "tc_min": 1,
    "tc_max": 1,
    "inv_time_constants": [
        1.0,
        1.0,
        1.0,
        1.0,
        1.0,
        1.0,
        1.0,
        1.0,
        1.0
    ]
}