{
    "size": 9,
    "voltages": [
        0.0,
        0.0,
        0.0,
        0.0,
        0.0,
        0.0,
        0.0,
        0.0,
        0.0
    ],
    "time_constants": [
        1.0,
        1.0,
        1.0,
        1.0,
        1.0,
        1.0,
        1.0,
        1.0,
        1.0
    ],
    "biases": [
        -7.150780117872749,
        7.0604680868835885,
        -14.925923156918437,
        -5.633553812045573,
        -8.156739670845958,
        15.739600494311002,
        8.117199614537117,
        -3.385128046989724,
        -9.070205289813845
    ],
    "inner_weights": [
        [
            -7.192778566357195,
            4.455384349608629,
            3.964774794732154,
            8.897353834093309,
            -0.7003670559839996,
            14.692284335641826,
            15.917894614703503,
            10.640424846839512,
            -9.476958336486582
        ],
        [
            -11.710399952721136,
            3.6804677397690178,
            2.9755858433197133,
            4.632975793705615,
            15.63905701831614,
            -5.274796402601172,
            9.87260239064183,
            5.469277466398285,
            1.220481894858807
        ],
        [
            -13.775718641979793,
            -13.135960565640676,
            11.89735337914263,
            2.8170899381843384,
            -13.549903562848144,
            -4.988546541572191,
            -4.277022607427259,
            -15.620215850070725,
            -1.8613580700687287
        ],
        [
            -14.28663358405138,
            5.522826816964287,
            -14.9673934536848,
            -3.6963030539858437,
            10.372237873128302,
            12.738963690533115,
            -5.446760623532846,
            -12.885041034464933,
            -9.971363513981569
        ],
        [
            -10.73284465058267,
            13.992554554512811,
            15.62642686489195,
            -13.027015656992806,
            -7.609793916240616,
            -11.75455234272339,
            7.0657686092540075,
            -9.877196442721846,
            -15.517146983629377
        ],
        [
            -11.071261998688495,
            12.851308582561966,
            3.6610527336708216,
            -12.907845082731427,
            -10.671997658849467,
            -15.846499045105336,
            -1.1432903837525181,
            -13.75910337126443,
            13.060184996309086
        ],
        [
            -7.207099523459924,
            2.5948093766359044,
            12.688000348743874,
            -10.91050053900829,
            10.057753489647723,
            -3.120637916001318,
            -8.571730594455282,
            -12.162345711250023,
            -5.336275366188595
        ],
        [
            7.275590333666251,
            -15.312670838611474,
            -6.191731634120885,
            -6.928138162657287,
            10.282512856805837,
            1.8461074691662667,
            14.478405240760281,
            -6.447201730877065,
            -5.205306214978734
        ],
        [
            -6.687289367554573,
            -4.917849204767666,
            14.843465852327501,
            -1.5037774927360275,
            -14.152551093769144,
            -9.628399539367646,
            2.7038215796311924,
            -8.948700108266664,
            9.166326774360257
        ]
    ],
    "outputs": [
        0.0,
        0.0,
        0.0,
        0.0,
        0.0,
        0.0,
        0.0,
        0.0,
        0.0
    ],
    "weight_range": 16,
    "bias_range": 16,
    "tc_min": 1,
    "tc_max": 1,
    "inv_time_constants": [
        1.0,
        1.0,
        1.0,
        1.0,
        1.0,
        1.0,
        1.0,
        1.0,
        1.0
    ]
}