{
    "size": 9,
    "voltages": [
        0.0,
        0.0,
        0.0,
        0.0,
        0.0,
        0.0,
        0.0,
        0.0,
        0.0
    ],
    "time_constants": [
        1.0,
        1.0,
        1.0,
        1.0,
        1.0,
        1.0,
        1.0,
        1.0,
        1.0
    ],
    "biases": [
        1.2887794489668636,
        9.888835897836834,
        -4.011147169671009,
        12.537090803581531,
        -0.08851385057042904,
        -4.244826213875051,
        15.210020891814978,
        -3.3032017637529414,
        -11.485234929366502
    ],
    "inner_weights": [
        [
            11.640319538242654,
            -6.883009112715943,
            -13.655795581320447,
            8.423590538569119,
            -1.5129901568188373,
            1.353499968280783,
            7.252345050480233,
            11.164963443674306,
            8.58239928988743
        ],
        [
            7.460599146240558,
            -8.256434409475677,
            7.049878161751639,
            -14.131926214024922,
            -2.890594362950903,
            3.541512763445123,
            -7.8107240140195735,
            -6.8584983185173805,
            5.902839897923769
        ],
        [
            10.909431532433889,
            9.892909443226284,
            -15.997968135851906,
            13.555523031102474,
            9.822885220660865,
            14.59239683053546,
            -0.48867232289923734,
            5.2023681143206915,
            7.4818130428804
        ],
        [
            -1.084411936510488,
            9.774342355843359,
            -1.9843990762986898,
            -11.870727350074343,
            4.548818311774568,
            -0.6834015023411624,
            5.059864705471746,
            -13.332706198818741,
            5.239140425452579
        ],
        [
            -0.2899172775579082,
            8.170065328777177,
            -2.3080639822353675,
            -5.446060740128239,
            -0.7135994251944169,
            13.425179935505657,
            -6.1588019606627995,
            15.517417553570162,
            -12.360281490252383
        ],
        [
            15.056485924213465,
            11.947573183441182,
            14.312385214958507,
            -8.42977024696549,
            11.44115249432991,
            9.712991499518491,
            -10.783846838694192,
            -6.5271658955959815,
            2.146981847022097
        ],
        [
            12.107607374908234,
            -14.787084463357274,
            -4.49210192354834,
            4.915167285641591,
            7.791640947437635,
            14.76898033604503,
            -12.036496224849877,
            -3.202682061905236,
            1.7077658292548037
        ],
        [
            -0.7722016733851369,
            0.10197399062985824,
            -3.4701786384149287,
            15.230766939799661,
            -14.812257624231982,
            -10.418539215150087,
            -3.708612784550361,
            0.1504102738684132,
            -4.139463414858962
        ],
        [
            9.013626236199006,
            7.739705017492955,
            -15.845128375555596,
            4.481470931423328,
            -2.4164299101140045,
            -7.577782878398541,
            -7.384977342151444,
            -15.897588092997381,
            -0.8517105771531348
        ]
    ],
    "outputs": [
        0.0,
        0.0,
        0.0,
        0.0,
        0.0,
        0.0,
        0.0,
        0.0,
        0.0
    ],
    "weight_range": 16,
    "bias_range": 16,
    "tc_min": 1,
    "tc_max": 1,
    "inv_time_constants": [
        1.0,
        1.0,
        1.0,
        1.0,
        1.0,
        1.0,
        1.0,
        1.0,
        1.0
    ]
}