{
    "size": 9,
    "voltages": [
        0.0,
        0.0,
        0.0,
        0.0,
        0.0,
        0.0,
        0.0,
        0.0,
        0.0
    ],
    "time_constants": [
        1.0,
        1.0,
        1.0,
        1.0,
        1.0,
        1.0,
        1.0,
        1.0,
        1.0
    ],
    "biases": [
        5.645746607255457,
        -4.526550602968886,
        -7.6008163964683,
        -3.430109566275217,
        8.226159327474878,
        -3.565510944085318,
        13.298326861843552,
        4.186707538995872,
        15.780237225675489
    ],
    "inner_weights": [
        [
            13.56912369838161,
            -10.948141422886657,
            11.741282458105513,
            -13.306977892433338,
            2.3543578860040846,
            -6.977927460386791,
            -7.799022150079825,
            2.047373182666032,
            -8.965652741802366
        ],
        [
            4.755865586643246,
            4.088071757109848,
            -2.848818868438329,
            -3.118612548308956,
            -1.594813695877047,
            -8.514482225382007,
            -11.701385711220958,
            -12.6491914452623,
            -0.8643126659209024
        ],
        [
            -12.356878853167924,
            -6.846496425678737,
            10.822774037106146,
            -5.9496504627215465,
            -13.555959086658468,
            8.621664294164226,
            -7.744960476626151,
            13.901359390437488,
            9.857269604775645
        ],
        [
            -5.2694524902187325,
            -0.27688005541194016,
            -8.872508546068396,
            -2.1040587881475474,
            4.620605641257157,
            14.776535780458833,
            -1.936248918125525,
            -1.9479806724792077,
            4.487297873034123
        ],
        [
            13.219187078119287,
            1.7939270705768635,
            1.134435615723767,
            -1.8156987046600364,
            -11.547850705614326,
            13.932137357566244,
            4.410512488313664,
            14.398592891473733,
            -1.4977677578409967
        ],
        [
            -3.5452848150262497,
            3.6763150418357533,
            5.5007563997595845,
            8.431942095216392,
            -6.068756177433311,
            -6.588444000783063,
            -9.587567941872955,
            -6.888718929674198,
            6.384578690357657
        ],
        [
            13.533307826062355,
            -5.087349731875772,
            6.411549428501491,
            4.492813306589007,
            -14.626547509613793,
            7.715727656993089,
            -15.347961516801732,
            9.979759860170677,
            -6.943143404812755
        ],
        [
            -2.0028308774030705,
            13.762118564227613,
            1.336737104903385,
            12.888997117862537,
            -3.4666740657416177,
            3.0031250321930187,
            12.672573207613137,
            -10.8270085671221,
            9.907760206906442
        ],
        [
            -10.038576393705643,
            4.279810139510776,
            0.45060687728985016,
            7.30399309755143,
            -14.781641330746954,
            13.168339122748648,
            8.665087445738365,
            14.699336600889481,
            -8.743555420626137
        ]
    ],
    "outputs": [
        0.0,
        0.0,
        0.0,
        0.0,
        0.0,
        0.0,
        0.0,
        0.0,
        0.0
    ],
    "weight_range": 16,
    "bias_range": 16,
    "tc_min": 1,
    "tc_max": 1,
    "inv_time_constants": [
        1.0,
        1.0,
        1.0,
        1.0,
        1.0,
        1.0,
        1.0,
        1.0,
        1.0
    ]
}