{
    "size": 9,
    "voltages": [
        0.0,
        0.0,
        0.0,
        0.0,
        0.0,
        0.0,
        0.0,
        0.0,
        0.0
    ],
    "time_constants": [
        1.0,
        1.0,
        1.0,
        1.0,
        1.0,
        1.0,
        1.0,
        1.0,
        1.0
    ],
    "biases": [
        -1.4963413368448037,
        -11.873341613486705,
        8.33816565655648,
        -9.547709596348312,
        -10.376644377178188,
        -2.0122235951740457,
        -5.111654308869998,
        14.952099473938219,
        -11.42316553319771
    ],
    "inner_weights": [
        [
            8.886477138362245,
            -8.398680958882807,
            10.376913045163793,
            14.903974337375992,
            15.123235644956587,
            -1.48962408264601,
            3.489358808360894,
            8.816848467355094,
            4.5316270322902135
        ],
        [
            7.104583344542309,
            -14.878831228754006,
            -6.4496169315462595,
            -14.127600259773608,
            11.425950162790365,
            -4.068671108006161,
            5.755134450499103,
            -7.799041621547836,
            -4.877401115120257
        ],
        [
            -15.698791357408979,
            -4.533318953440968,
            14.371013813702731,
            -9.027231707785955,
            -5.779476275828333,
            13.368716352018797,
            -14.979082673923369,
            -13.917294814639536,
            4.154527971450335
        ],
        [
            11.962030184945238,
            -15.721096566278884,
            7.890471583806001,
            10.01091747208395,
            -13.577041722487465,
            5.00657070710265,
            0.2963904026725821,
            -0.6437314721157392,
            14.578372637794121
        ],
        [
            -15.999614925776477,
            -8.096681568258678,
            6.791445693170672,
            -5.61337440682518,
            -7.1361165957180965,
            6.254254481711186,
            13.39365594067036,
            -8.17677752966431,
            -1.3412538471435624
        ],
        [
            -7.904234149711794,
            -3.861334672541883,
            3.3452425162147534,
            8.716120309777857,
            -13.826640102578736,
            5.95472253399403,
            1.5443231166664084,
            -11.584446311735768,
            -12.83989698544261
        ],
        [
            -8.14210862961102,
            -11.142826797296877,
            13.631823343686971,
            5.763360499348547,
            -8.394914499850135,
            2.2043280818099333,
            1.8122256459008845,
            -13.67240925170087,
            10.870672333314268
        ],
        [
            -3.0297762336597955,
            -11.364128350517596,
            -9.890558122669002,
            -0.2995156139148527,
            6.784779975992105,
            15.518030646432258,
            11.993168055521423,
            -0.030666115171392505,
            -12.583040192201317
        ],
        [
            13.222809823668577,
            -4.322689251638881,
            -8.749187939218292,
            11.917819595053711,
            -11.636532743704386,
            -8.435834875109752,
            3.0527758512761345,
            2.0455234905188817,
            14.685911423465509
        ]
    ],
    "outputs": [
        0.0,
        0.0,
        0.0,
        0.0,
        0.0,
        0.0,
        0.0,
        0.0,
        0.0
    ],
    "weight_range": 16,
    "bias_range": 16,
    "tc_min": 1,
    "tc_max": 1,
    "inv_time_constants": [
        1.0,
        1.0,
        1.0,
        1.0,
        1.0,
        1.0,
        1.0,
        1.0,
        1.0
    ]
}