{
    "size": 9,
    "voltages": [
        0.0,
        0.0,
        0.0,
        0.0,
        0.0,
        0.0,
        0.0,
        0.0,
        0.0
    ],
    "time_constants": [
        1.0,
        1.0,
        1.0,
        1.0,
        1.0,
        1.0,
        1.0,
        1.0,
        1.0
    ],
    "biases": [
        -12.470360174246899,
        -12.34722866414955,
        -1.0634031328814864,
        -6.584221521366729,
        11.050235127688374,
        -13.733811394727692,
        -6.835717700225011,
        0.1755923683107703,
        -10.390290425951427
    ],
    "inner_weights": [
        [
            -6.053446407796631,
            10.2075910630032,
            -5.287916013711197,
            -9.801167402446634,
            -12.469973598316788,
            14.793922798279066,
            11.681512055620331,
            11.277183165095135,
            -13.455646972734105
        ],
        [
            8.343644417983786,
            11.526184804629846,
            -10.708760725739204,
            5.001787485848766,
            -4.177417026321212,
            10.158039010553011,
            13.400018614162445,
            -10.776953283606268,
            10.627952110077764
        ],
        [
            -1.8291901251332732,
            15.605053162114924,
            7.655166365240127,
            2.0025288391689493,
            8.953680089511355,
            -0.18475322668395577,
            12.871934586960727,
            5.5247380862791395,
            11.786474539987974
        ],
        [
            10.102251022568176,
            13.12551679416266,
            -1.3795833103949278,
            -6.922931459239663,
            13.113048531291682,
            -12.405190675442345,
            -13.50339898016641,
            6.932486286484085,
            0.7127534670843083
        ],
        [
            14.990373607201487,
            15.946153204597898,
            12.151334912440774,
            12.763901442650653,
            -13.417118893239568,
            1.3043415632052557,
            -14.789593877240396,
            5.853762696758558,
            3.194424631482107
        ],
        [
            9.369845762189996,
            0.14900879315393567,
            -7.753308473107445,
            -9.637728298347692,
            -8.781412613101793,
            6.817727177838911,
            0.8651479529043371,
            -11.947635943410958,
            -11.992527626645924
        ],
        [
            -6.977771531335659,
            -6.747308702108231,
            11.931529011008344,
            12.854452842173874,
            13.838247388749796,
            -12.784752921102267,
            4.7476234116969245,
            6.176060850251254,
            7.256055927154684
        ],
        [
            -14.542244098385726,
            1.047628530564836,
            6.217099070331205,
            -2.4477206074412337,
            15.495482444639968,
            -5.368779845864143,
            9.596423060916731,
            -14.605071268071203,
            -2.1931726461427594
        ],
        [
            -15.714664822571407,
            -4.0977009276904965,
            -8.571839791833593,
            -4.544198915951792,
            -12.385764419596203,
            -3.766550189373042,
            12.341518568567693,
            11.272399093567856,
            -11.821628421943092
        ]
    ],
    "outputs": [
        0.0,
        0.0,
        0.0,
        0.0,
        0.0,
        0.0,
        0.0,
        0.0,
        0.0
    ],
    "weight_range": 16,
    "bias_range": 16,
    "tc_min": 1,
    "tc_max": 1,
    "inv_time_constants": [
        1.0,
        1.0,
        1.0,
        1.0,
        1.0,
        1.0,
        1.0,
        1.0,
        1.0
    ]
}