{
    "size": 9,
    "voltages": [
        0.0,
        0.0,
        0.0,
        0.0,
        0.0,
        0.0,
        0.0,
        0.0,
        0.0
    ],
    "time_constants": [
        1.0,
        1.0,
        1.0,
        1.0,
        1.0,
        1.0,
        1.0,
        1.0,
        1.0
    ],
    "biases": [
        14.893074613672425,
        15.958343868693984,
        -15.226604000622572,
        -0.5982933294298682,
        -6.674473930444545,
        -13.960941813845935,
        2.227980766177886,
        -15.83733488962515,
        3.560882869440693
    ],
    "inner_weights": [
        [
            -12.318253875527073,
            3.490129256943405,
            -11.731489146048375,
            -8.30113216110884,
            -5.531550214043527,
            11.492399710355127,
            5.314886819136824,
            1.3171907930689208,
            -15.071557618420467
        ],
        [
            7.479945480969054,
            -3.3615994102078126,
            9.665507796117328,
            -7.858523972483862,
            -14.179682027163143,
            11.732756508774408,
            -8.927072131700118,
            -3.0403376624876906,
            -5.8849129274173215
        ],
        [
            -13.546793600113688,
            10.983190215350547,
            11.166052727835567,
            15.086882925932414,
            -3.6679387393555807,
            14.543620003477287,
            -1.7357324531289962,
            5.431188855097847,
            -13.359998409691027
        ],
        [
            12.707154559409098,
            -6.463887977959594,
            -7.606245676915794,
            -15.835854429937378,
            1.3824804889729911,
            -0.7809162557678988,
            4.363957682288724,
            15.302532290624196,
            13.077208250594808
        ],
        [
            13.12489842496501,
            0.808181475428654,
            -12.671393604647587,
            -10.210732951747168,
            14.49728707157573,
            -2.817504531636523,
            11.680547859429815,
            5.509672943237636,
            4.121145468229159
        ],
        [
            -7.182119147233532,
            12.695912631707603,
            -9.379476117012313,
            -3.059032221586957,
            15.794319756611312,
            7.543266608227864,
            -1.7580348003301545,
            1.9412214221995185,
            -2.8398243492276727
        ],
        [
            7.263615742975631,
            -3.2256996510696077,
            5.444645270476219,
            6.550899452177326,
            3.5059158802894643,
            1.2811028538129925,
            -9.405380770774343,
            -9.62683274807354,
            9.463643674113413
        ],
        [
            -6.709351111335788,
            4.990810490363323,
            -6.412263174175205,
            -11.37669189046948,
            -3.073386656624976,
            -6.071375140973128,
            -8.211263479009208,
            2.819329365068036,
            -8.149015905172487
        ],
        [
            7.928659577371619,
            7.044692731335132,
            6.248347742562974,
            -12.712231085657226,
            14.196557701897316,
            0.10686825256901855,
            12.789555819757208,
            -9.645443698037955,
            3.0223739781897834
        ]
    ],
    "outputs": [
        0.0,
        0.0,
        0.0,
        0.0,
        0.0,
        0.0,
        0.0,
        0.0,
        0.0
    ],
    "weight_range": 16,
    "bias_range": 16,
    "tc_min": 1,
    "tc_max": 1,
    "inv_time_constants": [
        1.0,
        1.0,
        1.0,
        1.0,
        1.0,
        1.0,
        1.0,
        1.0,
        1.0
    ]
}