{
    "size": 9,
    "voltages": [
        0.0,
        0.0,
        0.0,
        0.0,
        0.0,
        0.0,
        0.0,
        0.0,
        0.0
    ],
    "time_constants": [
        1.0,
        1.0,
        1.0,
        1.0,
        1.0,
        1.0,
        1.0,
        1.0,
        1.0
    ],
    "biases": [
        14.198556114061049,
        2.16628109369082,
        14.220191016666881,
        -13.342011996378446,
        10.96770592540609,
        -8.158432642407469,
        -6.664390470849174,
        -13.468329078603198,
        -7.608371798998139
    ],
    "inner_weights": [
        [
            -4.626588230232432,
            -5.092835945942348,
            13.859406153010237,
            13.242213940640848,
            10.798871308044614,
            -14.09638189680301,
            -8.057272796127837,
            0.29182222110739886,
            -13.134584926496082
        ],
        [
            9.124828390771178,
            -3.228432272339834,
            -1.8337476116603035,
            8.586140204863415,
            2.1151380530035198,
            -8.14819751711033,
            1.4402133124434648,
            -11.373774267260597,
            -1.6342657136540595
        ],
        [
            -1.1070495088091405,
            6.959706638886704,
            14.534999830753854,
            3.994295476851793,
            -2.6218409687044044,
            12.606147468908887,
            -5.579637366327514,
            15.446404328589125,
            6.7241702591369545
        ],
        [
            13.512545831898084,
            15.63994379359427,
            7.254706146015668,
            -5.407821666272536,
            -7.417765756628459,
            -12.717687723076605,
            -10.067060528489403,
            -9.618010756543931,
            2.543647517152671
        ],
        [
            -7.784724693982373,
            -5.429309553595456,
            -13.403095219976219,
            6.877743593481203,
            -6.736801175777835,
            0.5667556110018594,
            -9.098613968366774,
            -4.1395885478387555,
            -5.028041692154414
        ],
        [
            -10.970788225899401,
            10.713756957406584,
            -7.140882280014484,
            -1.8369509797771713,
            15.886145009470894,
            15.354166249656952,
            -5.150745063637668,
            6.34555220917694,
            7.697548804379494
        ],
        [
            -15.295183117118995,
            -6.2287475433265875,
            11.331889011856425,
            8.177609698330105,
            -15.777495962156525,
            7.427530311728663,
            -13.214792987687495,
            -10.390942841955194,
            7.396259128681809
        ],
        [
            -2.077288047492118,
            -15.597213207178921,
            -7.871726084170081,
            -1.911393940864933,
            -11.629087415614674,
            -7.424507299639789,
            -6.613394492692596,
            -0.7762435061467734,
            7.5308062853144335
        ],
        [
            14.475939907330169,
            -9.23417943616342,
            15.88159212334114,
            5.168122561416048,
            1.6278163203857332,
            -3.063776904136766,
            -14.693129322151602,
            4.749314108830031,
            -12.590279041547426
        ]
    ],
    "outputs": [
        0.0,
        0.0,
        0.0,
        0.0,
        0.0,
        0.0,
        0.0,
        0.0,
        0.0
    ],
    "weight_range": 16,
    "bias_range": 16,
    "tc_min": 1,
    "tc_max": 1,
    "inv_time_constants": [
        1.0,
        1.0,
        1.0,
        1.0,
        1.0,
        1.0,
        1.0,
        1.0,
        1.0
    ]
}