{
    "size": 9,
    "voltages": [
        0.0,
        0.0,
        0.0,
        0.0,
        0.0,
        0.0,
        0.0,
        0.0,
        0.0
    ],
    "time_constants": [
        1.0,
        1.0,
        1.0,
        1.0,
        1.0,
        1.0,
        1.0,
        1.0,
        1.0
    ],
    "biases": [
        7.684794767147288,
        7.619896494343539,
        -12.68389697300772,
        -11.074504782230555,
        -15.385557267131976,
        -0.5499287587262671,
        3.477471932313616,
        6.041155384314607,
        -12.961207418522573
    ],
    "inner_weights": [
        [
            1.7261127200187651,
            -3.3200674014282647,
            -14.459943277437546,
            0.8215219549712884,
            -11.10276538201951,
            0.00032515181292680495,
            -7.805223049083278,
            1.37898105182434,
            1.5445158245910946
        ],
        [
            -8.774761156587225,
            -13.144118049513757,
            -1.5401719924105315,
            8.748304342315134,
            5.827668793772435,
            11.588522418459927,
            -1.4769601166687174,
            2.222078768874141,
            -15.831291431956426
        ],
        [
            11.984774995359182,
            2.4921390665938183,
            14.247330618590105,
            12.53718007108597,
            5.820147511665905,
            12.491229300764982,
            -9.809230201260416,
            9.681903351129641,
            -15.250865381181633
        ],
        [
            13.4540820664682,
            5.411339784755771,
            7.748761700486661,
            14.90839957387566,
            -3.205536117917447,
            -5.931397670395171,
            -0.2848988069273126,
            -6.539682700469992,
            1.3259809437533008
        ],
        [
            -6.621036699516335,
            -8.452409554644717,
            6.38705613611312,
            -4.899883270954724,
            -1.316352645071433,
            3.277084803037269,
            -12.47250642636542,
            -3.1468012669126537,
            -7.620248372118674
        ],
        [
            3.155758331056443,
            13.12483674226079,
            -10.205444815330782,
            15.566488908117659,
            5.992460173618966,
            1.859579744300241,
            14.13842607367556,
            5.468025128508227,
            3.349834356678784
        ],
        [
            -3.033643373756629,
            1.2127151429319554,
            14.968702778745353,
            -14.248626646684535,
            13.198046924927379,
            11.1066429343404,
            14.496026005809167,
            -15.917445423157385,
            13.37011996811976
        ],
        [
            10.35980836890068,
            1.6491460261001016,
            7.5817226723762765,
            13.961287199712025,
            -7.999157088425417,
            15.403381165078144,
            1.85414720543276,
            -0.4094143701967141,
            3.2162754775603126
        ],
        [
            3.285632919401891,
            3.4193580245890622,
            15.017456289751479,
            3.8371213771073336,
            -5.018210110954101,
            -10.059911740674831,
            12.060961961667445,
            9.596362685886263,
            -10.854217722610962
        ]
    ],
    "outputs": [
        0.0,
        0.0,
        0.0,
        0.0,
        0.0,
        0.0,
        0.0,
        0.0,
        0.0
    ],
    "weight_range": 16,
    "bias_range": 16,
    "tc_min": 1,
    "tc_max": 1,
    "inv_time_constants": [
        1.0,
        1.0,
        1.0,
        1.0,
        1.0,
        1.0,
        1.0,
        1.0,
        1.0
    ]
}