{
    "size": 9,
    "voltages": [
        0.0,
        0.0,
        0.0,
        0.0,
        0.0,
        0.0,
        0.0,
        0.0,
        0.0
    ],
    "time_constants": [
        1.0,
        1.0,
        1.0,
        1.0,
        1.0,
        1.0,
        1.0,
        1.0,
        1.0
    ],
    "biases": [
        9.66813752442793,
        14.169729332350762,
        -10.75757051053402,
        3.797823998278055,
        -15.253544604599842,
        -13.48050774140038,
        11.52354770749512,
        15.08452024346844,
        12.546783144106683
    ],
    "inner_weights": [
        [
            -14.766026211794891,
            8.963214736789599,
            -13.033479829307733,
            4.252565967503273,
            -15.555492853753002,
            13.957073154717545,
            -2.3496197844629307,
            -7.901233575739834,
            -9.921110198602562
        ],
        [
            -2.725611746023315,
            -15.57054048833912,
            4.7511291143420955,
            11.819799870369096,
            3.489142510327035,
            9.855770204212657,
            10.448362573418656,
            -7.306133320374354,
            10.767246108622174
        ],
        [
            -6.958676482277074,
            -11.57412471584048,
            6.871048764750473,
            -0.8788285585715343,
            1.8108313879155382,
            -3.661581655691471,
            14.116693121816908,
            -13.40189838455052,
            13.35255949587259
        ],
        [
            -10.978098389819177,
            -1.787280430186037,
            -9.212606619600095,
            -10.409818921001243,
            0.4735376541848062,
            12.572721216912296,
            13.557794156555996,
            10.751313672743425,
            -0.010966631332856025
        ],
        [
            10.270845132785801,
            13.900421138923932,
            9.43397995853648,
            -1.229276730134444,
            -4.713926216986756,
            -12.52504238562791,
            15.51284905594368,
            -11.166135278597675,
            -7.090811857849502
        ],
        [
            6.372145422318265,
            4.7264876157167635,
            -8.846830586520582,
            9.659153132615867,
            0.387593938680201,
            -13.48280387941719,
            -14.90688764744516,
            2.11684182982221,
            -11.21044608313587
        ],
        [
            -8.280543320796827,
            -14.928456731734453,
            4.989581954099108,
            11.341697098731409,
            -9.60787862904678,
            9.825679608177097,
            -13.58571238236675,
            4.3531003708469385,
            10.586982152122502
        ],
        [
            -6.6713107753918734,
            -0.7777551552400972,
            -10.431220127302709,
            14.494981280322701,
            -14.684929554374257,
            11.244911288451863,
            10.860869325169599,
            14.759682636518338,
            -13.087253410321892
        ],
        [
            14.825917943772914,
            -12.412254333851752,
            -14.577386326596674,
            7.833025501984352,
            11.692278018523453,
            13.945620365349402,
            4.157661919153348,
            -5.395711194064344,
            -0.936960075156076
        ]
    ],
    "outputs": [
        0.0,
        0.0,
        0.0,
        0.0,
        0.0,
        0.0,
        0.0,
        0.0,
        0.0
    ],
    "weight_range": 16,
    "bias_range": 16,
    "tc_min": 1,
    "tc_max": 1,
    "inv_time_constants": [
        1.0,
        1.0,
        1.0,
        1.0,
        1.0,
        1.0,
        1.0,
        1.0,
        1.0
    ]
}