{
    "size": 9,
    "voltages": [
        0.0,
        0.0,
        0.0,
        0.0,
        0.0,
        0.0,
        0.0,
        0.0,
        0.0
    ],
    "time_constants": [
        1.0,
        1.0,
        1.0,
        1.0,
        1.0,
        1.0,
        1.0,
        1.0,
        1.0
    ],
    "biases": [
        2.123338089682939,
        13.607889515561133,
        -11.887320021977871,
        -7.947206312568284,
        7.738243589896399,
        -13.697994986749347,
        5.312285546082965,
        -7.866034127076297,
        -1.4677316339511606
    ],
    "inner_weights": [
        [
            -6.369137412610733,
            -8.094021377221939,
            13.64272432189362,
            12.531310024888448,
            5.864856319199582,
            2.1403091039895124,
            1.502908167777015,
            -9.266437248423493,
            8.632142981933942
        ],
        [
            12.679363230623146,
            7.092814610111091,
            -0.039028802935494156,
            -1.849190947385786,
            9.677776889741612,
            11.034601783677427,
            -8.667577458792707,
            14.789361324935978,
            -14.114613262538445
        ],
        [
            -6.725187631974663,
            -6.010747452449053,
            6.461000560671845,
            6.643483557915307,
            14.176920531703168,
            3.404261338927249,
            -4.632726725550427,
            -2.534424484346804,
            13.007986340726667
        ],
        [
            -7.938271920001846,
            -6.306545961810247,
            -13.566475893014037,
            -7.952222775274205,
            13.140338894973304,
            10.99658659922168,
            4.390222024963993,
            15.683428517439864,
            14.077425147017806
        ],
        [
            11.358010931030357,
            13.476656200272597,
            5.304214945085032,
            -3.422227679838521,
            2.64877174499037,
            -3.922818923876907,
            -0.628742749272341,
            -4.4339892552456455,
            -10.66856112059584
        ],
        [
            12.638122082912354,
            1.3781034918506023,
            10.345639685170745,
            2.1707467254449604,
            -15.786512826903405,
            4.090284240171599,
            8.595677660382812,
            -5.7641663836046035,
            -15.121306985954071
        ],
        [
            -13.094889423988093,
            -7.813974208985343,
            3.7496552572562862,
            10.599255508664534,
            -15.674637881004458,
            5.92337787672356,
            -11.613709610987147,
            13.716765261186424,
            3.896397094131082
        ],
        [
            15.66818278558117,
            -7.317145166050771,
            3.017760487822848,
            0.7282226415463704,
            7.498275694760174,
            4.0871615851111365,
            3.2220656411264805,
            15.036795213159916,
            3.5137179533740515
        ],
        [
            5.302677847690127,
            8.366615663845334,
            -13.894907025828672,
            12.013292328191643,
            6.762129405153406,
            12.795265916424807,
            0.9693156580766562,
            -15.83049748810091,
            9.73814643652931
        ]
    ],
    "outputs": [
        0.0,
        0.0,
        0.0,
        0.0,
        0.0,
        0.0,
        0.0,
        0.0,
        0.0
    ],
    "weight_range": 16,
    "bias_range": 16,
    "tc_min": 1,
    "tc_max": 1,
    "inv_time_constants": [
        1.0,
        1.0,
        1.0,
        1.0,
        1.0,
        1.0,
        1.0,
        1.0,
        1.0
    ]
}