{
    "size": 9,
    "voltages": [
        0.0,
        0.0,
        0.0,
        0.0,
        0.0,
        0.0,
        0.0,
        0.0,
        0.0
    ],
    "time_constants": [
        1.0,
        1.0,
        1.0,
        1.0,
        1.0,
        1.0,
        1.0,
        1.0,
        1.0
    ],
    "biases": [
        -11.787331105651482,
        2.0011689192190225,
        14.680074537805496,
        0.08304479241721197,
        -15.462514997682234,
        -7.402588076612435,
        15.009272136010942,
        -12.46007953005056,
        3.9765385915186933
    ],
    "inner_weights": [
        [
            -7.774642332635523,
            5.881202658274319,
            5.236536242211699,
            8.868173902924795,
            10.475732106734664,
            -4.5861074004849485,
            -3.624445864063439,
            7.789093161593243,
            -6.958703516935078
        ],
        [
            -6.589549059793157,
            2.3677092726589493,
            -14.492017555136794,
            -3.6133074158342353,
            10.706467951105246,
            0.6741462050828773,
            -11.919217257022307,
            -2.7224365090653073,
            10.26635414183685
        ],
        [
            -4.97121490886266,
            13.307698177041768,
            -10.001690561454353,
            -15.125219308696561,
            -8.410131544317125,
            7.032211022035593,
            -7.3849572910800205,
            2.1241260789571754,
            4.15898471126658
        ],
        [
            -9.197995419471997,
            7.621642815465336,
            -4.901328252733194,
            -5.603508064180829,
            -5.853290698871358,
            15.092796789058344,
            -12.32903715934216,
            -5.398194885663038,
            15.307803771421884
        ],
        [
            15.90777987110716,
            -10.212078003324553,
            -11.544230881271638,
            6.733804784543025,
            5.023765249808868,
            3.5591879867842557,
            -0.0038709101476825936,
            15.976199627629963,
            7.662253589283075
        ],
        [
            12.687750557835699,
            1.5285040528253617,
            8.206793221784405,
            3.933685056627219,
            -9.372755782159636,
            11.851316360201636,
            -4.6343175673694965,
            1.4838852209793458,
            -14.179494455975465
        ],
        [
            -6.166795581838599,
            -0.2477171960104272,
            -3.6567572218433995,
            -0.5294036252641341,
            -11.332351261200067,
            -8.050242919358087,
            12.704293562971024,
            4.639038610298986,
            9.569292367020541
        ],
        [
            1.9852959033479785,
            11.926654103067662,
            -15.177811987921029,
            -5.284504279976407,
            -15.537631372815543,
            2.0097876394860883,
            -9.650344670971538,
            -12.163617462934603,
            10.585531206090721
        ],
        [
            -11.34997159177836,
            11.583827196798126,
            12.540748528077525,
            0.652916653663965,
            10.076548938186512,
            0.30102445666449285,
            -15.109387802326054,
            -9.179212491248528,
            -0.24752269843431307
        ]
    ],
    "outputs": [
        0.0,
        0.0,
        0.0,
        0.0,
        0.0,
        0.0,
        0.0,
        0.0,
        0.0
    ],
    "weight_range": 16,
    "bias_range": 16,
    "tc_min": 1,
    "tc_max": 1,
    "inv_time_constants": [
        1.0,
        1.0,
        1.0,
        1.0,
        1.0,
        1.0,
        1.0,
        1.0,
        1.0
    ]
}