{
    "size": 9,
    "voltages": [
        0.0,
        0.0,
        0.0,
        0.0,
        0.0,
        0.0,
        0.0,
        0.0,
        0.0
    ],
    "time_constants": [
        1.0,
        1.0,
        1.0,
        1.0,
        1.0,
        1.0,
        1.0,
        1.0,
        1.0
    ],
    "biases": [
        6.749874498003113,
        -9.235037113482914,
        6.443061523914793,
        12.728527812603307,
        5.7423721518091675,
        -9.822188461779316,
        1.302170607339967,
        11.993466870356208,
        2.476228905518738
    ],
    "inner_weights": [
        [
            11.093197030724284,
            1.9572972884810937,
            -1.4439871230159085,
            -4.730402761857224,
            2.747244292314793,
            1.1439918167384242,
            10.478600856939075,
            -7.534649640894898,
            -0.6918700371610953
        ],
        [
            -4.8708792689369,
            -11.696693686112841,
            -7.680724789022108,
            -14.475690362582856,
            -3.382614248669512,
            -4.108281853177232,
            1.8154535451373697,
            12.719825739765056,
            -10.644931615795713
        ],
        [
            -2.969394565445551,
            4.875306840920032,
            2.167970565060198,
            2.128603392481253,
            0.779363187348725,
            3.4425607769965723,
            -11.896708031257148,
            -9.941579883369112,
            -1.881996174231734
        ],
        [
            11.585091251379989,
            12.703515018373224,
            -8.674256846148591,
            -1.0790125987512305,
            -0.9420369160542528,
            -2.3765090269334017,
            15.040131876906582,
            10.428674255096869,
            6.557299389116714
        ],
        [
            -6.263175371656818,
            -11.22877018315619,
            14.123011518256313,
            8.869757859300499,
            -8.137043633703339,
            6.75454885600054,
            -7.4340830543071625,
            11.734258788338412,
            -8.550546554743256
        ],
        [
            -8.932908745361821,
            -15.092644379678585,
            -0.1316750308112553,
            7.2250391879554705,
            -4.835676226585722,
            -7.8905364541789496,
            10.209592482135793,
            10.457386208528764,
            -14.397963452237
        ],
        [
            11.326841036844822,
            6.3255348824277995,
            -14.066570005984385,
            -3.3826191882671566,
            1.1028999375310384,
            -10.871532305838755,
            14.115296425318839,
            -15.011133413790816,
            7.40976386389028
        ],
        [
            -11.853970792993692,
            -4.458685203039408,
            -14.632338984869406,
            4.2744906145662185,
            7.282787817629046,
            6.120795748629277,
            10.733888831596389,
            14.104983655404862,
            10.479613235162553
        ],
        [
            6.654940774379874,
            1.4931039969995155,
            4.294098915657404,
            12.66273541777976,
            11.904130383081604,
            4.3714290169740835,
            -14.047752715905538,
            5.914685394145884,
            -0.7148136683185875
        ]
    ],
    "outputs": [
        0.0,
        0.0,
        0.0,
        0.0,
        0.0,
        0.0,
        0.0,
        0.0,
        0.0
    ],
    "weight_range": 16,
    "bias_range": 16,
    "tc_min": 1,
    "tc_max": 1,
    "inv_time_constants": [
        1.0,
        1.0,
        1.0,
        1.0,
        1.0,
        1.0,
        1.0,
        1.0,
        1.0
    ]
}