{
    "size": 9,
    "voltages": [
        0.0,
        0.0,
        0.0,
        0.0,
        0.0,
        0.0,
        0.0,
        0.0,
        0.0
    ],
    "time_constants": [
        1.0,
        1.0,
        1.0,
        1.0,
        1.0,
        1.0,
        1.0,
        1.0,
        1.0
    ],
    "biases": [
        15.382496439820645,
        -9.788539802231131,
        11.188178447875213,
        -1.2913600738213553,
        -9.837254935154743,
        -10.519538513062965,
        -1.2629434551556855,
        -8.918781287305986,
        0.45984053768837185
    ],
    "inner_weights": [
        [
            -2.376914863395335,
            10.066679695825684,
            7.532713286389747,
            11.776102396151543,
            -3.7318152680761543,
            15.34261222862466,
            12.58221909488433,
            -9.289114567859986,
            7.7384847172077045
        ],
        [
            5.2205862121517725,
            12.377646767741986,
            11.456406788337478,
            7.976390839792604,
            11.84463104176815,
            -10.023813008914782,
            -5.581865056184032,
            -4.0660020814571425,
            9.398816802677647
        ],
        [
            -11.16607137446114,
            -10.561833630790087,
            -13.40258902560494,
            -6.234389066566603,
            9.065273658203974,
            -10.787002176673706,
            -13.739478531669555,
            6.434277532529215,
            -10.208643868788194
        ],
        [
            3.165352012120273,
            -2.711563225747355,
            0.4343119700245808,
            -8.939002465722808,
            7.218336244324139,
            11.181918345904734,
            13.72457049643565,
            7.550081266102811,
            -0.7492082963097637
        ],
        [
            -0.22742485569354187,
            3.0246486965819805,
            -13.566817108105884,
            -12.24073858094313,
            14.926901312770188,
            2.6663132938572076,
            -13.042498755910454,
            -15.563855947807895,
            10.781763470972308
        ],
        [
            13.273212780650226,
            6.546760342516091,
            -3.615788873786542,
            6.582204959129825,
            13.545957009361846,
            -6.779107374460111,
            5.888635064667987,
            0.6493599926367786,
            12.075704807953851
        ],
        [
            13.564457954981762,
            -0.34463499101599027,
            3.078846808453296,
            -7.543186694899628,
            15.73474869961764,
            -9.267265171569669,
            2.6678426062285148,
            4.764798435747409,
            13.15107872612029
        ],
        [
            -12.106946232152499,
            5.626282552511395,
            8.152044976237597,
            13.137131835392786,
            -8.265986241799002,
            15.219057048141707,
            -6.280650234309398,
            12.819209591004146,
            -12.650877696195192
        ],
        [
            5.539835078677108,
            11.82537142981851,
            1.9528827096363628,
            -1.0362095996892506,
            -15.51718651139571,
            -3.4171534030043027,
            -9.269517753509628,
            -9.295427753686297,
            -3.3432373525727215
        ]
    ],
    "outputs": [
        0.0,
        0.0,
        0.0,
        0.0,
        0.0,
        0.0,
        0.0,
        0.0,
        0.0
    ],
    "weight_range": 16,
    "bias_range": 16,
    "tc_min": 1,
    "tc_max": 1,
    "inv_time_constants": [
        1.0,
        1.0,
        1.0,
        1.0,
        1.0,
        1.0,
        1.0,
        1.0,
        1.0
    ]
}