{
    "size": 9,
    "voltages": [
        0.0,
        0.0,
        0.0,
        0.0,
        0.0,
        0.0,
        0.0,
        0.0,
        0.0
    ],
    "time_constants": [
        1.0,
        1.0,
        1.0,
        1.0,
        1.0,
        1.0,
        1.0,
        1.0,
        1.0
    ],
    "biases": [
        -5.58133840085447,
        3.858350499559627,
        3.3214382588694242,
        -0.20095995639720599,
        6.767926415918311,
        2.961697006223776,
        -0.764228269606086,
        -2.730495752711896,
        8.202072814416987
    ],
    "inner_weights": [
        [
            -6.3720534385082,
            -10.017733877059904,
            -5.658154337016978,
            5.30398624922589,
            2.143065631014828,
            -3.25587331523953,
            -3.8587227032129086,
            -15.661390851883425,
            -10.548300768201212
        ],
        [
            -12.051412138236671,
            6.156840844930752,
            11.982129938326121,
            -5.203299051564052,
            15.758695221746162,
            -11.79071773492102,
            0.01055476983334458,
            -6.828143790024733,
            -8.941284646254328
        ],
        [
            0.06673749241469906,
            4.354001271333644,
            4.3416620498899405,
            -13.426141163429133,
            2.6058800555664448,
            10.854107501412951,
            -6.623415933195712,
            15.613752353222196,
            1.5101132959143229
        ],
        [
            14.700348552550665,
            -4.59881344685741,
            0.5512893302813531,
            15.616428662627076,
            -9.463934953294327,
            15.233691794472747,
            -14.722263454853813,
            -15.381546285321232,
            -9.79144987663426
        ],
        [
            -15.629262563851675,
            -1.7000740192706907,
            4.861993972717514,
            6.762124167586773,
            -7.839729666908013,
            8.445393082295848,
            14.930569615260112,
            1.1122658167118793,
            -2.212226689494617
        ],
        [
            -0.003332757714822776,
            8.51712822098829,
            -5.621173248436843,
            -10.762476843993781,
            3.787232330261517,
            4.474763643112329,
            9.14297421319674,
            13.687815867690976,
            10.818894847202692
        ],
        [
            14.809961447027462,
            1.6914842136671666,
            -15.060111186971525,
            -11.414997726701074,
            -0.8981582917491835,
            5.827478582148299,
            6.026972414168707,
            7.234265796967524,
            15.661211246620574
        ],
        [
            -3.434263070725528,
            0.4276668664886998,
            13.469351204797874,
            -3.630041883621317,
            -1.698336240153889,
            -1.67078229752288,
            -7.574975194265626,
            13.722387372825004,
            0.5130712155599753
        ],
        [
            5.252104798778493,
            10.633178424815267,
            -15.890636659320428,
            2.658336312135443,
            -0.379531171911367,
            -7.244705751567995,
            -7.120407876054305,
            9.691635810293654,
            -1.8079425117628993
        ]
    ],
    "outputs": [
        0.0,
        0.0,
        0.0,
        0.0,
        0.0,
        0.0,
        0.0,
        0.0,
        0.0
    ],
    "weight_range": 16,
    "bias_range": 16,
    "tc_min": 1,
    "tc_max": 1,
    "inv_time_constants": [
        1.0,
        1.0,
        1.0,
        1.0,
        1.0,
        1.0,
        1.0,
        1.0,
        1.0
    ]
}