{
    "size": 9,
    "voltages": [
        0.0,
        0.0,
        0.0,
        0.0,
        0.0,
        0.0,
        0.0,
        0.0,
        0.0
    ],
    "time_constants": [
        1.0,
        1.0,
        1.0,
        1.0,
        1.0,
        1.0,
        1.0,
        1.0,
        1.0
    ],
    "biases": [
        -15.710256482108548,
        -0.3088613803836715,
        -14.881958420956366,
        10.344075426685635,
        -0.3926230454719182,
        10.45823109917336,
        10.779723349719362,
        13.688785507195249,
        1.274926954492134
    ],
    "inner_weights": [
        [
            5.000453927454618,
            14.55684406122328,
            15.068033119802124,
            -12.86937032590761,
            -8.29616269500221,
            11.796543581241291,
            1.518493902480433,
            7.012905533720254,
            13.62187777570086
        ],
        [
            3.745235747569488,
            5.339531469461427,
            -5.315141078999542,
            -10.146848166382604,
            -4.4012309929037094,
            -3.1406051603970973,
            8.381147527199435,
            -7.464479270336458,
            -7.452943250359976
        ],
        [
            15.234463028611021,
            -14.00801477164709,
            -2.5852821657852942,
            -4.760005655673169,
            -13.136468088092457,
            -9.68454747407035,
            14.107459342255513,
            -15.661906170083874,
            -10.044612462835289
        ],
        [
            15.535611438866283,
            -5.1119574345875485,
            -5.550636422590657,
            4.925130847492216,
            -15.29546589085044,
            -9.854759248410208,
            14.47942063576166,
            8.022502795555699,
            -8.737538774871382
        ],
        [
            4.412561041246001,
            -14.977661993247516,
            -2.8093691046810036,
            14.306639975120543,
            8.363663411874462,
            -1.215439222289202,
            -4.531890503873445,
            -7.302697727254007,
            -10.752917354718608
        ],
        [
            4.763226739732957,
            6.39843393479331,
            8.115860542877648,
            13.884353663924298,
            3.7831918090787084,
            6.3537008914623065,
            -9.371125594383962,
            -15.570055364956392,
            12.525167329928848
        ],
        [
            11.10994529260454,
            10.270743721861507,
            9.697179629772862,
            -0.9415272925749427,
            -2.9375553881793586,
            -8.785395890054367,
            -6.209726520531049,
            -7.179519090247144,
            -11.876028372873797
        ],
        [
            -7.528723131873967,
            -14.423370518871494,
            -1.4676800796385905,
            -2.14726286287188,
            2.83504798343057,
            3.4275560187456335,
            -0.43384881758119676,
            -9.816023900256528,
            4.324470167103314
        ],
        [
            -4.689133911350297,
            1.5502077900534559,
            -7.821198348212391,
            3.359521403787337,
            -10.325061224633089,
            15.254027667830407,
            -12.823675114652122,
            -0.7086017155896727,
            -1.0109949805631508
        ]
    ],
    "outputs": [
        0.0,
        0.0,
        0.0,
        0.0,
        0.0,
        0.0,
        0.0,
        0.0,
        0.0
    ],
    "weight_range": 16,
    "bias_range": 16,
    "tc_min": 1,
    "tc_max": 1,
    "inv_time_constants": [
        1.0,
        1.0,
        1.0,
        1.0,
        1.0,
        1.0,
        1.0,
        1.0,
        1.0
    ]
}