{
    "size": 9,
    "voltages": [
        0.0,
        0.0,
        0.0,
        0.0,
        0.0,
        0.0,
        0.0,
        0.0,
        0.0
    ],
    "time_constants": [
        1.0,
        1.0,
        1.0,
        1.0,
        1.0,
        1.0,
        1.0,
        1.0,
        1.0
    ],
    "biases": [
        -12.485820220228991,
        5.888742883956084,
        0.46891830667700773,
        2.292523891671973,
        10.998623807700973,
        -0.39239554721042325,
        9.924621508036637,
        0.32779613743808156,
        13.655062183688038
    ],
    "inner_weights": [
        [
            14.944954848437654,
            1.5114319736231145,
            15.125899518876299,
            6.874111797579669,
            6.327322387112666,
            -9.085136141427956,
            15.240782552839736,
            -15.800631833453124,
            -7.904564403729793
        ],
        [
            -2.0866709630577347,
            8.940253497400079,
            -9.674077612791901,
            11.615783539175112,
            15.468821669610008,
            -10.757048275049641,
            3.114686205851495,
            -15.71244487463824,
            -3.6297189554038596
        ],
        [
            -14.586878146192014,
            14.61289496685555,
            -2.043307299846475,
            14.367273817010009,
            9.16179154992195,
            11.72125755461435,
            -10.458706512129659,
            -13.601645215580575,
            3.2237670840886175
        ],
        [
            -10.624890121011077,
            7.4681653603382365,
            -2.9297964751355288,
            0.8930823493734508,
            14.002290686430143,
            0.694275918238656,
            -12.537811747608618,
            -10.936850970086418,
            1.4464848545028097
        ],
        [
            0.7809305621911484,
            4.403527812031797,
            -3.1521458051112674,
            4.7937634886189535,
            -3.299199907144555,
            3.9653156335431383,
            8.556958946883963,
            -10.272834878683813,
            -3.981575405198644
        ],
        [
            0.08105789846189992,
            5.973346557323065,
            -7.882251242835739,
            1.751707614161873,
            3.997787010051127,
            12.656037313796674,
            -4.388685170139954,
            4.401826336599573,
            -9.873715132193173
        ],
        [
            -0.07058833224621708,
            -10.161747053721381,
            13.388257252472407,
            -2.181693717080716,
            10.56601926714708,
            -2.6631582502923976,
            12.949362839787742,
            -3.045593046051007,
            -5.402415901084073
        ],
        [
            2.308440648727956,
            11.054196771011625,
            11.552457976098303,
            3.062019746186703,
            -13.290828447346872,
            3.1125314342135972,
            -8.145481325340732,
            7.442990354878969,
            12.628841354135641
        ],
        [
            0.4714870692206432,
            3.3140323315266045,
            -13.917830003750165,
            1.2823913485698029,
            -11.866022922545994,
            3.6660110832106234,
            -4.363188894565187,
            8.568257098583864,
            -14.44690763457432
        ]
    ],
    "outputs": [
        0.0,
        0.0,
        0.0,
        0.0,
        0.0,
        0.0,
        0.0,
        0.0,
        0.0
    ],
    "weight_range": 16,
    "bias_range": 16,
    "tc_min": 1,
    "tc_max": 1,
    "inv_time_constants": [
        1.0,
        1.0,
        1.0,
        1.0,
        1.0,
        1.0,
        1.0,
        1.0,
        1.0
    ]
}