{
    "size": 9,
    "voltages": [
        0.0,
        0.0,
        0.0,
        0.0,
        0.0,
        0.0,
        0.0,
        0.0,
        0.0
    ],
    "time_constants": [
        1.0,
        1.0,
        1.0,
        1.0,
        1.0,
        1.0,
        1.0,
        1.0,
        1.0
    ],
    "biases": [
        14.413521953914096,
        2.026870929623506,
        -9.215004153001878,
        1.3095056308084523,
        -10.45333639588678,
        -11.280029266555452,
        7.247841088565266,
        -9.287414638094742,
        -15.293117586500589
    ],
    "inner_weights": [
        [
            4.72163357929675,
            0.22879002281856486,
            0.9069241648716613,
            12.681126528316412,
            6.399718101359614,
            6.857507259876318,
            6.954828226924825,
            -8.869777210148445,
            -10.395055253631263
        ],
        [
            -1.3810723731814072,
            13.719629809233993,
            -15.68365161470565,
            -13.122489770113486,
            11.206408571357649,
            -0.4601261153579195,
            12.058738942360808,
            -6.1653139563145345,
            -3.585102522834628
        ],
        [
            2.6062637741103387,
            -12.362010223493918,
            8.572165913574096,
            -5.997886726303783,
            4.67233471207312,
            -14.953634656126692,
            -10.675341538185588,
            -2.2303029636721305,
            -8.710192959766694
        ],
        [
            14.921838914806774,
            12.958061075409333,
            11.701213218128231,
            -14.970790964023077,
            9.5839280243319,
            12.996976371542505,
            6.525866584127975,
            -8.649201706177898,
            -2.834060827625592
        ],
        [
            15.316606770735962,
            -5.470529277752977,
            3.056930288724761,
            1.147082908503073,
            -1.244929422179652,
            -8.774410818613404,
            13.457694918203089,
            3.5463309385287474,
            -8.957058509325957
        ],
        [
            -14.74289280781942,
            1.532466487495416,
            -13.114025052105216,
            10.178184961669672,
            5.874226597587388,
            13.946495686472783,
            -13.122845986059996,
            -15.572556453698162,
            -9.084401786058468
        ],
        [
            -3.7213627854622224,
            7.601077562434089,
            -7.83826349433831,
            -7.82724764471762,
            -8.35423302818683,
            -12.591327715892927,
            -10.167181013088538,
            12.573834662909828,
            -14.088403177847876
        ],
        [
            -10.68916740063268,
            -14.815600191441295,
            6.427310248224291,
            15.892789246396063,
            -12.447129958577175,
            7.1858269211150265,
            -5.2027714365817985,
            -10.341515176405434,
            14.139772076537454
        ],
        [
            15.229903669673494,
            8.472507458013418,
            -3.11855947708095,
            -2.6236233586659026,
            4.639279212559806,
            -14.858112857822775,
            -11.690193456915814,
            4.312791805092878,
            13.777635600174456
        ]
    ],
    "outputs": [
        0.0,
        0.0,
        0.0,
        0.0,
        0.0,
        0.0,
        0.0,
        0.0,
        0.0
    ],
    "weight_range": 16,
    "bias_range": 16,
    "tc_min": 1,
    "tc_max": 1,
    "inv_time_constants": [
        1.0,
        1.0,
        1.0,
        1.0,
        1.0,
        1.0,
        1.0,
        1.0,
        1.0
    ]
}