{
    "size": 9,
    "voltages": [
        0.0,
        0.0,
        0.0,
        0.0,
        0.0,
        0.0,
        0.0,
        0.0,
        0.0
    ],
    "time_constants": [
        1.0,
        1.0,
        1.0,
        1.0,
        1.0,
        1.0,
        1.0,
        1.0,
        1.0
    ],
    "biases": [
        2.845117774798382,
        -3.7442209192475566,
        -12.32579361067176,
        11.662528284417977,
        10.293025001598068,
        7.599733917062672,
        10.891013444670865,
        -3.1510686890354833,
        7.955840040776138
    ],
    "inner_weights": [
        [
            -0.17274734278331394,
            -8.701340657621241,
            -7.824834439769237,
            -3.3174428888711383,
            -3.925916873884031,
            15.890375364948778,
            -2.937689589337694,
            8.700607834870834,
            8.337174016284298
        ],
        [
            -6.079700842069375,
            -4.910681453993686,
            -4.743525840110003,
            -11.34506059212304,
            15.125269910958409,
            13.093710015759683,
            1.9186273191080012,
            -5.965096112105453,
            12.422401200764423
        ],
        [
            5.586338106312446,
            -3.485201675566028,
            0.22989196521524846,
            0.7713120852516475,
            13.696029690129677,
            2.283938209245651,
            5.3868022008537615,
            -14.327721884591703,
            -5.534166269983533
        ],
        [
            -14.19514754651221,
            -10.245513789958803,
            13.629861520033362,
            14.016487134156542,
            6.850966637890998,
            7.446003485008532,
            -1.2240743595381716,
            13.80253656339034,
            -2.9945522130941598
        ],
        [
            5.862584656875043,
            4.797307778849991,
            3.1604857172090277,
            -8.894739453450374,
            5.835429412364121,
            12.097801683275076,
            9.494952424994189,
            -2.17592807046141,
            13.372103013068475
        ],
        [
            9.01867768725619,
            7.224008907176696,
            -12.004649808333031,
            13.321870379293163,
            -3.593248200630523,
            -6.562254543135094,
            3.735405271120456,
            -1.0289206725988969,
            -7.829154740973973
        ],
        [
            10.847868438533695,
            -10.28418552449029,
            -8.732346537699485,
            5.116046273097808,
            -0.6682801586255067,
            -13.649685045193507,
            -11.553277719372389,
            -12.40617012356956,
            -0.7108811066118541
        ],
        [
            1.2894793366534998,
            14.658273571314076,
            2.6813539655508016,
            0.8532509147170657,
            13.512406043028953,
            13.41622452632797,
            -7.93571632773785,
            5.844243542916924,
            14.856835795255549
        ],
        [
            -8.737227295208164,
            6.91255035312858,
            9.528323439736251,
            13.976038388726746,
            11.319119865133196,
            -2.5105341855286625,
            -15.825924196453737,
            -14.884309478994975,
            -15.5550282981376
        ]
    ],
    "outputs": [
        0.0,
        0.0,
        0.0,
        0.0,
        0.0,
        0.0,
        0.0,
        0.0,
        0.0
    ],
    "weight_range": 16,
    "bias_range": 16,
    "tc_min": 1,
    "tc_max": 1,
    "inv_time_constants": [
        1.0,
        1.0,
        1.0,
        1.0,
        1.0,
        1.0,
        1.0,
        1.0,
        1.0
    ]
}