{
    "size": 9,
    "voltages": [
        0.0,
        0.0,
        0.0,
        0.0,
        0.0,
        0.0,
        0.0,
        0.0,
        0.0
    ],
    "time_constants": [
        1.0,
        1.0,
        1.0,
        1.0,
        1.0,
        1.0,
        1.0,
        1.0,
        1.0
    ],
    "biases": [
        14.36846409716355,
        9.167077813012956,
        -0.5904993283659827,
        -15.618510285351803,
        -14.088935017304067,
        10.422967947005318,
        -3.051616407234082,
        -14.299100405850591,
        -7.691550457372525
    ],
    "inner_weights": [
        [
            13.411489017573818,
            4.550259197563374,
            8.118791351333655,
            -11.54193382071248,
            -13.205774464332798,
            9.216065857167738,
            -5.563170014896357,
            1.314170287230965,
            -8.312474372223807
        ],
        [
            1.4535336184289562,
            -3.1822558822435454,
            6.886140392952221,
            10.773758114598234,
            2.831396561493854,
            -6.523053950932493,
            -7.0074338990731455,
            6.5791118290377355,
            -2.476914233927932
        ],
        [
            -14.165888472089403,
            7.904873814627891,
            -1.5259835821025014,
            -10.37520838299762,
            -14.419936021936415,
            -6.640789161761447,
            -13.862427805073239,
            8.037007551715984,
            -13.959311229419
        ],
        [
            -2.178933778823314,
            -4.346482769823467,
            -11.136911177838051,
            1.4947308709093043,
            -1.814622796725324,
            -14.846038079906847,
            10.33258211934417,
            -7.254634139840508,
            -10.592472983269065
        ],
        [
            4.619832150749357,
            -12.558685478317038,
            -4.696156860252714,
            -3.6574829403005964,
            -1.7422108794917008,
            15.265685165885031,
            7.340608289708321,
            -6.008478133403102,
            12.63216765740971
        ],
        [
            9.064755045585837,
            -7.615989077294682,
            -6.096538043041832,
            -11.857579847280931,
            -2.49051660052503,
            14.072481118955437,
            -4.254628058862409,
            -2.087200874147694,
            13.346993739498217
        ],
        [
            14.313405472017092,
            -7.8472656611613125,
            6.71051449588585,
            -14.400755045130015,
            -11.688194220128857,
            0.2081901794145189,
            2.850307105616409,
            -5.539244522948103,
            -11.365937657033275
        ],
        [
            -7.755568308084278,
            11.438268428725994,
            5.887160065300105,
            15.956243314597295,
            -5.777418700536824,
            -1.4909367480236995,
            11.763909688796641,
            4.4327097868097916,
            -5.379446336545676
        ],
        [
            1.343284247933866,
            -12.405638117098142,
            10.12875019601864,
            -8.93018731686994,
            0.4791765794895859,
            0.834808573592575,
            -7.133161968857241,
            12.941460213137603,
            -2.5463358858823533
        ]
    ],
    "outputs": [
        0.0,
        0.0,
        0.0,
        0.0,
        0.0,
        0.0,
        0.0,
        0.0,
        0.0
    ],
    "weight_range": 16,
    "bias_range": 16,
    "tc_min": 1,
    "tc_max": 1,
    "inv_time_constants": [
        1.0,
        1.0,
        1.0,
        1.0,
        1.0,
        1.0,
        1.0,
        1.0,
        1.0
    ]
}