{
    "size": 9,
    "voltages": [
        0.0,
        0.0,
        0.0,
        0.0,
        0.0,
        0.0,
        0.0,
        0.0,
        0.0
    ],
    "time_constants": [
        1.0,
        1.0,
        1.0,
        1.0,
        1.0,
        1.0,
        1.0,
        1.0,
        1.0
    ],
    "biases": [
        -12.425842330125715,
        10.99375891552716,
        -4.927099143809524,
        -12.773527268395355,
        -3.730909885852313,
        0.3313535148559339,
        14.755298622884155,
        -4.111596309503767,
        -15.604178828788555
    ],
    "inner_weights": [
        [
            -8.896218525128337,
            11.863433797676045,
            -9.384987029138355,
            13.39554905401349,
            -0.3708419585654674,
            3.5758036128846626,
            8.509051407370098,
            0.5893756119341838,
            -6.5023839495608975
        ],
        [
            -9.992920682839948,
            -13.416279399524004,
            7.63008947836704,
            -1.878104867329501,
            -10.934084233195161,
            12.157984998440924,
            -7.2292332162488115,
            -2.744479389406358,
            -6.525442152523265
        ],
        [
            4.121213084143466,
            2.5548099260654418,
            3.197734291999602,
            -7.493788238863768,
            -6.8900518194763585,
            -7.8851774152388,
            -5.517953673960509,
            -11.386742379090546,
            -10.700388441559436
        ],
        [
            14.84577693017414,
            14.727254889142202,
            -9.970731020930074,
            -15.222190027856417,
            -9.454222515841579,
            6.39499565204984,
            8.944466737776953,
            -15.266141041949393,
            2.4852114601521933
        ],
        [
            -15.947450473086551,
            0.49512358097259224,
            4.473445636187428,
            15.539980889734043,
            -7.708876914844616,
            9.679900328411847,
            11.85545878404746,
            13.527987646261437,
            -15.929145198961805
        ],
        [
            -0.9763721037575266,
            15.406999603392336,
            -3.233766275108785,
            10.03943928278138,
            1.486607935119288,
            8.667330788487185,
            -0.482205600369344,
            -15.068429962473033,
            -13.231177971129437
        ],
        [
            -12.433478003903254,
            -7.9601564259024755,
            14.87728936084368,
            4.216513687607854,
            10.13312648369158,
            2.1146238749682027,
            4.331398578620579,
            9.98087651777314,
            13.653843687803978
        ],
        [
            13.20405643852106,
            10.393943054032814,
            -12.985512570325675,
            -4.446450609158109,
            -14.863710983669431,
            1.4834671533058206,
            9.476567067392136,
            -14.363430300756892,
            -9.962632454620547
        ],
        [
            -4.3047114268107265,
            -8.182692257346933,
            9.442799133473024,
            -4.732962055476207,
            4.44408582593169,
            -0.2107183393036891,
            2.671991799041809,
            14.057579262875251,
            14.193282624508146
        ]
    ],
    "outputs": [
        0.0,
        0.0,
        0.0,
        0.0,
        0.0,
        0.0,
        0.0,
        0.0,
        0.0
    ],
    "weight_range": 16,
    "bias_range": 16,
    "tc_min": 1,
    "tc_max": 1,
    "inv_time_constants": [
        1.0,
        1.0,
        1.0,
        1.0,
        1.0,
        1.0,
        1.0,
        1.0,
        1.0
    ]
}