{
    "size": 9,
    "voltages": [
        0.0,
        0.0,
        0.0,
        0.0,
        0.0,
        0.0,
        0.0,
        0.0,
        0.0
    ],
    "time_constants": [
        1.0,
        1.0,
        1.0,
        1.0,
        1.0,
        1.0,
        1.0,
        1.0,
        1.0
    ],
    "biases": [
        -12.473386648500185,
        15.641595303386449,
        14.022414372486583,
        0.01792097335744458,
        5.850474023772627,
        -0.4021696789514593,
        -8.859829126039664,
        -3.245367341136234,
        0.29408807495633127
    ],
    "inner_weights": [
        [
            15.494139217362456,
            -5.330807487531093,
            5.558451989412401,
            -9.715506649135214,
            -4.657713131487245,
            10.027710501825936,
            -8.068814287639647,
            -1.3244375953211573,
            12.073645487906806
        ],
        [
            -3.466929242642941,
            -5.56373054879008,
            -13.11695647219932,
            10.694967997562689,
            -12.921228641855027,
            4.7214426271129675,
            1.584127627755052,
            11.191697340499594,
            -7.509845816821361
        ],
        [
            -1.8922137280152,
            12.188332239836171,
            7.5634465585035215,
            6.804481196853462,
            -14.858496993985213,
            -15.368600673839595,
            -5.510500120191583,
            2.0165322676785706,
            7.862945508012658
        ],
        [
            7.346172410236786,
            15.686115829826097,
            14.831479634029474,
            1.6062507182602772,
            15.624373478958194,
            0.2961477074626835,
            -4.807282004991617,
            13.802230905054476,
            -9.466171029673738
        ],
        [
            -3.162671989214047,
            -0.8897079906553351,
            -11.589524077913282,
            7.2064870275747595,
            2.743575565283628,
            -10.99117708730563,
            9.154432902949004,
            -10.709178253271709,
            7.818802046814206
        ],
        [
            -7.7038795723254765,
            8.071779167399352,
            -11.874426346548585,
            -15.186528914085237,
            -10.349403039523803,
            14.958811398564578,
            -6.965959195561727,
            10.441622115067407,
            -4.09098067481052
        ],
        [
            -0.9925935909308343,
            -9.971568693064707,
            -11.112461706611267,
            -15.947442039842311,
            -1.3241343482676342,
            -14.75798501827088,
            7.466456245736133,
            5.7377242520585625,
            -11.32500897002934
        ],
        [
            1.128746319159692,
            14.789534984991555,
            7.609410300465093,
            13.970218179905896,
            -5.523406535041847,
            11.158594390692667,
            11.944684399613543,
            -11.176500437858675,
            -15.442763942065884
        ],
        [
            -2.0860000859149928,
            -3.0970356465747386,
            -5.318199793663119,
            -14.858787630068523,
            -8.894842658680862,
            -4.340176872926282,
            0.8848625628444822,
            8.123447399730338,
            6.146386613528971
        ]
    ],
    "outputs": [
        0.0,
        0.0,
        0.0,
        0.0,
        0.0,
        0.0,
        0.0,
        0.0,
        0.0
    ],
    "weight_range": 16,
    "bias_range": 16,
    "tc_min": 1,
    "tc_max": 1,
    "inv_time_constants": [
        1.0,
        1.0,
        1.0,
        1.0,
        1.0,
        1.0,
        1.0,
        1.0,
        1.0
    ]
}