{
    "size": 7,
    "voltages": [
        0.0,
        0.0,
        0.0,
        0.0,
        0.0,
        0.0,
        0.0
    ],
    "time_constants": [
        1.0,
        1.0,
        1.0,
        1.0,
        1.0,
        1.0,
        1.0
    ],
    "biases": [
        7.4034346743348,
        6.166848024578453,
        3.1764561829947233,
        -9.720390562011783,
        5.095723609513911,
        -6.124525979209686,
        -4.180129735630292
    ],
    "inner_weights": [
        [
            -13.204811427130398,
            -8.624732814344704,
            -2.8460457395547927,
            -6.054953646077216,
            2.1105885043681774,
            1.4420385210832158,
            9.827182170572055
        ],
        [
            13.38096343307512,
            0.7069040909976678,
            -2.4100076355748783,
            -13.70227345441159,
            12.75292320573497,
            -2.543557566238519,
            2.6294332140286585
        ],
        [
            -9.147086851985499,
            -1.6804582469416651,
            -1.028358259669389,
            -12.779610978016642,
            13.67321263367069,
            -10.84842098103897,
            11.987013782782999
        ],
        [
            -14.330878180535734,
            15.752946240354031,
            -12.635285892995839,
            -3.136324709218833,
            -13.701230257887904,
            -15.385822792909522,
            7.0820527001016735
        ],
        [
            -14.673092314217012,
            -15.403182839048998,
            -13.345992353658861,
            -7.011054276524231,
            -2.267465350978899,
            -15.368628997801657,
            -1.2266273019172864
        ],
        [
            5.426770440503702,
            5.537403718380929,
            9.502908922730555,
            -13.320952216146114,
            12.63596613571281,
            9.17463218023887,
            5.248771542443581
        ],
        [
            11.285726333440468,
            1.4204140034209338,
            -9.680914950924453,
            1.2386986164939593,
            0.2332796999806348,
            -7.1245745410697445,
            5.391495321020965
        ]
    ],
    "outputs": [
        0.0,
        0.0,
        0.0,
        0.0,
        0.0,
        0.0,
        0.0
    ],
    "weight_range": 16,
    "bias_range": 16,
    "tc_min": 1,
    "tc_max": 1,
    "inv_time_constants": [
        1.0,
        1.0,
        1.0,
        1.0,
        1.0,
        1.0,
        1.0
    ]
}