{
    "size": 7,
    "voltages": [
        0.0,
        0.0,
        0.0,
        0.0,
        0.0,
        0.0,
        0.0
    ],
    "time_constants": [
        1.0,
        1.0,
        1.0,
        1.0,
        1.0,
        1.0,
        1.0
    ],
    "biases": [
        15.73506131092471,
        4.375067387139307,
        -15.413694371812436,
        -11.534047284270873,
        4.650754482229662,
        -15.849991320734436,
        -13.68782277671611
    ],
    "inner_weights": [
        [
            -7.700112961649811,
            -14.612446362819192,
            2.624970948051338,
            -12.399610630044116,
            3.5448570399088126,
            -6.515585334536734,
            9.83207018915806
        ],
        [
            -12.965192482680969,
            6.403211961458219,
            13.852672738152162,
            10.950684771155942,
            9.598687501074597,
            15.130345410145836,
            1.1547655495784142
        ],
        [
            0.2314497618356519,
            14.55458743319996,
            8.822296830828705,
            2.8977877270422248,
            -10.595902634159923,
            -10.131505883857631,
            -14.98389755000106
        ],
        [
            -8.652052779457428,
            0.9571640478564412,
            6.141298015706305,
            -6.721050752870273,
            -13.116807945605725,
            15.540305652886769,
            8.741466815506271
        ],
        [
            1.5611356510081897,
            -10.935572990131451,
            8.01417696840084,
            0.7902260533016374,
            9.785686862163129,
            6.930097074191707,
            -15.491379210994591
        ],
        [
            0.4219192229091071,
            5.538217635777251,
            5.905322943586903,
            -0.43807821953931736,
            15.93342120579769,
            -4.502871616883546,
            -4.274803040822352
        ],
        [
            -11.650497499496332,
            -5.4341603211071785,
            -10.549910616288322,
            10.893500397306948,
            3.3767631247041585,
            -1.4284864710538905,
            6.476685829024262
        ]
    ],
    "outputs": [
        0.0,
        0.0,
        0.0,
        0.0,
        0.0,
        0.0,
        0.0
    ],
    "weight_range": 16,
    "bias_range": 16,
    "tc_min": 1,
    "tc_max": 1,
    "inv_time_constants": [
        1.0,
        1.0,
        1.0,
        1.0,
        1.0,
        1.0,
        1.0
    ]
}