{
    "size": 7,
    "voltages": [
        0.0,
        0.0,
        0.0,
        0.0,
        0.0,
        0.0,
        0.0
    ],
    "time_constants": [
        1.0,
        1.0,
        1.0,
        1.0,
        1.0,
        1.0,
        1.0
    ],
    "biases": [
        4.53493539481056,
        -11.762542281228203,
        8.527546066554692,
        -13.544248313545062,
        -5.406597673677005,
        5.755250789861677,
        0.2948185427428385
    ],
    "inner_weights": [
        [
            11.84397237207078,
            2.6328617175219122,
            -7.07715389756579,
            -10.050840573114264,
            -2.844795906396378,
            -12.243982491689103,
            5.918999819972321
        ],
        [
            -1.9964460908911867,
            1.7993384055030468,
            -4.253429708181635,
            -3.124296677945509,
            -12.382697577779318,
            -1.695012919440341,
            2.7342437283531424
        ],
        [
            -10.816476676961976,
            0.6630012176858742,
            -5.566363963589584,
            6.373959614222112,
            -4.275374434678923,
            10.763984264513766,
            -0.5970258160794444
        ],
        [
            0.5280735357395514,
            -3.74245989858019,
            15.921308668082585,
            0.4558236240569258,
            1.8897047785110637,
            -14.897607420525713,
            7.0377608437547075
        ],
        [
            -2.527886476568245,
            -2.018075990648036,
            -6.98557587875262,
            12.808778817814812,
            5.427592899430465,
            -1.405799984367306,
            -6.726260967288447
        ],
        [
            0.8262068308711008,
            1.895745968049976,
            7.849082616975558,
            10.507080114345708,
            10.358222461601574,
            -13.531509763865856,
            4.635586251545689
        ],
        [
            -6.103757259630491,
            0.7761189080440971,
            14.658954801092538,
            12.262430588289735,
            -6.546179515657922,
            0.39603163077374504,
            -13.161522634102951
        ]
    ],
    "outputs": [
        0.0,
        0.0,
        0.0,
        0.0,
        0.0,
        0.0,
        0.0
    ],
    "weight_range": 16,
    "bias_range": 16,
    "tc_min": 1,
    "tc_max": 1,
    "inv_time_constants": [
        1.0,
        1.0,
        1.0,
        1.0,
        1.0,
        1.0,
        1.0
    ]
}