{
    "size": 7,
    "voltages": [
        0.0,
        0.0,
        0.0,
        0.0,
        0.0,
        0.0,
        0.0
    ],
    "time_constants": [
        1.0,
        1.0,
        1.0,
        1.0,
        1.0,
        1.0,
        1.0
    ],
    "biases": [
        8.563570369341452,
        -13.21769801965192,
        12.889979071591924,
        1.2000474144555682,
        -12.83377829978549,
        10.00302556508299,
        0.9617091732447562
    ],
    "inner_weights": [
        [
            -3.868847186119357,
            2.147141349747649,
            3.0589604050279,
            -1.6045152366255166,
            -1.3753655873690036,
            -6.027168067987343,
            -5.973204441677748
        ],
        [
            -6.564497247949426,
            0.9847187595400442,
            -3.3208953088185957,
            7.000011909918701,
            1.5389439023964968,
            2.626402646628513,
            -10.63516999068646
        ],
        [
            -15.063129676883346,
            -9.320258626751666,
            -15.277586029514286,
            4.309582149973977,
            -8.817864345608342,
            -3.254084150365056,
            3.8240255491850945
        ],
        [
            -15.937648082097144,
            -14.858560999604343,
            -3.9427343193781965,
            -9.07377810965195,
            -3.0449445486828743,
            11.711812273835527,
            -7.8168505533277965
        ],
        [
            3.24591613519857,
            -8.739157092767137,
            -9.405185681180207,
            -10.370562043912614,
            12.435178438786153,
            5.490633483913694,
            -3.973748242379166
        ],
        [
            -15.4243844960194,
            -4.718786822020828,
            -6.207271599207353,
            -2.453041579323461,
            -3.3886019707445847,
            2.208434906762463,
            2.4056918153800417
        ],
        [
            3.9450497336045203,
            -8.007471478686618,
            -11.809745172065497,
            -8.157658847799809,
            15.658561687871007,
            14.622697393339383,
            6.770445232736908
        ]
    ],
    "outputs": [
        0.0,
        0.0,
        0.0,
        0.0,
        0.0,
        0.0,
        0.0
    ],
    "weight_range": 16,
    "bias_range": 16,
    "tc_min": 1,
    "tc_max": 1,
    "inv_time_constants": [
        1.0,
        1.0,
        1.0,
        1.0,
        1.0,
        1.0,
        1.0
    ]
}