{
    "size": 7,
    "voltages": [
        0.0,
        0.0,
        0.0,
        0.0,
        0.0,
        0.0,
        0.0
    ],
    "time_constants": [
        1.0,
        1.0,
        1.0,
        1.0,
        1.0,
        1.0,
        1.0
    ],
    "biases": [
        5.874226597587388,
        13.946495686472783,
        -13.122845986059996,
        -15.572556453698162,
        -9.084401786058468,
        -3.7213627854622224,
        7.601077562434089
    ],
    "inner_weights": [
        [
            4.72163357929675,
            0.22879002281856486,
            0.9069241648716613,
            12.681126528316412,
            6.399718101359614,
            6.857507259876318,
            6.954828226924825
        ],
        [
            -8.869777210148445,
            -10.395055253631263,
            -1.3810723731814072,
            13.719629809233993,
            -15.68365161470565,
            -13.122489770113486,
            11.206408571357649
        ],
        [
            -0.4601261153579195,
            12.058738942360808,
            -6.1653139563145345,
            -3.585102522834628,
            2.6062637741103387,
            -12.362010223493918,
            8.572165913574096
        ],
        [
            -5.997886726303783,
            4.67233471207312,
            -14.953634656126692,
            -10.675341538185588,
            -2.2303029636721305,
            -8.710192959766694,
            14.921838914806774
        ],
        [
            12.958061075409333,
            11.701213218128231,
            -14.970790964023077,
            9.5839280243319,
            12.996976371542505,
            6.525866584127975,
            -8.649201706177898
        ],
        [
            -2.834060827625592,
            15.316606770735962,
            -5.470529277752977,
            3.056930288724761,
            1.147082908503073,
            -1.244929422179652,
            -8.774410818613404
        ],
        [
            13.457694918203089,
            3.5463309385287474,
            -8.957058509325957,
            -14.74289280781942,
            1.532466487495416,
            -13.114025052105216,
            10.178184961669672
        ]
    ],
    "outputs": [
        0.0,
        0.0,
        0.0,
        0.0,
        0.0,
        0.0,
        0.0
    ],
    "weight_range": 16,
    "bias_range": 16,
    "tc_min": 1,
    "tc_max": 1,
    "inv_time_constants": [
        1.0,
        1.0,
        1.0,
        1.0,
        1.0,
        1.0,
        1.0
    ]
}