{
    "size": 7,
    "voltages": [
        0.0,
        0.0,
        0.0,
        0.0,
        0.0,
        0.0,
        0.0
    ],
    "time_constants": [
        1.0,
        1.0,
        1.0,
        1.0,
        1.0,
        1.0,
        1.0
    ],
    "biases": [
        13.09330143217024,
        -6.2055690675968265,
        -10.172559813631118,
        -14.887110100465467,
        -4.153630377770575,
        14.811116173280993,
        2.5358508848108627
    ],
    "inner_weights": [
        [
            -15.440311330203116,
            12.53034454976827,
            -6.884442640834614,
            -6.432755921313348,
            9.34509634097374,
            -5.616940880696678,
            11.670732374088267
        ],
        [
            -1.6795957691560268,
            1.5433570032030133,
            -4.5704961654403355,
            -12.406015187433287,
            -11.459291044854492,
            -1.7613095452100822,
            7.4233672059811795
        ],
        [
            -1.276760697719311,
            2.9678210872119166,
            -5.225156562269401,
            -1.4583097334947261,
            -10.011911269423209,
            -2.9172731751452616,
            -11.772734721730686
        ],
        [
            -14.812469920485164,
            -13.376389415964447,
            -9.169921565429078,
            1.4473364388719254,
            4.962123147951122,
            2.841213305988191,
            2.3994747888322934
        ],
        [
            -5.290069834057782,
            -3.821681961697884,
            -3.14749785832689,
            5.73839462844294,
            -11.32235454132627,
            9.241094985540343,
            -14.802334220020978
        ],
        [
            3.6361723995653357,
            -11.133829585912423,
            8.700065604755505,
            -7.580190722456187,
            8.703015353540763,
            -6.801524850107793,
            4.853739968080021
        ],
        [
            14.418842835298872,
            13.39117895892159,
            -10.726931832661336,
            -5.190601262527082,
            -13.117857091955628,
            6.170826627996636,
            5.757270142013823
        ]
    ],
    "outputs": [
        0.0,
        0.0,
        0.0,
        0.0,
        0.0,
        0.0,
        0.0
    ],
    "weight_range": 16,
    "bias_range": 16,
    "tc_min": 1,
    "tc_max": 1,
    "inv_time_constants": [
        1.0,
        1.0,
        1.0,
        1.0,
        1.0,
        1.0,
        1.0
    ]
}