{
    "size": 7,
    "voltages": [
        0.0,
        0.0,
        0.0,
        0.0,
        0.0,
        0.0,
        0.0
    ],
    "time_constants": [
        1.0,
        1.0,
        1.0,
        1.0,
        1.0,
        1.0,
        1.0
    ],
    "biases": [
        -0.1674385677253909,
        -6.2812182068095765,
        -6.3434600612532215,
        -15.763618481695868,
        2.5428277368721055,
        6.98617804748525,
        -2.9675685778931147
    ],
    "inner_weights": [
        [
            -6.8462777068635,
            14.659378128608001,
            8.650013831004095,
            15.579840098958812,
            -9.338705219048922,
            -11.618654436997499,
            13.067961673276805
        ],
        [
            -13.803567424732151,
            -13.589352885130971,
            1.3931100635940084,
            -13.139209071421824,
            -3.763415439157974,
            5.393934069795797,
            -2.2665912780210142
        ],
        [
            -14.593398160435093,
            -9.782848360031341,
            -1.7068965128713351,
            -13.997655100735663,
            -6.4778469755146055,
            14.196188797360481,
            -6.950045575644882
        ],
        [
            -7.4338065103090045,
            -2.9689918676995752,
            10.431692894494855,
            0.2144212221481041,
            -7.376787806530743,
            -5.113974802585808,
            15.183099247682328
        ],
        [
            -10.10225346814843,
            -8.247290475983394,
            6.094698038400882,
            -3.7140711547458274,
            -1.233841507326293,
            5.607199585425715,
            -13.256620676719152
        ],
        [
            -8.511467286853744,
            0.7186841031598341,
            -13.788266382896062,
            -13.112425654771677,
            -13.313028544533267,
            -5.670382313606442,
            13.14890879555563
        ],
        [
            10.623680415724905,
            8.002568630095737,
            -0.9838779280924008,
            11.754379853586073,
            -7.062787050048559,
            -13.387644886757059,
            -11.225232738231636
        ]
    ],
    "outputs": [
        0.0,
        0.0,
        0.0,
        0.0,
        0.0,
        0.0,
        0.0
    ],
    "weight_range": 16,
    "bias_range": 16,
    "tc_min": 1,
    "tc_max": 1,
    "inv_time_constants": [
        1.0,
        1.0,
        1.0,
        1.0,
        1.0,
        1.0,
        1.0
    ]
}