{
    "size": 7,
    "voltages": [
        0.0,
        0.0,
        0.0,
        0.0,
        0.0,
        0.0,
        0.0
    ],
    "time_constants": [
        1.0,
        1.0,
        1.0,
        1.0,
        1.0,
        1.0,
        1.0
    ],
    "biases": [
        -14.874615632934248,
        -13.303274568580939,
        7.440662340542403,
        4.3583998026517605,
        -15.106950756430958,
        -6.394558085632429,
        -8.932719333475664
    ],
    "inner_weights": [
        [
            -11.066789043850484,
            7.681590288492952,
            -7.5739195140756905,
            1.0796605881695278,
            -15.53360120046657,
            13.399904259196319,
            12.822875331744392
        ],
        [
            -14.930514315956973,
            14.622378760803738,
            -11.609301716605554,
            -6.917492705345733,
            3.394661899482525,
            14.215204353697349,
            11.287537315497119
        ],
        [
            -15.927704527407567,
            0.679232871049372,
            1.66520426446613,
            -0.4679227627932896,
            8.580292930061514,
            -10.857063899981757,
            8.46593441084412
        ],
        [
            -15.334086465533883,
            -11.67327429218826,
            -12.279263443145926,
            -6.083277296319064,
            5.486484646784085,
            -0.9206470959995485,
            10.11738553747286
        ],
        [
            -6.733222927022286,
            7.46003128360546,
            6.483915368167882,
            -5.517776759570463,
            -5.291279068606215,
            15.297858528528604,
            3.9866275755312763
        ],
        [
            14.410032790384811,
            8.55922081985564,
            10.400296102872751,
            -2.9875103421868268,
            -1.558130834517943,
            -3.1797879244264458,
            15.844421130833872
        ],
        [
            -10.317946369987542,
            14.803100896891209,
            -2.583991351708601,
            -2.430321710368041,
            -1.1792361687249304,
            -4.0408592376347094,
            -1.1037407944796485
        ]
    ],
    "outputs": [
        0.0,
        0.0,
        0.0,
        0.0,
        0.0,
        0.0,
        0.0
    ],
    "weight_range": 16,
    "bias_range": 16,
    "tc_min": 1,
    "tc_max": 1,
    "inv_time_constants": [
        1.0,
        1.0,
        1.0,
        1.0,
        1.0,
        1.0,
        1.0
    ]
}