{
    "size": 8,
    "voltages": [
        0.0,
        0.0,
        0.0,
        0.0,
        0.0,
        0.0,
        0.0,
        0.0
    ],
    "time_constants": [
        1.0,
        1.0,
        1.0,
        1.0,
        1.0,
        1.0,
        1.0,
        1.0
    ],
    "biases": [
        2.9630299943479343,
        -8.476146967761142,
        14.87907198515606,
        14.241543161369403,
        11.148828186806039,
        -0.8856321187711274,
        10.927254876748712,
        -11.804459444866755
    ],
    "inner_weights": [
        [
            -13.55813474003337,
            8.957401351683668,
            -1.970904593891408,
            7.150885690590119,
            15.295664383891285,
            1.2318678531338776,
            0.03585483711801274,
            -13.69436373248763
        ],
        [
            -7.4099526367401225,
            -0.003759973582081244,
            5.735359875870095,
            9.719649155340015,
            -3.8098837392467715,
            -13.890036899011037,
            -6.779340822144206,
            13.106992887027637
        ],
        [
            -9.171668685442704,
            -1.5320332218341406,
            13.798592630048695,
            -15.203224718388864,
            3.217565358851921,
            14.40414401323666,
            -8.630307871329126,
            1.5516774155529731
        ],
        [
            13.0921079963754,
            -11.738577735703995,
            0.7492025815605068,
            8.013115491265115,
            5.408423708285241,
            -1.0319084881606173,
            -9.444829110470558,
            -0.29549154908574593
        ],
        [
            -4.083689939678113,
            -0.723163044749171,
            -4.291507655021025,
            10.81337581789634,
            8.596720208624298,
            -5.952170329194811,
            2.3240106446065276,
            -7.166430453417757
        ],
        [
            -1.5090261585151872,
            -4.70469228977937,
            5.036782808952264,
            -4.148765344382873,
            -1.3090247074741939,
            7.018371920289329,
            -2.7842614683572933,
            13.005544613258838
        ],
        [
            -10.225548185514189,
            7.715803933224457,
            -2.4840306034195088,
            -2.3534856740818455,
            4.300155796282841,
            0.7329984329070491,
            -2.723648689937818,
            -15.954339821991738
        ],
        [
            -13.047604932903933,
            6.7006205992068075,
            0.7790590964863107,
            6.277134832543005,
            14.57498633609363,
            5.8532433400133606,
            -14.299881898465358,
            -6.116714084358492
        ]
    ],
    "outputs": [
        0.0,
        0.0,
        0.0,
        0.0,
        0.0,
        0.0,
        0.0,
        0.0
    ],
    "weight_range": 16,
    "bias_range": 16,
    "tc_min": 1,
    "tc_max": 1,
    "inv_time_constants": [
        1.0,
        1.0,
        1.0,
        1.0,
        1.0,
        1.0,
        1.0,
        1.0
    ]
}