{
    "size": 8,
    "voltages": [
        0.0,
        0.0,
        0.0,
        0.0,
        0.0,
        0.0,
        0.0,
        0.0
    ],
    "time_constants": [
        1.0,
        1.0,
        1.0,
        1.0,
        1.0,
        1.0,
        1.0,
        1.0
    ],
    "biases": [
        -7.849367703149376,
        0.028662480689433778,
        13.692491984113595,
        0.092324812944522,
        -9.74145953207907,
        5.554080229419149,
        -5.83879721549836,
        9.279390553918894
    ],
    "inner_weights": [
        [
            4.566077305154529,
            1.2358697910063015,
            0.38073543867616166,
            3.528231267615883,
            -0.2243525244418656,
            -9.137216070674075,
            -8.192639382797402,
            2.3070248313087163
        ],
        [
            8.724117239201895,
            -6.059905539259336,
            -3.0693384194379547,
            3.0976015308560534,
            -8.274087459884253,
            12.98303492588494,
            -10.905221279713267,
            2.8372376217452597
        ],
        [
            -7.616909874854752,
            12.042871051849662,
            13.410413783908162,
            -12.640867043623572,
            15.061795501299013,
            -14.6103245613029,
            -14.910596757431108,
            1.0425878914484379
        ],
        [
            -15.12145454889951,
            -5.20009573542567,
            -9.813249363901654,
            -7.402239475890777,
            15.259943503596261,
            14.309297926311576,
            10.236336080063534,
            4.967201154245597
        ],
        [
            -14.226193602808298,
            6.053147329167871,
            4.377133530932202,
            3.288828044657137,
            -12.113853487234472,
            -9.188120782283388,
            0.23801826922759162,
            -0.7488568655776113
        ],
        [
            -13.394810310483205,
            -4.57575865637623,
            7.462274564464959,
            7.396574052519679,
            -12.222692819141063,
            -14.652513210716574,
            -5.796640713069134,
            10.840420709910724
        ],
        [
            3.452131157832529,
            -13.530928346873498,
            -7.496796129113346,
            2.76517150260095,
            -2.4340807000500426,
            4.3084350281851975,
            -14.361818165859042,
            2.7495541194993542
        ],
        [
            14.847400348071783,
            -15.822216112229732,
            6.031559893427762,
            12.734933566873988,
            9.376224050400474,
            5.266857880496541,
            9.894261094614006,
            -10.822768246191696
        ]
    ],
    "outputs": [
        0.0,
        0.0,
        0.0,
        0.0,
        0.0,
        0.0,
        0.0,
        0.0
    ],
    "weight_range": 16,
    "bias_range": 16,
    "tc_min": 1,
    "tc_max": 1,
    "inv_time_constants": [
        1.0,
        1.0,
        1.0,
        1.0,
        1.0,
        1.0,
        1.0,
        1.0
    ]
}