{
    "size": 8,
    "voltages": [
        0.0,
        0.0,
        0.0,
        0.0,
        0.0,
        0.0,
        0.0,
        0.0
    ],
    "time_constants": [
        1.0,
        1.0,
        1.0,
        1.0,
        1.0,
        1.0,
        1.0,
        1.0
    ],
    "biases": [
        -7.010095690003816,
        1.366274661063951,
        -11.490424800807595,
        9.67030338412927,
        -13.614379402247334,
        15.580381971216553,
        8.711832617493037,
        -9.641098190906483
    ],
    "inner_weights": [
        [
            -4.0147161968844,
            14.422857805117317,
            7.423806137964963,
            3.157071494305171,
            -11.007403505842031,
            -11.008175349241515,
            -14.141324410617617,
            11.717636664797926
        ],
        [
            3.2356803757826818,
            6.658322489473456,
            -15.341296182534322,
            15.037115269183818,
            10.638164505613496,
            -9.205148458295163,
            -10.18160104937278,
            -10.131055684690118
        ],
        [
            -6.264248225294793,
            0.7922058122316109,
            -2.1777594034522956,
            -6.680667513662659,
            3.579292631116143,
            -11.536196459134661,
            -6.651371246873019,
            -4.2764210146018655
        ],
        [
            -1.4057605050548503,
            9.125630764576435,
            -9.610438970932488,
            0.45550202923557137,
            2.957266203585359,
            -14.513586792960073,
            3.4414352608460277,
            -10.543228042006671
        ],
        [
            -13.918349024471055,
            14.364337192106664,
            14.9002250583859,
            9.868715139726756,
            -6.252359386452138,
            -12.874492351795716,
            5.895456848389021,
            -1.9151202003327583
        ],
        [
            -12.094776484967078,
            -0.15433887643935407,
            -14.899567324313011,
            13.098252866521026,
            -7.719040588799459,
            5.200713099327423,
            -6.0252455651388495,
            0.642176677689946
        ],
        [
            1.4947289389849487,
            -10.084657423183135,
            15.026708088465874,
            8.804250347555666,
            14.063966130054052,
            12.634475213684762,
            3.1327993219547245,
            13.499975520739738
        ],
        [
            -13.168239934338576,
            -9.728548402587354,
            -14.552726754862782,
            -5.589429415575541,
            -3.5623267299365757,
            -7.316830983235331,
            10.519600292861739,
            -4.583893545805143
        ]
    ],
    "outputs": [
        0.0,
        0.0,
        0.0,
        0.0,
        0.0,
        0.0,
        0.0,
        0.0
    ],
    "weight_range": 16,
    "bias_range": 16,
    "tc_min": 1,
    "tc_max": 1,
    "inv_time_constants": [
        1.0,
        1.0,
        1.0,
        1.0,
        1.0,
        1.0,
        1.0,
        1.0
    ]
}