{
    "size": 8,
    "voltages": [
        0.0,
        0.0,
        0.0,
        0.0,
        0.0,
        0.0,
        0.0,
        0.0
    ],
    "time_constants": [
        1.0,
        1.0,
        1.0,
        1.0,
        1.0,
        1.0,
        1.0,
        1.0
    ],
    "biases": [
        -5.574170941924017,
        -1.7553584235669746,
        -14.031074213441943,
        -8.23438649010118,
        15.091283397554164,
        -8.621305460637632,
        6.127280350314567,
        4.815259462839666
    ],
    "inner_weights": [
        [
            1.6255328823864161,
            6.6607303237793545,
            -6.6910483547857815,
            0.3464833663252165,
            12.57430253912495,
            12.681378845870018,
            -11.98127006515724,
            -9.368227899578024
        ],
        [
            -14.353049494373444,
            -1.894085003179633,
            -15.043961251885857,
            -1.3813368193692455,
            4.772609523672344,
            -7.088406955264791,
            5.640156863364201,
            2.9076101573232265
        ],
        [
            -15.232579763930708,
            1.8833308157082236,
            -7.703921698961107,
            -2.7167616956777714,
            -6.9271973833178,
            6.180413386015882,
            -1.9054810345363364,
            -10.980232368801175
        ],
        [
            1.4287685770190315,
            8.970072464363746,
            -6.196366963962248,
            -8.897347714170195,
            -3.5849197582192396,
            13.964276795533774,
            15.231853519133882,
            5.5162776292100375
        ],
        [
            12.890691473228738,
            11.064027881381737,
            -3.9041906774755475,
            -13.049055716104824,
            4.909148880753158,
            1.8509043964304297,
            -4.4299275819975,
            -8.798255845125379
        ],
        [
            -2.991362675960044,
            -0.9939120416265901,
            -7.38446149596604,
            -6.662631224786157,
            -1.3540352216647058,
            11.537085214301648,
            2.760092942970285,
            -6.928388402169286
        ],
        [
            -7.104719788044758,
            -1.452093583297703,
            -9.4268689726404,
            -9.55588124662166,
            0.44912191415814107,
            -13.20866019901425,
            -0.5252629647492313,
            -4.410361203589332
        ],
        [
            6.645971898101475,
            7.895879139264146,
            6.114973499384458,
            6.053773240157252,
            -4.044796027234295,
            5.380313751528561,
            -5.124842753381827,
            2.3294038358040012
        ]
    ],
    "outputs": [
        0.0,
        0.0,
        0.0,
        0.0,
        0.0,
        0.0,
        0.0,
        0.0
    ],
    "weight_range": 16,
    "bias_range": 16,
    "tc_min": 1,
    "tc_max": 1,
    "inv_time_constants": [
        1.0,
        1.0,
        1.0,
        1.0,
        1.0,
        1.0,
        1.0,
        1.0
    ]
}