{
    "size": 8,
    "voltages": [
        0.0,
        0.0,
        0.0,
        0.0,
        0.0,
        0.0,
        0.0,
        0.0
    ],
    "time_constants": [
        1.0,
        1.0,
        1.0,
        1.0,
        1.0,
        1.0,
        1.0,
        1.0
    ],
    "biases": [
        -13.219048316949952,
        10.89050008971914,
        13.186700805093952,
        -0.2854298910250499,
        1.3012743833981588,
        4.1584288959084645,
        -8.596923500364273,
        -10.153908995612642
    ],
    "inner_weights": [
        [
            -9.567884924224835,
            -5.471345072250177,
            -6.512009961565692,
            -13.013322608615429,
            -5.3414780000741295,
            7.20712769958255,
            4.875607805445977,
            0.15520304437984578
        ],
        [
            14.314581939351292,
            4.0768505083547915,
            15.753162907745235,
            -13.564120182966136,
            -5.036527132791807,
            -6.178063550586696,
            6.726548304995422,
            13.354161388078548
        ],
        [
            -13.410985584582694,
            -13.98933657256108,
            2.6293856156226667,
            5.414343127970209,
            -15.701075756662132,
            -2.4983491570736867,
            -3.347474181746634,
            -13.657470044260702
        ],
        [
            8.649544672118111,
            -9.940503897553459,
            -1.0237518390321547,
            4.8559529088677635,
            -15.738871319471247,
            -13.824799695495763,
            7.901765565441558,
            -10.960953176722231
        ],
        [
            1.1137124307754611,
            5.640843622419862,
            0.6257688187518511,
            0.6208096291208314,
            -1.0956303496183786,
            -8.171263739806186,
            13.169279091323475,
            -12.554424334050793
        ],
        [
            -0.5837177313543975,
            7.95870550513731,
            -3.6802684875831027,
            8.062105681947003,
            8.308298883872126,
            -6.78667322752408,
            5.549803248733486,
            -10.381636402079426
        ],
        [
            5.502672314957511,
            -6.511250979781732,
            0.3190239547307563,
            -7.879364354809123,
            1.0053096622125466,
            -11.480135427141452,
            3.706194750363405,
            -0.9474095734520702
        ],
        [
            14.4287136396105,
            -4.54666748738774,
            15.39077930884968,
            10.051109719677473,
            11.99504516818596,
            -5.597071887104107,
            11.453972574958478,
            5.572647310808762
        ]
    ],
    "outputs": [
        0.0,
        0.0,
        0.0,
        0.0,
        0.0,
        0.0,
        0.0,
        0.0
    ],
    "weight_range": 16,
    "bias_range": 16,
    "tc_min": 1,
    "tc_max": 1,
    "inv_time_constants": [
        1.0,
        1.0,
        1.0,
        1.0,
        1.0,
        1.0,
        1.0,
        1.0
    ]
}