{
    "size": 8,
    "voltages": [
        0.0,
        0.0,
        0.0,
        0.0,
        0.0,
        0.0,
        0.0,
        0.0
    ],
    "time_constants": [
        1.0,
        1.0,
        1.0,
        1.0,
        1.0,
        1.0,
        1.0,
        1.0
    ],
    "biases": [
        -14.44476881012939,
        -7.788803330138119,
        13.474996563271507,
        -13.172681512671957,
        3.616540232249438,
        8.042528702638382,
        -1.0162393834209027,
        4.270168628785029
    ],
    "inner_weights": [
        [
            -2.9540151014308442,
            -14.228286716420477,
            9.233116079576085,
            -6.8062340867409326,
            -1.5887812170473232,
            -6.274806229095503,
            0.8447847775086537,
            3.961990812309974
        ],
        [
            8.856814647198636,
            5.959732651726636,
            15.390043622009763,
            3.2261149509092206,
            10.046992638175858,
            6.676644869222358,
            -15.118890229678957,
            12.936550951415292
        ],
        [
            -1.6030447598838578,
            -12.194411071919848,
            10.72960563030868,
            -9.528056758886908,
            -10.425514542146605,
            -1.6272934499573992,
            5.433432979635551,
            14.636771490751709
        ],
        [
            10.66666402317227,
            0.2659188786432196,
            4.160753528755059,
            10.72110995230943,
            -1.685387350218157,
            8.3932951768635,
            4.381511755885423,
            -4.406531390920414
        ],
        [
            -15.533614416287282,
            1.3435165106590539,
            -5.819024604294778,
            -11.360308890671963,
            1.5645423129464966,
            -10.000599259498923,
            -3.232592761090892,
            -8.318777391869126
        ],
        [
            -14.827044711245332,
            2.193432229086852,
            13.528473569748481,
            -10.270236613920968,
            6.498485384581539,
            7.040409441824448,
            -15.005951404477209,
            2.6504098188404086
        ],
        [
            6.3256830566794555,
            13.115310970086767,
            14.93433578281839,
            10.743345019521986,
            14.43588382760235,
            0.20241693622560675,
            -9.776051784630535,
            -13.771367877797633
        ],
        [
            13.625461452730075,
            -3.477552611437144,
            -2.938536692537255,
            -10.531038377382835,
            -11.764955480737054,
            0.3193786266069658,
            -5.096187243967066,
            -1.378575961885165
        ]
    ],
    "outputs": [
        0.0,
        0.0,
        0.0,
        0.0,
        0.0,
        0.0,
        0.0,
        0.0
    ],
    "weight_range": 16,
    "bias_range": 16,
    "tc_min": 1,
    "tc_max": 1,
    "inv_time_constants": [
        1.0,
        1.0,
        1.0,
        1.0,
        1.0,
        1.0,
        1.0,
        1.0
    ]
}