{
    "size": 8,
    "voltages": [
        0.0,
        0.0,
        0.0,
        0.0,
        0.0,
        0.0,
        0.0,
        0.0
    ],
    "time_constants": [
        1.0,
        1.0,
        1.0,
        1.0,
        1.0,
        1.0,
        1.0,
        1.0
    ],
    "biases": [
        -15.716086861275173,
        -13.827315085908186,
        -2.0858806917251584,
        -2.192203811828456,
        -10.051722063367329,
        0.9505701344609463,
        3.1707600940844607,
        7.069582934002671
    ],
    "inner_weights": [
        [
            11.94974088933812,
            14.993301210269824,
            11.814225286845438,
            0.9873821297791672,
            -8.552693504726697,
            -15.635238263122243,
            -2.2249978146403038,
            -3.1247564788043256
        ],
        [
            0.7255894832822278,
            -0.6914625343231222,
            1.7714071623145742,
            1.388352561361291,
            8.348658419293727,
            6.79598637062692,
            3.8298270753100674,
            -2.3650633447618503
        ],
        [
            -6.749599103421193,
            15.163367718414278,
            -5.3192305436585485,
            -8.998366053765505,
            -13.894131590809234,
            15.45185748970988,
            -11.908617186398981,
            -5.69181461746626
        ],
        [
            -13.72982896799364,
            -8.807361953022546,
            -3.4036827218046426,
            12.676640156180326,
            -4.945228416068254,
            15.511981993128682,
            -15.080574433174547,
            -4.746088439356157
        ],
        [
            -3.8093155454767036,
            8.453124203710722,
            14.041725225944695,
            -5.769926513055115,
            -2.1607701507066928,
            -7.35533626907311,
            9.633788362444623,
            4.423641795939883
        ],
        [
            -13.801915729338969,
            3.3166232438115593,
            9.458385869727252,
            -14.975738994374503,
            -1.4256696926101426,
            9.28552132282514,
            15.635088579639337,
            2.686865392030935
        ],
        [
            -14.754806475445701,
            -1.7144669594271171,
            -9.978479510613944,
            4.065780699367949,
            -9.109830416872121,
            -11.168956554960115,
            1.156617813746383,
            -12.787622584814422
        ],
        [
            7.397069823381209,
            14.068833262117593,
            14.186181902822458,
            -4.008367839431163,
            3.064007867968826,
            5.183446792782966,
            0.3385745681046508,
            -0.9314373873968158
        ]
    ],
    "outputs": [
        0.0,
        0.0,
        0.0,
        0.0,
        0.0,
        0.0,
        0.0,
        0.0
    ],
    "weight_range": 16,
    "bias_range": 16,
    "tc_min": 1,
    "tc_max": 1,
    "inv_time_constants": [
        1.0,
        1.0,
        1.0,
        1.0,
        1.0,
        1.0,
        1.0,
        1.0
    ]
}