{
    "size": 9,
    "voltages": [
        0.0,
        0.0,
        0.0,
        0.0,
        0.0,
        0.0,
        0.0,
        0.0,
        0.0
    ],
    "time_constants": [
        1.0,
        1.0,
        1.0,
        1.0,
        1.0,
        1.0,
        1.0,
        1.0,
        1.0
    ],
    "biases": [
        10.442332762241396,
        15.068411814223241,
        4.729356430679534,
        -5.166133073614186,
        -3.6441506112309137,
        3.570892536228188,
        -2.527812468259682,
        0.9329675743725659,
        6.554454223119001
    ],
    "inner_weights": [
        [
            -6.285128849190928,
            -9.029197304238181,
            11.794243157126855,
            3.9741913184941704,
            8.1697796163549,
            -6.753506232813214,
            15.59530473820441,
            15.273515278408377,
            -15.745912410882962
        ],
        [
            12.888230133429442,
            1.0864309417609883,
            11.714519245501597,
            5.237017473479205,
            13.253295299564243,
            -6.896292707578304,
            10.806790802619062,
            12.168171868901199,
            -12.818225149382304
        ],
        [
            2.2987213618150433,
            -7.548336564857872,
            -3.289500471805329,
            15.017183141250133,
            -1.178062306300512,
            -9.100480132180449,
            8.535459884725038,
            15.396009744692856,
            -12.68853043118564
        ],
        [
            -9.59175409246425,
            -7.581245816030149,
            -15.53768508585863,
            -8.257333129172503,
            -14.672475327423559,
            -14.13457373427205,
            -14.777734536787033,
            -9.343172551596826,
            13.37795387374176
        ],
        [
            -8.160332711145585,
            -8.75404488316174,
            -16.0,
            11.69090242071328,
            -8.97865621593429,
            -6.16706200962122,
            -13.532879556961745,
            -16.0,
            13.085383263892037
        ],
        [
            -13.578155338952927,
            -11.44520574440381,
            6.738518746937311,
            2.347607533922991,
            13.338645238863348,
            16.0,
            -1.7742257859601747,
            -10.30724404541254,
            1.65929549135295
        ],
        [
            -15.332238042825914,
            -7.284592843115211,
            1.7548894266603008,
            -8.923213439884192,
            15.686945637332892,
            3.3662578727415795,
            -0.6974992759940974,
            -4.942415489589509,
            -1.7387794892581416
        ],
        [
            -15.952975321404416,
            -14.218511515986,
            -13.167722780286452,
            14.694596680740098,
            11.83923533890295,
            0.2617238150838292,
            4.004869639651132,
            -5.824950027418126,
            -4.028135305702777
        ],
        [
            13.842293537277762,
            14.988331498037276,
            3.7021705980891513,
            -14.411471542777122,
            -16.0,
            -11.141433238916681,
            -3.1377766578919752,
            -9.99747932565636,
            3.254335190033127
        ]
    ],
    "outputs": [
        0.0,
        0.0,
        0.0,
        0.0,
        0.0,
        0.0,
        0.0,
        0.0,
        0.0
    ],
    "inputs": [
        0.0,
        0.0,
        0.0,
        0.0,
        0.0,
        0.0,
        0.0,
        0.0,
        0.0
    ],
    "weight_range": 16,
    "bias_range": 16,
    "tc_min": 1,
    "tc_max": 1,
    "sensors": null,
    "motors": null,
    "inv_time_constants": [
        1.0,
        1.0,
        1.0,
        1.0,
        1.0,
        1.0,
        1.0,
        1.0,
        1.0
    ]
}