{
    "size": 7,
    "voltages": [
        0.0,
        0.0,
        0.0,
        0.0,
        0.0,
        0.0,
        0.0
    ],
    "time_constants": [
        1.0,
        1.0,
        1.0,
        1.0,
        1.0,
        1.0,
        1.0
    ],
    "biases": [
        -15.855064006932082,
        -3.4048434476166176,
        -3.587170986241889,
        4.137621572419083,
        7.204793957847086,
        -3.5660130246956934,
        9.712398595943352
    ],
    "inner_weights": [
        [
            7.114173864191167,
            10.74499392888842,
            6.3742200312072566,
            -1.5992914100644195,
            14.343638611475207,
            -2.82525770151177,
            8.151273747488569
        ],
        [
            9.424606156715868,
            -13.027530963571202,
            13.716022256982102,
            -14.348469521050985,
            -16.0,
            16.0,
            -3.6496895463958343
        ],
        [
            10.415699427058167,
            6.667385410905377,
            -7.010948988029473,
            -15.188875370496614,
            -16.0,
            15.326904376024363,
            2.631640609627097
        ],
        [
            -13.865895546359438,
            14.83231488007478,
            16.0,
            4.430866776648978,
            16.0,
            -14.110259755774688,
            -14.122886377158196
        ],
        [
            -1.3101920656013866,
            16.0,
            16.0,
            -15.351081862443936,
            -2.267674864700372,
            15.835048487730404,
            -16.0
        ],
        [
            -15.255545092394616,
            -15.623894370819364,
            -15.739012819596674,
            7.787737858325855,
            -16.0,
            -2.2067694972424414,
            16.0
        ],
        [
            -15.152218540613571,
            -3.7285927675897805,
            -14.964218299626697,
            16.0,
            12.27473688843864,
            -13.996654489273514,
            -5.491854401987187
        ]
    ],
    "outputs": [
        0.0,
        0.0,
        0.0,
        0.0,
        0.0,
        0.0,
        0.0
    ],
    "inputs": [
        0.0,
        0.0,
        0.0,
        0.0,
        0.0,
        0.0,
        0.0
    ],
    "weight_range": 16,
    "bias_range": 16,
    "tc_min": 1,
    "tc_max": 1,
    "sensors": null,
    "motors": null,
    "inv_time_constants": [
        1.0,
        1.0,
        1.0,
        1.0,
        1.0,
        1.0,
        1.0
    ]
}