{
    "size": 10,
    "voltages": [
        0.0,
        0.0,
        0.0,
        0.0,
        0.0,
        0.0,
        0.0,
        0.0,
        0.0,
        0.0
    ],
    "time_constants": [
        1.0,
        1.0,
        1.0,
        1.0,
        1.0,
        1.0,
        1.0,
        1.0,
        1.0,
        1.0
    ],
    "biases": [
        8.03508408899307,
        2.139504883446654,
        -1.795563523344757,
        4.569392129217439,
        2.9080415378961146,
        -2.2226524405015766,
        8.969124076083805,
        -1.2382049758139406,
        16.0,
        2.8371394671793304
    ],
    "inner_weights": [
        [
            -14.212147047709472,
            -5.6489762064317235,
            -6.198092192656137,
            -16.0,
            -3.125825342046662,
            15.806489045590752,
            0.1591436661504505,
            16.0,
            -12.367003780167261,
            12.481697652330963
        ],
        [
            6.80395725933889,
            -4.28600799193451,
            11.974505639631337,
            12.378476452754962,
            15.435143892616745,
            -2.551574711643359,
            11.54101074725216,
            -13.223968512383859,
            12.481988974526988,
            -13.93067321020199
        ],
        [
            4.735404690017083,
            -14.097923240781979,
            -8.604280124758288,
            -2.5059351220727106,
            -16.0,
            15.982571061146528,
            -15.59161167239584,
            14.911147332202146,
            -3.2904254170812024,
            -12.175064235430716
        ],
        [
            15.819975846991655,
            -9.52151379528945,
            -3.594610757051829,
            -7.886023967395312,
            -8.377842040542541,
            12.28496915836103,
            -8.069147084535805,
            -2.4516866431451514,
            -14.769907563928113,
            15.035314258444675
        ],
        [
            7.839165703913525,
            12.667755943009983,
            15.240096625759335,
            7.439738219888779,
            -15.107974009759086,
            2.165211084602261,
            -7.810476039785539,
            -16.0,
            14.234100186262587,
            -16.0
        ],
        [
            -1.658693851876563,
            -0.8686841194601745,
            -15.537487907337363,
            -10.654904096886126,
            -10.770535375089958,
            -6.473752408177776,
            -13.343780748257629,
            9.591434526918528,
            -15.910668200138666,
            14.760605991659466
        ],
        [
            -10.591033379177764,
            -8.07839721907348,
            4.961937990965943,
            11.664275036386762,
            13.854226956245322,
            -13.887796478432161,
            -15.313264991086903,
            -13.442134316227468,
            6.735383443467662,
            -9.292527960581372
        ],
        [
            -13.92017350978731,
            15.141879695994785,
            -9.388682304938987,
            3.0520216946112955,
            10.715519469324008,
            -7.412255904996831,
            8.725955202769606,
            15.598329601725244,
            3.880453725454113,
            7.849596031307559
        ],
        [
            9.671887672000228,
            -15.65790790339456,
            11.238364027135926,
            14.824476189680476,
            -13.295916169672235,
            7.3500333524055605,
            -4.2166967356964085,
            10.451406357353637,
            -10.899025889475162,
            1.1443701614187445
        ],
        [
            -15.307006944567737,
            16.0,
            10.167364637739363,
            -11.948063658056373,
            8.181642623833271,
            -11.891261037020653,
            14.617098012059328,
            -16.0,
            -13.781783339154325,
            -9.461326586198282
        ]
    ],
    "outputs": [
        0.0,
        0.0,
        0.0,
        0.0,
        0.0,
        0.0,
        0.0,
        0.0,
        0.0,
        0.0
    ],
    "inputs": [
        0.0,
        0.0,
        0.0,
        0.0,
        0.0,
        0.0,
        0.0,
        0.0,
        0.0,
        0.0
    ],
    "weight_range": 16,
    "bias_range": 16,
    "tc_min": 1,
    "tc_max": 1,
    "sensors": null,
    "motors": null,
    "inv_time_constants": [
        1.0,
        1.0,
        1.0,
        1.0,
        1.0,
        1.0,
        1.0,
        1.0,
        1.0,
        1.0
    ]
}