{
    "size": 9,
    "voltages": [
        0.0,
        0.0,
        0.0,
        0.0,
        0.0,
        0.0,
        0.0,
        0.0,
        0.0
    ],
    "time_constants": [
        1.0,
        1.0,
        1.0,
        1.0,
        1.0,
        1.0,
        1.0,
        1.0,
        1.0
    ],
    "biases": [
        6.187609625879562,
        0.6877500249639563,
        -13.49230171922057,
        0.9090707551243096,
        7.685969321739253,
        -0.01572582086370411,
        4.269823606324881,
        -8.7978672062299,
        -2.6088556844597846
    ],
    "inner_weights": [
        [
            7.3675750547036065,
            12.669384644975008,
            16.0,
            -16.0,
            13.950921088469151,
            13.438002144019183,
            -15.127546818825786,
            13.180566926268089,
            15.815145326211145
        ],
        [
            11.896415516915543,
            13.328106485639822,
            -7.375755557108259,
            15.359831506085579,
            -0.4912357370151291,
            6.369306090098915,
            -5.639066903042266,
            -11.086669193379521,
            -12.398243583618816
        ],
        [
            -14.91180441121176,
            15.110682876079725,
            -4.945110533334488,
            -9.587986030556854,
            -14.944615428154593,
            -12.29465255820713,
            -12.736194084345954,
            -1.8928485018597345,
            -10.953435263439395
        ],
        [
            14.076149824408445,
            5.972150060417394,
            2.0225936985300152,
            4.28006974293977,
            15.52248914626159,
            6.021375520038315,
            11.467583782530106,
            -8.586936045589534,
            13.16095108588485
        ],
        [
            -2.744217072006369,
            11.018426112114854,
            16.0,
            -15.825699797086976,
            -6.8923541683068095,
            10.21540084761505,
            -0.004575954351625056,
            6.600098366847933,
            15.68897505789449
        ],
        [
            -16.0,
            12.980166569090404,
            -3.327523131475173,
            5.446066376365882,
            -0.5908498379412553,
            -2.391576383853488,
            2.0345499739324704,
            16.0,
            16.0
        ],
        [
            9.856091677838496,
            2.3072637700032375,
            14.6836477396548,
            11.4754878917028,
            -9.725230946563512,
            3.051668495719688,
            4.604861152508611,
            14.004623698062838,
            -12.27290314697923
        ],
        [
            -14.126680301894426,
            8.127486654676748,
            3.1314084698930422,
            4.258179969611547,
            -16.0,
            -15.059891230615149,
            -8.85001853570413,
            2.192374640721452,
            -13.091093293021865
        ],
        [
            -14.850186576700807,
            1.0918840873786428,
            15.398400723995556,
            -11.396460441466703,
            -16.0,
            -14.702025542390322,
            -13.42090701546679,
            13.381586745651669,
            -7.470368740245448
        ]
    ],
    "outputs": [
        0.0,
        0.0,
        0.0,
        0.0,
        0.0,
        0.0,
        0.0,
        0.0,
        0.0
    ],
    "inputs": [
        0.0,
        0.0,
        0.0,
        0.0,
        0.0,
        0.0,
        0.0,
        0.0,
        0.0
    ],
    "weight_range": 16,
    "bias_range": 16,
    "tc_min": 1,
    "tc_max": 1,
    "sensors": null,
    "motors": null,
    "inv_time_constants": [
        1.0,
        1.0,
        1.0,
        1.0,
        1.0,
        1.0,
        1.0,
        1.0,
        1.0
    ]
}