{
    "size": 6,
    "voltages": [
        0.0,
        0.0,
        0.0,
        0.0,
        0.0,
        0.0
    ],
    "time_constants": [
        1.0,
        1.0,
        1.0,
        1.0,
        1.0,
        1.0
    ],
    "biases": [
        -10.260956831993065,
        8.59662295449638,
        10.961836684094603,
        -1.2352115797766756,
        -6.7888249341866675,
        3.114685737546133
    ],
    "inner_weights": [
        [
            -1.8667895110714536,
            -14.206059343699618,
            -16.0,
            -8.593655936919719,
            -13.114125675675245,
            14.185533856844561
        ],
        [
            11.15612086108861,
            6.826471553597786,
            7.112191597578883,
            13.102329952397728,
            14.090308558458489,
            -15.736556414610563
        ],
        [
            3.2333359401906834,
            1.886672842923094,
            -16.0,
            1.5848328255264477,
            15.94507361578985,
            -8.521470476188977
        ],
        [
            15.192383553092405,
            -16.0,
            -3.0212837516323585,
            -1.1858579165742094,
            -14.752760805630293,
            15.593752154020592
        ],
        [
            14.613527962006327,
            -15.641530014360725,
            -14.81692281942152,
            15.722770413219955,
            -3.8020219598957308,
            -11.18838997452562
        ],
        [
            -15.397619660646042,
            14.55029510003485,
            15.562331242586524,
            -16.0,
            9.405455788133018,
            2.6323468245521062
        ]
    ],
    "outputs": [
        0.0,
        0.0,
        0.0,
        0.0,
        0.0,
        0.0
    ],
    "inputs": [
        0.0,
        0.0,
        0.0,
        0.0,
        0.0,
        0.0
    ],
    "weight_range": 16,
    "bias_range": 16,
    "tc_min": 1,
    "tc_max": 1,
    "sensors": null,
    "motors": null,
    "inv_time_constants": [
        1.0,
        1.0,
        1.0,
        1.0,
        1.0,
        1.0
    ]
}