{
    "size": 8,
    "voltages": [
        0.0,
        0.0,
        0.0,
        0.0,
        0.0,
        0.0,
        0.0,
        0.0
    ],
    "time_constants": [
        1.0,
        1.0,
        1.0,
        1.0,
        1.0,
        1.0,
        1.0,
        1.0
    ],
    "biases": [
        14.894271704638834,
        -3.2899775314559334,
        -4.331832368680606,
        0.5831672367895808,
        1.327799591310319,
        7.311758362978555,
        -0.7739665789324679,
        -6.192961895277591
    ],
    "inner_weights": [
        [
            3.051470177365787,
            10.24838535179216,
            12.463717658402738,
            12.700201256083348,
            14.689067206184284,
            14.560169650018484,
            -16.0,
            -13.4411125371435
        ],
        [
            -13.662600118685013,
            -16.0,
            -8.757911581942203,
            -11.901003759650301,
            -14.58115596967526,
            2.671354391812671,
            5.878082744835672,
            15.550345534510912
        ],
        [
            -14.927975984579206,
            13.362884407879461,
            -7.649663205677872,
            -8.331694929236024,
            -8.645754121892464,
            -16.0,
            9.661093714208604,
            15.150459272906074
        ],
        [
            -12.770758265949382,
            12.791338122267552,
            14.55381310476295,
            -3.5731044665441622,
            4.231093587338751,
            -13.257834172688716,
            12.448717964083428,
            7.164626547076964
        ],
        [
            -16.0,
            16.0,
            14.789779856758049,
            13.825066308349049,
            -2.6403888108879627,
            -13.58355005263072,
            7.275814695594436,
            3.636625654991449
        ],
        [
            -5.201478790619552,
            -11.100335415311102,
            11.470018306633389,
            13.582744271715622,
            15.040541057314304,
            -0.7385921098476343,
            13.527366077621604,
            -14.35078888911333
        ],
        [
            6.361599521110742,
            -3.4194302232178555,
            -13.755960844664848,
            -8.132289395888641,
            -10.258941618021698,
            -13.393853319868473,
            -15.05963399816318,
            15.413347714033407
        ],
        [
            14.329928394640179,
            -14.68584535909208,
            -16.0,
            -10.026267394824439,
            -5.467791052000741,
            15.216573723762544,
            -12.791329167390352,
            -7.951600802122766
        ]
    ],
    "outputs": [
        0.0,
        0.0,
        0.0,
        0.0,
        0.0,
        0.0,
        0.0,
        0.0
    ],
    "inputs": [
        0.0,
        0.0,
        0.0,
        0.0,
        0.0,
        0.0,
        0.0,
        0.0
    ],
    "weight_range": 16,
    "bias_range": 16,
    "tc_min": 1,
    "tc_max": 1,
    "sensors": null,
    "motors": null,
    "inv_time_constants": [
        1.0,
        1.0,
        1.0,
        1.0,
        1.0,
        1.0,
        1.0,
        1.0
    ]
}