{
    "size": 9,
    "voltages": [
        0.0,
        0.0,
        0.0,
        0.0,
        0.0,
        0.0,
        0.0,
        0.0,
        0.0
    ],
    "time_constants": [
        1.0,
        1.0,
        1.0,
        1.0,
        1.0,
        1.0,
        1.0,
        1.0,
        1.0
    ],
    "biases": [
        13.378862331213309,
        -13.707368983530072,
        -5.125053144726419,
        2.606134029664145,
        8.328671709093793,
        -6.813374720302603,
        14.292748989993637,
        -2.8898071172854554,
        7.1834237055678285
    ],
    "inner_weights": [
        [
            -7.553154016920637,
            0.36224561889768725,
            14.90179460682969,
            5.362325008637401,
            15.510941474741404,
            16.0,
            15.565251730968168,
            3.275082380871171,
            -14.473707956509518
        ],
        [
            12.197070887430334,
            -1.728207574671203,
            6.309568389189344,
            10.069654471392676,
            2.101201161425608,
            10.09019541989396,
            -14.436407560251352,
            13.031744444563712,
            -13.984725596143216
        ],
        [
            -13.283244763635198,
            0.8574752814195183,
            -4.860067516205209,
            -10.626172917000742,
            -16.0,
            6.688375385127365,
            -15.031598680004416,
            15.532105972337341,
            12.073389338834305
        ],
        [
            3.9234299874647656,
            -13.120445309453093,
            8.76843333656556,
            4.36019089558299,
            -11.121704810267207,
            3.3820058798754924,
            9.829327812221777,
            3.440084695072535,
            -13.04012542512413
        ],
        [
            -15.390130754302202,
            -8.37417550402995,
            15.877773487621013,
            14.32483493744959,
            -8.099504228216883,
            13.239924661075076,
            -15.409752716178748,
            14.150998063197562,
            -13.240822810919903
        ],
        [
            -13.669400372711653,
            -11.396269113080795,
            -1.7503110150214212,
            -15.755968925343552,
            -15.146743151702022,
            -7.538765028561674,
            -15.459962301627003,
            15.171777836945045,
            15.429193561706317
        ],
        [
            12.002962380927721,
            -8.740723421156215,
            9.754108469749593,
            -11.641814655517912,
            16.0,
            13.366755128367856,
            -14.854234639495429,
            -15.303909759869514,
            -14.51226434010507
        ],
        [
            -13.225314957924958,
            -7.143631952367129,
            -16.0,
            -5.2986849432110095,
            -13.628119161385815,
            -15.106327760831773,
            -8.08917507305137,
            -12.663502803854447,
            16.0
        ],
        [
            15.800120683532628,
            -10.745182193452758,
            -13.813368099734285,
            13.123624624811303,
            9.390889164921495,
            -13.768864741094587,
            13.328881528158789,
            -16.0,
            -2.965950827774881
        ]
    ],
    "outputs": [
        0.0,
        0.0,
        0.0,
        0.0,
        0.0,
        0.0,
        0.0,
        0.0,
        0.0
    ],
    "inputs": [
        0.0,
        0.0,
        0.0,
        0.0,
        0.0,
        0.0,
        0.0,
        0.0,
        0.0
    ],
    "weight_range": 16,
    "bias_range": 16,
    "tc_min": 1,
    "tc_max": 1,
    "sensors": null,
    "motors": null,
    "inv_time_constants": [
        1.0,
        1.0,
        1.0,
        1.0,
        1.0,
        1.0,
        1.0,
        1.0,
        1.0
    ]
}