{
    "size": 8,
    "voltages": [
        0.0,
        0.0,
        0.0,
        0.0,
        0.0,
        0.0,
        0.0,
        0.0
    ],
    "time_constants": [
        1.0,
        1.0,
        1.0,
        1.0,
        1.0,
        1.0,
        1.0,
        1.0
    ],
    "biases": [
        -8.283149349777702,
        -1.7766854404427328,
        -0.4468280613233524,
        4.572207562981346,
        -7.862601462788961,
        9.349024488655846,
        -15.106136473358564,
        13.074840729535406
    ],
    "inner_weights": [
        [
            -1.4526376129957312,
            -12.590596509578848,
            4.755849011861115,
            -15.058119738804868,
            -11.493162087034944,
            15.98336211623533,
            -15.996892491551833,
            13.038012740613238
        ],
        [
            5.0383363247654005,
            -13.312594488546534,
            2.7881855661173383,
            -7.874241600753065,
            14.371041776448656,
            -11.92374264428128,
            12.120618655244108,
            -13.507645861954348
        ],
        [
            3.2063292476608987,
            -3.649028065522515,
            -7.550334423658125,
            9.85103624451083,
            -8.56610016008635,
            10.049941508256264,
            2.125998037072076,
            -2.57533077135958
        ],
        [
            13.307320695445732,
            13.914167779768482,
            -0.15735678990327234,
            -1.656131781179133,
            14.564725752623685,
            -13.84795196745503,
            14.359914103229539,
            -16.0
        ],
        [
            14.215726765142453,
            -2.1421037115525547,
            -11.201233878796641,
            -3.72086283355552,
            -12.656337108108064,
            -13.791304816533625,
            12.651341083104015,
            -6.499102901816595
        ],
        [
            -14.905989206549247,
            16.0,
            3.941014913367443,
            13.85438765644501,
            14.954280221194935,
            -2.773708002867358,
            13.601486351378501,
            13.61182087426213
        ],
        [
            11.46674257813325,
            -9.60874421672718,
            -7.168062560202454,
            -16.0,
            -4.9244354248115485,
            -16.0,
            -10.766114544974355,
            -15.128222743712382
        ],
        [
            -13.05255875835038,
            12.84194244950129,
            15.4905391646697,
            14.892586589254567,
            15.907936412275639,
            10.163040770335288,
            13.48714181744418,
            -6.1965079517621255
        ]
    ],
    "outputs": [
        0.0,
        0.0,
        0.0,
        0.0,
        0.0,
        0.0,
        0.0,
        0.0
    ],
    "inputs": [
        0.0,
        0.0,
        0.0,
        0.0,
        0.0,
        0.0,
        0.0,
        0.0
    ],
    "weight_range": 16,
    "bias_range": 16,
    "tc_min": 1,
    "tc_max": 1,
    "sensors": null,
    "motors": null,
    "inv_time_constants": [
        1.0,
        1.0,
        1.0,
        1.0,
        1.0,
        1.0,
        1.0,
        1.0
    ]
}