{
    "size": 8,
    "voltages": [
        0.0,
        0.0,
        0.0,
        0.0,
        0.0,
        0.0,
        0.0,
        0.0
    ],
    "time_constants": [
        1.0,
        1.0,
        1.0,
        1.0,
        1.0,
        1.0,
        1.0,
        1.0
    ],
    "biases": [
        1.9676110272167016,
        -3.9212923832849236,
        9.859992871919724,
        -4.049071677806547,
        -0.6880039028689791,
        7.554128120953087,
        4.211361504489963,
        -4.442859873609136
    ],
    "inner_weights": [
        [
            5.50128777907891,
            14.07947706841152,
            -1.7584472042517445,
            -0.04189378511685002,
            15.818555769629127,
            -14.393145318294982,
            -14.115611686053295,
            10.733025305028953
        ],
        [
            -15.241494489976287,
            -0.33393982061679606,
            -7.164762314158194,
            9.980504537257076,
            13.852638379285402,
            -14.96282762144399,
            -1.7309145077039154,
            16.0
        ],
        [
            11.395874004995834,
            13.596740489240037,
            -15.141179776415822,
            7.293186393748119,
            7.083734494146267,
            -14.272423523597073,
            -15.061531345908875,
            6.232265732568688
        ],
        [
            -15.2267354208309,
            -9.876007450694637,
            -6.0811396774511,
            -3.73849302363372,
            -11.84188348258467,
            11.140215207444363,
            15.299745823995861,
            0.23127297270077662
        ],
        [
            -15.93789362573907,
            -15.351996375874123,
            -11.687512843538949,
            15.836024516937915,
            -4.847077305172476,
            9.530113292207279,
            4.783501058239989,
            13.967158649862368
        ],
        [
            16.0,
            12.475375715183969,
            16.0,
            -15.828953543480624,
            -13.858874557736076,
            -6.851917325659011,
            -0.040027919326674155,
            -14.947979368448767
        ],
        [
            14.288988947923492,
            1.3482913638641243,
            14.256465946177405,
            -12.354437042571707,
            -4.389947500948841,
            5.517355327942975,
            -12.186464331245263,
            -14.105811021966648
        ],
        [
            -9.444346041592153,
            -16.0,
            -15.944969388662448,
            11.849012982840726,
            -2.944068932823168,
            16.0,
            15.133567132032784,
            -8.420136682179603
        ]
    ],
    "outputs": [
        0.0,
        0.0,
        0.0,
        0.0,
        0.0,
        0.0,
        0.0,
        0.0
    ],
    "inputs": [
        0.0,
        0.0,
        0.0,
        0.0,
        0.0,
        0.0,
        0.0,
        0.0
    ],
    "weight_range": 16,
    "bias_range": 16,
    "tc_min": 1,
    "tc_max": 1,
    "sensors": null,
    "motors": null,
    "inv_time_constants": [
        1.0,
        1.0,
        1.0,
        1.0,
        1.0,
        1.0,
        1.0,
        1.0
    ]
}