{
    "size": 9,
    "voltages": [
        0.0,
        0.0,
        0.0,
        0.0,
        0.0,
        0.0,
        0.0,
        0.0,
        0.0
    ],
    "time_constants": [
        1.0,
        1.0,
        1.0,
        1.0,
        1.0,
        1.0,
        1.0,
        1.0,
        1.0
    ],
    "biases": [
        0.8081156043409803,
        -4.910476079057762,
        1.326534166436227,
        2.7556672875168062,
        5.577969402774343,
        5.8648622259323,
        -2.3318622213443296,
        14.85342906038773,
        -7.631485586790118
    ],
    "inner_weights": [
        [
            -8.83804837894641,
            12.709454376075765,
            1.1104130866041015,
            -14.319699808411682,
            -14.810247560187316,
            -11.493476269574998,
            7.179543082512785,
            -0.8056733373664225,
            11.11510420328223
        ],
        [
            -15.422187374713264,
            -5.638459109375381,
            0.16790702682888603,
            -15.523194456868282,
            -8.859298068797994,
            16.0,
            -14.124048632018523,
            16.0,
            15.643603131504404
        ],
        [
            16.0,
            -6.932368058864651,
            -12.087196665651184,
            -16.0,
            -5.5046382949820085,
            -2.656533125264311,
            16.0,
            -14.82935292712436,
            9.73080085427028
        ],
        [
            14.488232819886637,
            10.786610397765925,
            13.462302360698539,
            -10.52178646041012,
            14.03642234801195,
            -14.852376213169293,
            10.34479103988684,
            -16.0,
            -0.19816215945645133
        ],
        [
            15.282029402504493,
            11.67763804730611,
            16.0,
            5.051396840688591,
            -4.808973254150802,
            -15.949751561432887,
            15.178899430352985,
            -14.731630807064212,
            -1.409018439933027
        ],
        [
            10.920966324414492,
            -13.730227351341975,
            4.945759980071539,
            15.585893695421005,
            12.017362734247765,
            -4.736047066788911,
            2.157827914799169,
            7.474663210841595,
            -5.9266719323582615
        ],
        [
            -12.34479473576733,
            15.393719913257316,
            -16.0,
            -6.075320811670185,
            -14.79828086906561,
            -13.759470229467576,
            -14.328361705852707,
            -5.724296199242195,
            11.744188908833447
        ],
        [
            -6.827674569705104,
            -15.552996983923721,
            8.945683199249087,
            15.759061105187513,
            16.0,
            8.25084011681623,
            -10.92229657428874,
            -14.704632276536794,
            -15.37916018181982
        ],
        [
            -7.008809440849818,
            -1.7136316392782376,
            -9.965683130566212,
            11.091379284388442,
            0.022563563970364325,
            14.560280050142712,
            -3.5750346275076206,
            9.42257742153796,
            15.162096469192518
        ]
    ],
    "outputs": [
        0.0,
        0.0,
        0.0,
        0.0,
        0.0,
        0.0,
        0.0,
        0.0,
        0.0
    ],
    "inputs": [
        0.0,
        0.0,
        0.0,
        0.0,
        0.0,
        0.0,
        0.0,
        0.0,
        0.0
    ],
    "weight_range": 16,
    "bias_range": 16,
    "tc_min": 1,
    "tc_max": 1,
    "sensors": null,
    "motors": null,
    "inv_time_constants": [
        1.0,
        1.0,
        1.0,
        1.0,
        1.0,
        1.0,
        1.0,
        1.0,
        1.0
    ]
}