{
    "size": 9,
    "voltages": [
        0.0,
        0.0,
        0.0,
        0.0,
        0.0,
        0.0,
        0.0,
        0.0,
        0.0
    ],
    "time_constants": [
        1.0,
        1.0,
        1.0,
        1.0,
        1.0,
        1.0,
        1.0,
        1.0,
        1.0
    ],
    "biases": [
        14.17478831245039,
        6.504640657541903,
        -6.262399190436046,
        -0.8067568251801538,
        6.8650422880004935,
        4.06265247790661,
        -5.280861318901961,
        1.6838405225852742,
        0.9713001167798431
    ],
    "inner_weights": [
        [
            -16.0,
            -15.474665286932632,
            -9.437089165138289,
            11.995509086289173,
            3.6849365772417513,
            -10.097535465820012,
            16.0,
            -4.753800795145104,
            13.273575398727498
        ],
        [
            15.142896031612043,
            -3.1935373736441397,
            3.245957188534883,
            -15.200616548575931,
            -15.777159649048054,
            10.851145573022192,
            12.293478449531204,
            3.7090882618173704,
            14.180458357624497
        ],
        [
            -15.265706643153662,
            -11.431255516888791,
            13.084537741621084,
            -8.516661429815835,
            12.411378455446256,
            5.471311085179761,
            -5.882620821520149,
            -4.254950074640586,
            -0.5520513972888692
        ],
        [
            -16.0,
            15.754357079100526,
            14.068075516152057,
            0.9925916790697777,
            15.357846860380821,
            10.776155549683303,
            -15.262004914579842,
            -7.72092380393281,
            -15.911311865237368
        ],
        [
            -16.0,
            13.186993339738605,
            -9.313568724289958,
            -15.24744433368917,
            -5.839136860790946,
            15.119082398898673,
            -14.19597359137091,
            -7.845800092209398,
            -15.233514755313236
        ],
        [
            15.693166407583387,
            4.681273354626219,
            -15.663789060658708,
            -14.165680715204365,
            -14.274906233686915,
            -5.9122881752539,
            12.50343494984897,
            6.838435587573922,
            15.227539514937249
        ],
        [
            -16.0,
            -11.663758591739633,
            -2.1607993423707725,
            14.3610956475064,
            -7.645891610715579,
            -10.371726588306357,
            -12.72771857563699,
            1.0074985965661944,
            -11.223319094566396
        ],
        [
            -13.864654471969867,
            -8.722570620628023,
            -14.680485892133678,
            4.114345528953699,
            -10.391048755385649,
            -9.694918480132422,
            1.4001232827327292,
            13.225603104796809,
            1.3000616148141357
        ],
        [
            4.604818491693605,
            -12.280157307193319,
            -0.5641862170606033,
            14.943755616260109,
            12.668262757000717,
            -16.0,
            12.21383326836958,
            -7.335266568804297,
            -1.3629484292699194
        ]
    ],
    "outputs": [
        0.0,
        0.0,
        0.0,
        0.0,
        0.0,
        0.0,
        0.0,
        0.0,
        0.0
    ],
    "inputs": [
        0.0,
        0.0,
        0.0,
        0.0,
        0.0,
        0.0,
        0.0,
        0.0,
        0.0
    ],
    "weight_range": 16,
    "bias_range": 16,
    "tc_min": 1,
    "tc_max": 1,
    "sensors": null,
    "motors": null,
    "inv_time_constants": [
        1.0,
        1.0,
        1.0,
        1.0,
        1.0,
        1.0,
        1.0,
        1.0,
        1.0
    ]
}