{
    "size": 8,
    "voltages": [
        0.0,
        0.0,
        0.0,
        0.0,
        0.0,
        0.0,
        0.0,
        0.0
    ],
    "time_constants": [
        1.0,
        1.0,
        1.0,
        1.0,
        1.0,
        1.0,
        1.0,
        1.0
    ],
    "biases": [
        -1.7258706779574644,
        -0.2500697025844778,
        1.1656592881441994,
        6.065948519692519,
        7.954425169455015,
        4.399745833792359,
        -0.6412604109304756,
        -2.875071194601199
    ],
    "inner_weights": [
        [
            -16.0,
            6.680169978712475,
            9.090045878849445,
            -11.449870336010642,
            -12.156912614220532,
            -9.711113565337401,
            -1.3483110441875403,
            12.537195033068707
        ],
        [
            -10.995410393041986,
            -4.981569404070471,
            -9.282570148293539,
            14.93686655287158,
            14.739172815531651,
            -8.091811641981758,
            2.5679151342528694,
            -4.801696477717784
        ],
        [
            -12.200011049537343,
            14.983285713496826,
            -9.242115028157691,
            15.573872233597363,
            -10.624909505010354,
            16.0,
            -14.934627045757697,
            -7.269404194133172
        ],
        [
            15.9183259452226,
            -16.0,
            -15.642385916359753,
            -11.744065075761934,
            12.032662664357314,
            -0.12637030717236652,
            16.0,
            -9.288252911839912
        ],
        [
            14.990635130896711,
            -13.867457201281708,
            8.65087364132757,
            -11.158230484020537,
            -1.3590954861413747,
            -14.21266436634015,
            10.244870977595292,
            14.604591687797067
        ],
        [
            -7.366285876731043,
            10.257614177795876,
            -15.139028095622892,
            14.408029821929823,
            2.857108043287634,
            -2.436361774874909,
            7.963992250241952,
            -13.634590024266737
        ],
        [
            16.0,
            -11.792110934051466,
            11.595521985910404,
            -14.695403778298349,
            -4.51592977084229,
            -6.082420400424037,
            -6.745247680850868,
            15.002133875985361
        ],
        [
            -4.592273880450512,
            15.955308805074647,
            13.307667393713158,
            -5.095724306277833,
            -16.0,
            16.0,
            -11.950900394973878,
            -4.182463848155256
        ]
    ],
    "outputs": [
        0.0,
        0.0,
        0.0,
        0.0,
        0.0,
        0.0,
        0.0,
        0.0
    ],
    "inputs": [
        0.0,
        0.0,
        0.0,
        0.0,
        0.0,
        0.0,
        0.0,
        0.0
    ],
    "weight_range": 16,
    "bias_range": 16,
    "tc_min": 1,
    "tc_max": 1,
    "sensors": null,
    "motors": null,
    "inv_time_constants": [
        1.0,
        1.0,
        1.0,
        1.0,
        1.0,
        1.0,
        1.0,
        1.0
    ]
}