{
    "size": 7,
    "voltages": [
        0.0,
        0.0,
        0.0,
        0.0,
        0.0,
        0.0,
        0.0
    ],
    "time_constants": [
        1.0,
        1.0,
        1.0,
        1.0,
        1.0,
        1.0,
        1.0
    ],
    "biases": [
        6.532404145329337,
        -6.630861582580447,
        -8.76105362119199,
        2.2184672124264955,
        -2.796213614476363,
        0.9755364099310988,
        2.602811890682972
    ],
    "inner_weights": [
        [
            -7.071733527878203,
            12.607111820567455,
            7.562945738298547,
            -16.0,
            13.936288016669572,
            -0.1346989961910302,
            15.900789794467832
        ],
        [
            -16.0,
            -5.184585146291562,
            6.060486313243658,
            14.11881770391842,
            -5.730310547366921,
            -15.075877356502096,
            -15.651078100984543
        ],
        [
            -14.678930208232131,
            -13.852323106772984,
            -8.901819029632216,
            14.510683796772792,
            -12.3438286462104,
            -15.650303986835928,
            -11.279297526432865
        ],
        [
            15.615894025249057,
            -15.44918696507154,
            -15.426649815475567,
            2.7361334477537804,
            -13.991650188971287,
            16.0,
            16.0
        ],
        [
            -15.548001020115947,
            4.625919877430373,
            12.855947317503217,
            9.69161096791318,
            -3.963868408363557,
            -13.896759658332806,
            -9.673390242613415
        ],
        [
            12.422795882544076,
            13.641864242779468,
            6.348526128085952,
            -12.457599230075813,
            9.933906293283487,
            1.3273424310830337,
            -8.533812174842252
        ],
        [
            0.9725954496762228,
            16.0,
            12.171902873082669,
            -15.394579762297564,
            16.0,
            16.0,
            4.680451691148207
        ]
    ],
    "outputs": [
        0.0,
        0.0,
        0.0,
        0.0,
        0.0,
        0.0,
        0.0
    ],
    "inputs": [
        0.0,
        0.0,
        0.0,
        0.0,
        0.0,
        0.0,
        0.0
    ],
    "weight_range": 16,
    "bias_range": 16,
    "tc_min": 1,
    "tc_max": 1,
    "sensors": null,
    "motors": null,
    "inv_time_constants": [
        1.0,
        1.0,
        1.0,
        1.0,
        1.0,
        1.0,
        1.0
    ]
}