{
    "size": 8,
    "voltages": [
        0.0,
        0.0,
        0.0,
        0.0,
        0.0,
        0.0,
        0.0,
        0.0
    ],
    "time_constants": [
        1.0,
        1.0,
        1.0,
        1.0,
        1.0,
        1.0,
        1.0,
        1.0
    ],
    "biases": [
        7.240303279736437,
        2.754928381153497,
        -3.6176795559927806,
        -16.0,
        -6.438700840299098,
        1.371415889141239,
        -0.8916082028640818,
        16.0
    ],
    "inner_weights": [
        [
            -8.015981762832473,
            14.486913267516282,
            -6.410898508547393,
            13.84301407563112,
            10.006408350287874,
            -9.02655045724933,
            16.0,
            2.7555661066063393
        ],
        [
            -15.869911032723195,
            -4.576846580247926,
            16.0,
            15.368210742620596,
            9.095894011219098,
            9.641527062972159,
            -14.227965513432538,
            -15.752973514481006
        ],
        [
            10.856868184295061,
            -14.662047285308834,
            -11.07287174540681,
            -10.439107638520143,
            -12.057222524108765,
            12.831544506626456,
            -12.791564634046505,
            -2.2232063405848286
        ],
        [
            -9.445881070486317,
            -15.848407219402263,
            14.46298371083437,
            -3.835690928630001,
            -5.929540633509366,
            12.25510373132684,
            -11.463358253488321,
            -6.03910498863
        ],
        [
            -12.215715292167975,
            4.483395791360902,
            15.482943462861776,
            13.553212316369684,
            -11.771056806698049,
            15.778312702400493,
            -11.825329536832598,
            -16.0
        ],
        [
            14.303508662948753,
            -15.53646248458651,
            -6.777203294643795,
            -15.63513905100227,
            -12.439564436042092,
            -9.435598893847699,
            15.70220140408315,
            14.884151060037782
        ],
        [
            -9.888541241763233,
            10.801987370667698,
            -7.947586198962645,
            9.084969339629234,
            16.0,
            -16.0,
            0.24101930218727508,
            -11.034547396678716
        ],
        [
            15.8155342049562,
            14.122259050653412,
            -7.170716223343649,
            12.465019145528625,
            16.0,
            -13.086291924895052,
            16.0,
            -5.38377783673525
        ]
    ],
    "outputs": [
        0.0,
        0.0,
        0.0,
        0.0,
        0.0,
        0.0,
        0.0,
        0.0
    ],
    "inputs": [
        0.0,
        0.0,
        0.0,
        0.0,
        0.0,
        0.0,
        0.0,
        0.0
    ],
    "weight_range": 16,
    "bias_range": 16,
    "tc_min": 1,
    "tc_max": 1,
    "sensors": null,
    "motors": null,
    "inv_time_constants": [
        1.0,
        1.0,
        1.0,
        1.0,
        1.0,
        1.0,
        1.0,
        1.0
    ]
}