{
    "size": 10,
    "voltages": [
        0.0,
        0.0,
        0.0,
        0.0,
        0.0,
        0.0,
        0.0,
        0.0,
        0.0,
        0.0
    ],
    "time_constants": [
        1.0,
        1.0,
        1.0,
        1.0,
        1.0,
        1.0,
        1.0,
        1.0,
        1.0,
        1.0
    ],
    "biases": [
        -1.4874297741212925,
        9.553917144687421,
        -2.8910172111672776,
        15.097947466049302,
        11.795566529464903,
        -11.303762020942981,
        2.5330004065454066,
        -9.674917435703405,
        5.932072522820812,
        12.561724749995694
    ],
    "inner_weights": [
        [
            -14.220944954580673,
            14.28191541303438,
            8.301878957568363,
            10.872262227892238,
            -3.9697172393958584,
            -14.234932264025293,
            -15.104982625860398,
            12.581956022421538,
            -14.697028435271557,
            4.866089659617066
        ],
        [
            -11.746761536944206,
            -9.30088648305877,
            11.07335709430102,
            6.729393764349167,
            -10.279790618335085,
            4.843399494719722,
            -15.96557465625693,
            12.220724375439582,
            -13.489024438119642,
            14.380926585150375
        ],
        [
            -13.41667074228554,
            -11.54436689105005,
            -7.722596214489922,
            -5.676486512365476,
            -15.78171148139266,
            16.0,
            16.0,
            -1.9209749726317566,
            13.369538378030635,
            -11.29762463042953
        ],
        [
            11.76397114429935,
            -3.919523304006358,
            9.784937307107231,
            -12.078620813861333,
            -8.593005830567472,
            15.085465078119707,
            14.282088517532188,
            10.66675720959164,
            12.88676669151531,
            3.7618886185384603
        ],
        [
            11.91793153495678,
            15.753312660245848,
            6.690531803410459,
            15.461199150367035,
            2.7445993743289105,
            -16.0,
            -14.086229711502524,
            13.680628083394325,
            -15.083270661816243,
            10.567522199523395
        ],
        [
            14.461948109877442,
            -15.271171033041009,
            -15.324033391723885,
            -10.95597889197431,
            9.753899307061472,
            5.100704267748017,
            1.356465699203269,
            -12.800621642558838,
            14.7985642960189,
            -14.146417610236895
        ],
        [
            13.212635026051023,
            7.383454681143942,
            -16.0,
            -13.773409154296527,
            14.803609069989136,
            -9.418538845449252,
            -9.886926294407433,
            -4.015896762356857,
            -12.960791518817384,
            -1.9230680676674208
        ],
        [
            -16.0,
            -14.644129821541743,
            15.351725323556337,
            -9.57280172663926,
            -13.890317289347559,
            13.732105029097173,
            15.199569409608438,
            -15.773177498749874,
            11.049554903765346,
            -13.43825700163527
        ],
        [
            12.787961615409705,
            10.05683911006778,
            -13.94443046250292,
            -14.509057251937719,
            15.38397402258115,
            -4.995275715110701,
            15.2650154088618,
            -12.90720523957311,
            -8.152267085551783,
            -13.883587703322302
        ],
        [
            -1.8452814749192523,
            -10.486860466361344,
            7.92968712221431,
            -4.730420522357711,
            -14.691893181392093,
            15.068242660352503,
            -9.767304439768616,
            10.644894121830527,
            1.5498796145195737,
            -10.773105407011872
        ]
    ],
    "outputs": [
        0.0,
        0.0,
        0.0,
        0.0,
        0.0,
        0.0,
        0.0,
        0.0,
        0.0,
        0.0
    ],
    "inputs": [
        0.0,
        0.0,
        0.0,
        0.0,
        0.0,
        0.0,
        0.0,
        0.0,
        0.0,
        0.0
    ],
    "weight_range": 16,
    "bias_range": 16,
    "tc_min": 1,
    "tc_max": 1,
    "sensors": null,
    "motors": null,
    "inv_time_constants": [
        1.0,
        1.0,
        1.0,
        1.0,
        1.0,
        1.0,
        1.0,
        1.0,
        1.0,
        1.0
    ]
}