{
    "size": 8,
    "voltages": [
        0.0,
        0.0,
        0.0,
        0.0,
        0.0,
        0.0,
        0.0,
        0.0
    ],
    "time_constants": [
        1.0,
        1.0,
        1.0,
        1.0,
        1.0,
        1.0,
        1.0,
        1.0
    ],
    "biases": [
        7.579748681272539,
        8.235465890875343,
        -0.4640844126888068,
        4.925055829881411,
        1.4838016670879357,
        -3.6840573906222116,
        5.26465393291732,
        13.969643773909059
    ],
    "inner_weights": [
        [
            -11.772757713498537,
            10.057576765573794,
            -13.836208504980862,
            -15.941721274843074,
            0.5737727176734531,
            -0.5809055135136663,
            13.233942880007568,
            11.436093490629016
        ],
        [
            -14.515705446872692,
            -11.434474603085182,
            -11.03678035774514,
            11.315012051984422,
            16.0,
            15.934588208925202,
            -11.921644326238395,
            -10.826960666111518
        ],
        [
            16.0,
            2.6116706421058855,
            -1.3804626494587167,
            -5.227077070441395,
            -15.285281733416252,
            -15.24248544153631,
            13.567191345879536,
            16.0
        ],
        [
            16.0,
            -13.629064359398582,
            15.889097375077048,
            -8.001097841634015,
            -15.165785577856969,
            -16.0,
            -4.960695018402818,
            -0.07969374832104315
        ],
        [
            2.017308887533213,
            -16.0,
            15.500193097726797,
            11.095971465098588,
            -9.340983523888324,
            4.407880577512016,
            -14.639905016165155,
            -9.1599585166019
        ],
        [
            -3.2416752093794536,
            -13.000680146194195,
            15.364275255329016,
            15.746022760964781,
            14.296881364498207,
            -6.896662327692333,
            -10.73685444439314,
            -14.342014675536598
        ],
        [
            -15.069294107666478,
            14.746455260740763,
            -15.147773210902345,
            -10.962438073828451,
            8.069247318985411,
            15.119559567089391,
            -9.241314733695857,
            -7.225624888328413
        ],
        [
            -7.249798630305541,
            15.503157223962026,
            -15.702101506621629,
            -13.176853838079989,
            0.37013587601089804,
            12.900649797526505,
            16.0,
            -11.369982114170003
        ]
    ],
    "outputs": [
        0.0,
        0.0,
        0.0,
        0.0,
        0.0,
        0.0,
        0.0,
        0.0
    ],
    "inputs": [
        0.0,
        0.0,
        0.0,
        0.0,
        0.0,
        0.0,
        0.0,
        0.0
    ],
    "weight_range": 16,
    "bias_range": 16,
    "tc_min": 1,
    "tc_max": 1,
    "sensors": null,
    "motors": null,
    "inv_time_constants": [
        1.0,
        1.0,
        1.0,
        1.0,
        1.0,
        1.0,
        1.0,
        1.0
    ]
}