{
    "size": 10,
    "voltages": [
        0.0,
        0.0,
        0.0,
        0.0,
        0.0,
        0.0,
        0.0,
        0.0,
        0.0,
        0.0
    ],
    "time_constants": [
        1.0,
        1.0,
        1.0,
        1.0,
        1.0,
        1.0,
        1.0,
        1.0,
        1.0,
        1.0
    ],
    "biases": [
        -1.9164793971456633,
        -1.499089747002572,
        1.156380347678011,
        -5.666974397957129,
        -10.020740772458193,
        -5.122022383467934,
        4.0564582712078465,
        -12.74227902792769,
        -8.397506770247958,
        6.600320811170517
    ],
    "inner_weights": [
        [
            -0.25537421636958646,
            13.731540696376694,
            13.692221786468018,
            5.243370001141722,
            16.0,
            -10.587033660466894,
            2.8410366478063636,
            -7.396190531054132,
            -16.0,
            -11.414889674812981
        ],
        [
            -11.263800343263544,
            -2.9085861579729135,
            -11.634968894424762,
            -8.572588491557422,
            5.139510829442985,
            15.881054857935371,
            -1.7154138008488677,
            12.061655286246367,
            13.180168806215661,
            -12.67684687955486
        ],
        [
            -5.265488424121218,
            10.1581162834367,
            4.257148605284634,
            15.593331206350017,
            4.393937314731565,
            -7.61189999388719,
            -9.051705745351745,
            14.68068281333051,
            -11.889025102416667,
            -7.257944095357547
        ],
        [
            1.6413867364400967,
            16.0,
            -14.754916276902666,
            -6.905204987085043,
            15.086859685621503,
            -8.561128706612369,
            -14.81850950756472,
            1.2484104044723698,
            13.842218298579802,
            -15.472611848287256
        ],
        [
            1.4134130217628833,
            -6.583727881851184,
            3.8501944762726814,
            -3.8209016580661417,
            -11.61649128730715,
            11.95496901266526,
            6.4580131978958955,
            0.38049764618161286,
            16.0,
            4.3889213077737015
        ],
        [
            2.6934850693339705,
            -16.0,
            -6.062733024577092,
            5.695231881046365,
            2.1109411473472224,
            -13.213466679573509,
            4.9264252606211745,
            -14.02955015612714,
            -3.6131097533246415,
            12.765823846663503
        ],
        [
            1.5779763796210635,
            -3.198767610781141,
            12.791600337662453,
            15.016844004747758,
            9.26785677804653,
            2.4265679389769046,
            8.413110776209937,
            15.955957354548266,
            -1.2330105014577364,
            3.2891736152299917
        ],
        [
            -6.188357321682558,
            8.76045252650615,
            -14.353029617621054,
            -2.580309925243883,
            16.0,
            15.207023806550435,
            -15.317806874311845,
            -8.325621044998714,
            8.040855651706755,
            10.057892976325206
        ],
        [
            5.294274286380666,
            -16.0,
            7.943093502660501,
            -7.280668048452136,
            -10.717828621140148,
            15.003908855189579,
            -3.666147450821894,
            -0.011749638229120118,
            -15.106949975444843,
            15.335794595309736
        ],
        [
            14.879013548390239,
            9.741231531908396,
            8.190527973051857,
            -3.028915198748792,
            -15.580457835640477,
            -12.627997619398696,
            11.440691073920076,
            3.6430532503524478,
            6.008310853852717,
            -16.0
        ]
    ],
    "outputs": [
        0.0,
        0.0,
        0.0,
        0.0,
        0.0,
        0.0,
        0.0,
        0.0,
        0.0,
        0.0
    ],
    "inputs": [
        0.0,
        0.0,
        0.0,
        0.0,
        0.0,
        0.0,
        0.0,
        0.0,
        0.0,
        0.0
    ],
    "weight_range": 16,
    "bias_range": 16,
    "tc_min": 1,
    "tc_max": 1,
    "sensors": null,
    "motors": null,
    "inv_time_constants": [
        1.0,
        1.0,
        1.0,
        1.0,
        1.0,
        1.0,
        1.0,
        1.0,
        1.0,
        1.0
    ]
}