{
    "size": 6,
    "voltages": [
        0.0,
        0.0,
        0.0,
        0.0,
        0.0,
        0.0
    ],
    "time_constants": [
        1.0,
        1.0,
        1.0,
        1.0,
        1.0,
        1.0
    ],
    "biases": [
        3.8918077923742067,
        -3.5372858563269296,
        7.88322605937473,
        11.727945022186448,
        8.248076729170682,
        4.577917377199159
    ],
    "inner_weights": [
        [
            -5.6896713076633825,
            -15.8728439451103,
            14.578542045830204,
            -13.086114241150211,
            12.02671553031929,
            -15.926509638329662
        ],
        [
            16.0,
            -2.468194787478539,
            2.2807551723152253,
            -15.584009867444353,
            -15.161550893914228,
            -3.024977117642326
        ],
        [
            -15.65088142523674,
            -12.060843467389816,
            -11.842693696697454,
            15.087095673826243,
            15.394627383379799,
            -15.158463200873939
        ],
        [
            -5.497613548796859,
            15.427393008562012,
            -16.0,
            -12.695167257027723,
            -13.745583329568843,
            11.227045273725444
        ],
        [
            -16.0,
            11.769666490191351,
            -13.710946381830317,
            16.0,
            0.8068932338383688,
            15.544612056046422
        ],
        [
            16.0,
            12.354120157548497,
            4.1394686056363845,
            -13.84095124897078,
            -16.0,
            -1.9458941282989475
        ]
    ],
    "outputs": [
        0.0,
        0.0,
        0.0,
        0.0,
        0.0,
        0.0
    ],
    "inputs": [
        0.0,
        0.0,
        0.0,
        0.0,
        0.0,
        0.0
    ],
    "weight_range": 16,
    "bias_range": 16,
    "tc_min": 1,
    "tc_max": 1,
    "sensors": null,
    "motors": null,
    "inv_time_constants": [
        1.0,
        1.0,
        1.0,
        1.0,
        1.0,
        1.0
    ]
}