{
    "size": 8,
    "voltages": [
        0.0,
        0.0,
        0.0,
        0.0,
        0.0,
        0.0,
        0.0,
        0.0
    ],
    "time_constants": [
        1.0,
        1.0,
        1.0,
        1.0,
        1.0,
        1.0,
        1.0,
        1.0
    ],
    "biases": [
        0.06339681593838718,
        -3.5880306699845907,
        13.284386979355238,
        -1.4908505877403395,
        7.863006332474269,
        -4.171283195957395,
        14.847940801840702,
        -1.6402094401474996
    ],
    "inner_weights": [
        [
            -6.844407044545922,
            -13.990697898344736,
            15.939386935632786,
            -14.670437595391638,
            11.369666691309499,
            -14.804421717913954,
            12.05225853962943,
            -14.110808357586796
        ],
        [
            9.231997773720291,
            -14.768297314496825,
            -13.59256439542635,
            15.532686069092952,
            -16.0,
            14.259926060021066,
            -14.005879891403128,
            10.14445874099854
        ],
        [
            -14.493319301569667,
            16.0,
            -3.3665585813846195,
            -8.208447673309111,
            -16.0,
            -7.467935951481209,
            13.239672332853335,
            12.109700071942758
        ],
        [
            14.83895569867404,
            -16.0,
            -11.163098956079526,
            -15.800341901131809,
            -3.9429301350562844,
            6.8238873704410885,
            -15.701389198325996,
            -14.828067137135736
        ],
        [
            0.6168038693107041,
            11.524520563098617,
            10.49484950439783,
            -1.4008993503934837,
            1.2914638324774104,
            -10.311708857081578,
            -11.973582648822683,
            14.918891363431996
        ],
        [
            10.297965969369812,
            -11.943610415265436,
            4.417680435016472,
            0.17121668191861006,
            2.9075721687096943,
            -7.054856624430503,
            -11.749427832173174,
            -7.100866680819632
        ],
        [
            -16.0,
            14.801155156209635,
            -15.386835639297487,
            10.05954146342004,
            15.46397369039619,
            9.613579444694249,
            2.064651066385955,
            11.12256951535914
        ],
        [
            9.396817679399978,
            14.222250945500976,
            -15.091888232291161,
            16.0,
            -14.339660833794781,
            15.777997901891931,
            -10.82927292755488,
            -12.649280618006848
        ]
    ],
    "outputs": [
        0.0,
        0.0,
        0.0,
        0.0,
        0.0,
        0.0,
        0.0,
        0.0
    ],
    "inputs": [
        0.0,
        0.0,
        0.0,
        0.0,
        0.0,
        0.0,
        0.0,
        0.0
    ],
    "weight_range": 16,
    "bias_range": 16,
    "tc_min": 1,
    "tc_max": 1,
    "sensors": null,
    "motors": null,
    "inv_time_constants": [
        1.0,
        1.0,
        1.0,
        1.0,
        1.0,
        1.0,
        1.0,
        1.0
    ]
}