{
    "size": 7,
    "voltages": [
        0.0,
        0.0,
        0.0,
        0.0,
        0.0,
        0.0,
        0.0
    ],
    "time_constants": [
        1.0,
        1.0,
        1.0,
        1.0,
        1.0,
        1.0,
        1.0
    ],
    "biases": [
        -6.9324253355853385,
        -8.069858510893122,
        12.254276049785828,
        -2.774292986457392,
        -9.757644533330453,
        0.6948499000043409,
        15.583642595717881
    ],
    "inner_weights": [
        [
            -7.010441241935243,
            4.212510177259032,
            -16.0,
            -9.427669217035135,
            -10.109089793736644,
            15.477904002643433,
            -15.149823974275439
        ],
        [
            9.432221506194795,
            -6.237054495075705,
            -16.0,
            -7.510664682470192,
            0.5668085655219254,
            15.13106821741152,
            -15.777589987156164
        ],
        [
            16.0,
            10.845617599181478,
            -5.799452289147121,
            13.342745081959508,
            -0.43218520292779317,
            -14.249741985231871,
            14.334283238015173
        ],
        [
            2.315249966015127,
            16.0,
            -3.1915385258306563,
            -0.5238152575790898,
            -10.809612460359293,
            -2.9597871665232356,
            -15.319330844020689
        ],
        [
            -8.718330445663165,
            -16.0,
            9.236366520080658,
            -3.3616066719154762,
            -8.32074512961424,
            1.201751608001719,
            -13.793613008539696
        ],
        [
            -14.981924469605872,
            -15.570862293067734,
            9.619586137989826,
            -5.214736656526352,
            -13.706356760797435,
            -3.538047042466802,
            -3.32757156311371
        ],
        [
            15.802222193610879,
            15.555595027421838,
            -4.948660185875695,
            16.0,
            2.989160953224291,
            -7.113640867045156,
            -2.06992230215607
        ]
    ],
    "outputs": [
        0.0,
        0.0,
        0.0,
        0.0,
        0.0,
        0.0,
        0.0
    ],
    "inputs": [
        0.0,
        0.0,
        0.0,
        0.0,
        0.0,
        0.0,
        0.0
    ],
    "weight_range": 16,
    "bias_range": 16,
    "tc_min": 1,
    "tc_max": 1,
    "sensors": null,
    "motors": null,
    "inv_time_constants": [
        1.0,
        1.0,
        1.0,
        1.0,
        1.0,
        1.0,
        1.0
    ]
}