{
    "size": 10,
    "voltages": [
        0.0,
        0.0,
        0.0,
        0.0,
        0.0,
        0.0,
        0.0,
        0.0,
        0.0,
        0.0
    ],
    "time_constants": [
        1.0,
        1.0,
        1.0,
        1.0,
        1.0,
        1.0,
        1.0,
        1.0,
        1.0,
        1.0
    ],
    "biases": [
        13.709134084507829,
        -4.489888867683836,
        14.403864006422891,
        2.91195063820984,
        -7.449843590443614,
        -0.8742796034174252,
        6.259930089129026,
        -12.849266254996996,
        -6.556671477707198,
        6.279291554078402
    ],
    "inner_weights": [
        [
            -0.5443530954403079,
            15.99301963634223,
            11.00320659182562,
            15.259445245930216,
            -4.615797816987485,
            11.351815791736513,
            5.501560988090563,
            -6.372862581463606,
            -10.748609635044547,
            -13.562999012670495
        ],
        [
            -1.4065576066285312,
            -16.0,
            -1.213782591545673,
            -8.514038568971012,
            14.632700778547743,
            -11.477777432675428,
            6.426850649774147,
            3.8414024524999815,
            15.908150930998215,
            11.881795215190984
        ],
        [
            -14.939263348586795,
            13.166599802608449,
            -7.077479983753178,
            -14.608408410280683,
            12.166802926148257,
            11.723649754385466,
            8.443338282831558,
            9.702390936535622,
            14.257805821499252,
            2.121805255455071
        ],
        [
            -11.680357239767655,
            15.437002089953708,
            15.701701274765565,
            3.2034735589791543,
            -12.459124552819071,
            14.576739997914546,
            12.049656895845695,
            -10.650062336326378,
            2.549943271259064,
            -14.994803128660607
        ],
        [
            8.709445000962742,
            -15.046522934048419,
            -10.101107933540181,
            2.5906871000744554,
            -13.055067469663197,
            -13.750446893980396,
            -15.14727258915961,
            11.91644862362619,
            10.319500285435053,
            16.0
        ],
        [
            -7.172609952287861,
            14.016239073977594,
            4.269209249627183,
            -16.0,
            13.007232287615304,
            -9.983634427504423,
            13.3772686784642,
            -5.259857011475115,
            -0.32634355725827624,
            -7.2160347906116336
        ],
        [
            -15.740319660785781,
            13.884866038802611,
            -13.988950022704419,
            -13.38709100600342,
            5.697841164757374,
            -8.054218070015766,
            -12.556112328395566,
            1.2192085261079986,
            15.003138603364057,
            -10.418898574424352
        ],
        [
            -8.42973783962549,
            4.568843239005043,
            -1.3452622249965698,
            -0.8565262035963768,
            -4.548729969227232,
            6.534224782475825,
            -8.266527140842683,
            2.557385756887519,
            -2.608559745749833,
            -10.662367446255688
        ],
        [
            -3.653701399169521,
            -15.183119650541846,
            -12.434827617898382,
            3.6766919072432227,
            16.0,
            -8.0845483553344,
            -11.27552841786236,
            -13.163074806758644,
            -14.839675910783562,
            11.392681795072608
        ],
        [
            12.61757013152054,
            -8.426947532476193,
            -10.528180680319704,
            15.290594544310254,
            -14.185095862140482,
            15.009007860309321,
            -13.048096268698425,
            5.129720207391087,
            -12.958050098724943,
            -11.583625688655914
        ]
    ],
    "outputs": [
        0.0,
        0.0,
        0.0,
        0.0,
        0.0,
        0.0,
        0.0,
        0.0,
        0.0,
        0.0
    ],
    "inputs": [
        0.0,
        0.0,
        0.0,
        0.0,
        0.0,
        0.0,
        0.0,
        0.0,
        0.0,
        0.0
    ],
    "weight_range": 16,
    "bias_range": 16,
    "tc_min": 1,
    "tc_max": 1,
    "sensors": null,
    "motors": null,
    "inv_time_constants": [
        1.0,
        1.0,
        1.0,
        1.0,
        1.0,
        1.0,
        1.0,
        1.0,
        1.0,
        1.0
    ]
}