{
    "size": 7,
    "voltages": [
        0.0,
        0.0,
        0.0,
        0.0,
        0.0,
        0.0,
        0.0
    ],
    "time_constants": [
        1.0,
        1.0,
        1.0,
        1.0,
        1.0,
        1.0,
        1.0
    ],
    "biases": [
        4.212432663142317,
        -2.73890984439975,
        4.105591758668592,
        -12.223114144732618,
        -3.4594628420166527,
        2.0481003637750144,
        -4.731615666807
    ],
    "inner_weights": [
        [
            0.45004634250228875,
            2.093368570357508,
            4.988790720254655,
            -15.12720391263927,
            -13.880432646281477,
            -4.495734766551355,
            -15.692880120410567
        ],
        [
            -8.555973904780403,
            -7.799098698265535,
            7.158644958740153,
            6.3004826599774075,
            14.259809411107726,
            5.465594485085639,
            -15.646824128483912
        ],
        [
            -15.909774222887489,
            16.0,
            -8.956148865867057,
            15.742806207775159,
            15.155589412277532,
            -0.2781283349740852,
            -16.0
        ],
        [
            12.09616307939405,
            -14.456381407712536,
            -15.178265642639373,
            -0.797431798328659,
            -1.9972371357241085,
            16.0,
            15.976477872984274
        ],
        [
            15.953918439625182,
            -16.0,
            -16.0,
            16.0,
            -9.618108349956938,
            3.8634969496494334,
            13.061273128906448
        ],
        [
            -12.019493108151146,
            3.487444879568627,
            1.5814270321661101,
            10.474127002660934,
            9.705587169151633,
            11.568266908965306,
            12.383427738769107
        ],
        [
            13.00764975617884,
            14.331406958902205,
            15.961404084024673,
            -15.737947216251442,
            -14.030974744917454,
            -5.908832993913245,
            2.33946636185185
        ]
    ],
    "outputs": [
        0.0,
        0.0,
        0.0,
        0.0,
        0.0,
        0.0,
        0.0
    ],
    "inputs": [
        0.0,
        0.0,
        0.0,
        0.0,
        0.0,
        0.0,
        0.0
    ],
    "weight_range": 16,
    "bias_range": 16,
    "tc_min": 1,
    "tc_max": 1,
    "sensors": null,
    "motors": null,
    "inv_time_constants": [
        1.0,
        1.0,
        1.0,
        1.0,
        1.0,
        1.0,
        1.0
    ]
}