{
    "size": 7,
    "voltages": [
        0.0,
        0.0,
        0.0,
        0.0,
        0.0,
        0.0,
        0.0
    ],
    "time_constants": [
        1.0,
        1.0,
        1.0,
        1.0,
        1.0,
        1.0,
        1.0
    ],
    "biases": [
        13.036883991091862,
        -5.6093384709401155,
        6.166382720116255,
        -0.7885092146899879,
        -5.412734897444687,
        -3.295095134623529,
        -2.8924699749870175
    ],
    "inner_weights": [
        [
            -2.6330674351930234,
            15.52800008228583,
            14.887884919218559,
            -16.0,
            8.580355072531143,
            15.815768550202996,
            16.0
        ],
        [
            8.286342672219565,
            1.4946054640396573,
            -2.8371679708334967,
            2.8248462128546397,
            -9.326503594451994,
            13.492670018917071,
            3.2198718175062138
        ],
        [
            1.6756682807872507,
            -3.640912982272281,
            -6.423228728983447,
            -13.746925272395849,
            6.273744438113446,
            15.47507377530539,
            15.101233287501458
        ],
        [
            15.397043775101157,
            -11.445148543062647,
            15.685502230729576,
            -3.89567171672837,
            -15.690873830573405,
            -15.549506090332168,
            -16.0
        ],
        [
            -13.642152509598969,
            -9.455268987162343,
            -10.178243739946737,
            14.080169264359215,
            -11.572469160084157,
            -15.239978188023889,
            -14.102928620195662
        ],
        [
            -15.319104773733386,
            -2.005038706880482,
            -15.568117736062785,
            9.112264788070709,
            14.04058952097038,
            -3.5589103089774987,
            14.006970991482692
        ],
        [
            -15.796577148431998,
            5.16555950329315,
            -15.430642756465208,
            15.02114864847721,
            14.553660562509465,
            10.552760533514043,
            -8.50662680897285
        ]
    ],
    "outputs": [
        0.0,
        0.0,
        0.0,
        0.0,
        0.0,
        0.0,
        0.0
    ],
    "inputs": [
        0.0,
        0.0,
        0.0,
        0.0,
        0.0,
        0.0,
        0.0
    ],
    "weight_range": 16,
    "bias_range": 16,
    "tc_min": 1,
    "tc_max": 1,
    "sensors": null,
    "motors": null,
    "inv_time_constants": [
        1.0,
        1.0,
        1.0,
        1.0,
        1.0,
        1.0,
        1.0
    ]
}