{
    "size": 9,
    "voltages": [
        0.0,
        0.0,
        0.0,
        0.0,
        0.0,
        0.0,
        0.0,
        0.0,
        0.0
    ],
    "time_constants": [
        1.0,
        1.0,
        1.0,
        1.0,
        1.0,
        1.0,
        1.0,
        1.0,
        1.0
    ],
    "biases": [
        -3.996841784793668,
        -10.891247626141146,
        -0.41749341146757185,
        11.414172760196024,
        3.6210987496234117,
        12.226897002503252,
        0.690183228971736,
        4.69751783444387,
        6.320354705214845
    ],
    "inner_weights": [
        [
            0.3949659770564391,
            -8.167866081315848,
            13.876110534624736,
            -14.774156195232289,
            -14.02524450550793,
            -4.550213608361276,
            -16.0,
            14.165350886020788,
            14.507414746018565
        ],
        [
            14.317124146386545,
            -7.125300853664935,
            -4.200409808181542,
            -12.36589763626616,
            -15.38428470267495,
            3.4301370824402424,
            -15.483676830035861,
            15.367220688941753,
            9.877013548320122
        ],
        [
            -14.418888031048416,
            -7.895898338529942,
            -3.361945598214319,
            16.0,
            2.027915800855636,
            -2.028773212601717,
            15.416371531504883,
            -13.109548304391755,
            -11.320329123979285
        ],
        [
            15.935206600822282,
            15.88388639261185,
            -14.967815283162407,
            -13.061646511748226,
            -9.48569568500556,
            14.485695135132072,
            -3.0705235707751317,
            -11.320081008333545,
            -5.87096420663513
        ],
        [
            7.1981100379334055,
            13.584792695168492,
            10.160546027105061,
            12.209242314944698,
            -7.763937343100814,
            -14.954254672715058,
            5.235893409602645,
            -12.556574925188926,
            -15.49380773331358
        ],
        [
            -5.132262688885297,
            14.202085646849905,
            -4.040542947290739,
            -7.73772310090488,
            12.954125276639529,
            10.513148684622399,
            2.9222387557222396,
            1.5915562758534572,
            7.830510345272988
        ],
        [
            16.0,
            15.964402892848488,
            -16.0,
            15.615332755190016,
            -13.347885150513582,
            -2.350198798810034,
            -4.158860264676075,
            -12.006437916647728,
            -13.837109864285495
        ],
        [
            -14.376173104502147,
            -14.337133503348506,
            15.652233773244301,
            6.5281932878362925,
            14.673108955846928,
            -4.013841199272043,
            0.4594687843872801,
            -13.703528789926509,
            -9.076355905681634
        ],
        [
            -11.62640341955234,
            -14.133960513322855,
            7.7557321962730335,
            -8.759957636828977,
            15.677610105711553,
            11.482748447726607,
            16.0,
            11.892052659999155,
            -2.8734279729706653
        ]
    ],
    "outputs": [
        0.0,
        0.0,
        0.0,
        0.0,
        0.0,
        0.0,
        0.0,
        0.0,
        0.0
    ],
    "inputs": [
        0.0,
        0.0,
        0.0,
        0.0,
        0.0,
        0.0,
        0.0,
        0.0,
        0.0
    ],
    "weight_range": 16,
    "bias_range": 16,
    "tc_min": 1,
    "tc_max": 1,
    "sensors": null,
    "motors": null,
    "inv_time_constants": [
        1.0,
        1.0,
        1.0,
        1.0,
        1.0,
        1.0,
        1.0,
        1.0,
        1.0
    ]
}