{
    "size": 7,
    "voltages": [
        0.0,
        0.0,
        0.0,
        0.0,
        0.0,
        0.0,
        0.0
    ],
    "time_constants": [
        1.0,
        1.0,
        1.0,
        1.0,
        1.0,
        1.0,
        1.0
    ],
    "biases": [
        13.680534693877556,
        9.071198012501464,
        -1.3824529970949035,
        -7.412821543348042,
        -2.6368552044919618,
        1.16254332921194,
        -9.532845042899108
    ],
    "inner_weights": [
        [
            0.951881342605019,
            13.164811410998208,
            13.830950356320367,
            -1.2968363143209003,
            -16.0,
            15.92886426550058,
            12.781427068841971
        ],
        [
            -1.2737441353301064,
            -2.5885808027353807,
            16.0,
            13.511329867946753,
            -13.962042327804298,
            13.769900426419795,
            16.0
        ],
        [
            -12.766651421380427,
            -7.758512073959971,
            -13.979462176958467,
            16.0,
            15.575417524210117,
            -7.561315916190202,
            12.509533856310414
        ],
        [
            -15.320279633468363,
            -15.586363602231447,
            -11.249456313490832,
            -14.907042808820734,
            16.0,
            -8.174515893853314,
            -13.8895631184965
        ],
        [
            14.592276010913434,
            8.354311624380937,
            -11.557521986113523,
            -15.859028992197757,
            -2.1092835274852972,
            -12.243954710146847,
            -13.346090075833544
        ],
        [
            -10.236436174707249,
            -10.358476511748561,
            9.693486666551498,
            7.917568398987492,
            -0.7604365252735359,
            1.8703905194983867,
            4.014224538380063
        ],
        [
            -12.720042591070472,
            -14.918742500611888,
            -8.573017950402344,
            15.041830209385662,
            16.0,
            -13.974940118314608,
            2.490734456833559
        ]
    ],
    "outputs": [
        0.0,
        0.0,
        0.0,
        0.0,
        0.0,
        0.0,
        0.0
    ],
    "inputs": [
        0.0,
        0.0,
        0.0,
        0.0,
        0.0,
        0.0,
        0.0
    ],
    "weight_range": 16,
    "bias_range": 16,
    "tc_min": 1,
    "tc_max": 1,
    "sensors": null,
    "motors": null,
    "inv_time_constants": [
        1.0,
        1.0,
        1.0,
        1.0,
        1.0,
        1.0,
        1.0
    ]
}