{
    "size": 7,
    "voltages": [
        0.0,
        0.0,
        0.0,
        0.0,
        0.0,
        0.0,
        0.0
    ],
    "time_constants": [
        1.0,
        1.0,
        1.0,
        1.0,
        1.0,
        1.0,
        1.0
    ],
    "biases": [
        -4.684744376082799,
        -4.588725607012235,
        -0.3540868652456248,
        14.581262874543715,
        -13.315066642774886,
        14.76339040372221,
        3.22395063718839
    ],
    "inner_weights": [
        [
            -11.100079128682601,
            8.384628886483709,
            1.0614315753173966,
            -15.803426714310831,
            -7.879432311175189,
            -5.275583107745282,
            16.0
        ],
        [
            -14.168048336974584,
            -11.760626675769817,
            -15.272959820967637,
            15.170194363142116,
            -4.441775977301843,
            -4.91470669705284,
            -15.121243549754952
        ],
        [
            13.967287755878774,
            15.661740258095334,
            1.1521546253839965,
            -15.419246470626236,
            -13.570527681526517,
            -15.900823296596862,
            15.410590659964743
        ],
        [
            16.0,
            -15.930296375611926,
            16.0,
            1.1564006517894783,
            -11.088396951055671,
            14.506114843108458,
            -14.54320049017436
        ],
        [
            16.0,
            -16.0,
            -4.022174296921466,
            15.758167919175772,
            -15.327814757692417,
            2.601660232327185,
            -8.806940274906292
        ],
        [
            15.236297664840725,
            0.7691894808453238,
            13.748997772962145,
            -14.05812905000642,
            5.790652636872526,
            -7.276876822282623,
            3.644027036964975
        ],
        [
            -13.49953378073461,
            15.791835768018153,
            -16.0,
            -6.659962640524039,
            -4.862944707612665,
            -12.716654708763704,
            -11.3633287373971
        ]
    ],
    "outputs": [
        0.0,
        0.0,
        0.0,
        0.0,
        0.0,
        0.0,
        0.0
    ],
    "inputs": [
        0.0,
        0.0,
        0.0,
        0.0,
        0.0,
        0.0,
        0.0
    ],
    "weight_range": 16,
    "bias_range": 16,
    "tc_min": 1,
    "tc_max": 1,
    "sensors": null,
    "motors": null,
    "inv_time_constants": [
        1.0,
        1.0,
        1.0,
        1.0,
        1.0,
        1.0,
        1.0
    ]
}