{
    "size": 6,
    "voltages": [
        0.0,
        0.0,
        0.0,
        0.0,
        0.0,
        0.0
    ],
    "time_constants": [
        1.0,
        1.0,
        1.0,
        1.0,
        1.0,
        1.0
    ],
    "biases": [
        9.464876532611378,
        11.889393795452019,
        -4.849418935793303,
        -7.70843207690863,
        5.129920045072124,
        5.855789352689979
    ],
    "inner_weights": [
        [
            -8.076888586585667,
            -15.962393063405289,
            14.886195639182427,
            15.52339300932376,
            -14.537256307765043,
            7.527530551634089
        ],
        [
            14.824728803019768,
            9.99045396677294,
            14.929917966442835,
            14.892398366806242,
            -16.0,
            -15.171094292970462
        ],
        [
            -16.0,
            -16.0,
            -0.28011067944280493,
            -7.187718096474263,
            15.748913312607625,
            14.891040575458726
        ],
        [
            -7.810807940941256,
            -11.238546432570642,
            6.737368469764183,
            -3.587631356464501,
            -14.428399239749893,
            15.65225580149406
        ],
        [
            12.01090815958995,
            16.0,
            -8.525994687411066,
            13.193002555163513,
            -0.6125118404411378,
            -13.82860070352736
        ],
        [
            -16.0,
            -10.34051504122537,
            -13.200809882747516,
            -15.132174679075858,
            15.55424082856568,
            -14.68271170063145
        ]
    ],
    "outputs": [
        0.0,
        0.0,
        0.0,
        0.0,
        0.0,
        0.0
    ],
    "inputs": [
        0.0,
        0.0,
        0.0,
        0.0,
        0.0,
        0.0
    ],
    "weight_range": 16,
    "bias_range": 16,
    "tc_min": 1,
    "tc_max": 1,
    "sensors": null,
    "motors": null,
    "inv_time_constants": [
        1.0,
        1.0,
        1.0,
        1.0,
        1.0,
        1.0
    ]
}