{
    "size": 10,
    "voltages": [
        0.0,
        0.0,
        0.0,
        0.0,
        0.0,
        0.0,
        0.0,
        0.0,
        0.0,
        0.0
    ],
    "time_constants": [
        1.0,
        1.0,
        1.0,
        1.0,
        1.0,
        1.0,
        1.0,
        1.0,
        1.0,
        1.0
    ],
    "biases": [
        -1.100765252523926,
        -10.0169078805217,
        -12.791480105848992,
        4.880577535754539,
        13.643032067527475,
        0.624594702326782,
        -8.139525534568996,
        4.945105173574235,
        -4.492973126628429,
        -12.729656121607645
    ],
    "inner_weights": [
        [
            -5.518798918211846,
            14.65724658457793,
            -10.684647367458293,
            11.561860737647665,
            0.7743698443701033,
            14.551087925033185,
            15.872490712866927,
            -10.406755956190457,
            -16.0,
            -15.440622378174167
        ],
        [
            -15.776324380326571,
            -7.390031225817395,
            0.10718418096275428,
            -11.71348264183592,
            -15.690837283208122,
            6.938745194106239,
            3.648271973522978,
            14.573877236941911,
            15.503330004076975,
            14.088036132567199
        ],
        [
            13.734594649687738,
            10.227093050091144,
            13.28568506891054,
            -10.083896692524704,
            0.15756139898408006,
            -2.0594542808753875,
            -12.921970707551623,
            -10.039140527235634,
            1.0445890517127179,
            1.0847369664075952
        ],
        [
            -6.967444886520886,
            15.794803181931316,
            11.188684694033388,
            -10.833559645252926,
            -12.841878370282044,
            14.53842531482005,
            16.0,
            16.0,
            9.644449473027166,
            0.26935547761023626
        ],
        [
            14.693140438554762,
            16.0,
            -9.028179362540824,
            12.473678501753236,
            -0.09864576622054416,
            13.94742596112029,
            3.213327145144227,
            -15.354594074703316,
            -12.602527440428132,
            3.9145186274427526
        ],
        [
            -15.58312921410299,
            2.222692003848363,
            5.786444234354382,
            12.562977442062692,
            -16.0,
            -12.785417246342439,
            10.006338840321659,
            16.0,
            8.655945089376013,
            7.984824410845897
        ],
        [
            -9.356976612574542,
            14.89717925216381,
            -13.162575317959917,
            -16.0,
            -2.308882820755745,
            -15.078323999021551,
            -8.551786217600922,
            6.6867511448818195,
            15.779282673574468,
            11.701509107606748
        ],
        [
            4.697224607928722,
            -9.7703530613903,
            -12.193939574232864,
            -2.7328420444282866,
            4.864503302529199,
            -14.265322812862912,
            1.0210416750747413,
            -16.0,
            -1.095935159075647,
            12.154931894020942
        ],
        [
            16.0,
            -14.732057125738038,
            15.495497877515419,
            -8.660206753836544,
            8.564522114073414,
            -3.624099278276071,
            -13.344345804442256,
            -1.3024095670431564,
            -13.894035149186642,
            3.4824720980339
        ],
        [
            11.87610187716893,
            -13.729547499800251,
            -0.9532158439665536,
            -8.458160436922253,
            0.8486016917842163,
            -15.506705649471392,
            -16.0,
            -12.24071045185357,
            16.0,
            -6.957959377453339
        ]
    ],
    "outputs": [
        0.0,
        0.0,
        0.0,
        0.0,
        0.0,
        0.0,
        0.0,
        0.0,
        0.0,
        0.0
    ],
    "inputs": [
        0.0,
        0.0,
        0.0,
        0.0,
        0.0,
        0.0,
        0.0,
        0.0,
        0.0,
        0.0
    ],
    "weight_range": 16,
    "bias_range": 16,
    "tc_min": 1,
    "tc_max": 1,
    "sensors": null,
    "motors": null,
    "inv_time_constants": [
        1.0,
        1.0,
        1.0,
        1.0,
        1.0,
        1.0,
        1.0,
        1.0,
        1.0,
        1.0
    ]
}