{
    "size": 9,
    "voltages": [
        0.0,
        0.0,
        0.0,
        0.0,
        0.0,
        0.0,
        0.0,
        0.0,
        0.0
    ],
    "time_constants": [
        1.0,
        1.0,
        1.0,
        1.0,
        1.0,
        1.0,
        1.0,
        1.0,
        1.0
    ],
    "biases": [
        1.218145900116056,
        7.137120095886915,
        -3.622090697944686,
        0.6532740977900428,
        -7.948797743533887,
        15.243179673191074,
        -4.785409931083272,
        -10.148235964569313,
        3.4712257495071643
    ],
    "inner_weights": [
        [
            -5.09118740883266,
            -7.665673285366764,
            15.949312766330898,
            -3.243981318126889,
            13.086045590660982,
            -14.440789874184901,
            12.948817099636258,
            10.980466476980293,
            9.467009200509217
        ],
        [
            8.322083103689993,
            0.8332483974491882,
            11.252025614811945,
            15.279898612028832,
            13.083427194616995,
            -9.089886948837336,
            5.218757992447808,
            -3.484132081641388,
            13.164146850803984
        ],
        [
            -11.383979645175764,
            -3.2706920055744186,
            -2.2265766467634194,
            -16.0,
            7.487688377872706,
            4.677989254736177,
            4.7756828385408765,
            13.86912159786647,
            -15.211402363791004
        ],
        [
            8.187902563562444,
            -11.75260877081609,
            16.0,
            -13.231895135982885,
            15.809312207805938,
            -13.653953760903653,
            8.54100236976126,
            -9.620030227332908,
            5.218060582376881
        ],
        [
            -15.161979213043287,
            -6.647640107168238,
            -0.7288102721938472,
            -15.411466920834501,
            -10.519170376304706,
            -1.9719355776185896,
            15.580574797400406,
            5.311355527132383,
            -9.080461611303253
        ],
        [
            14.127038770746344,
            13.852994468445672,
            -12.673756999199872,
            16.0,
            -1.9104347764301566,
            -11.582567056022272,
            -12.629026821779897,
            -4.059253344440215,
            9.741068396237615
        ],
        [
            -3.8134675865187675,
            -8.469721026439066,
            -4.381388724713992,
            -11.508976846612324,
            -12.381429545276024,
            7.912825245082275,
            -5.552213818048093,
            15.740925686566735,
            -13.900936203324498
        ],
        [
            -7.481701560192743,
            3.7883364906180494,
            -13.89265796200886,
            7.7696392856295065,
            -10.034148914589503,
            15.102586246197939,
            -11.609491438686836,
            -3.817478361887067,
            -10.089110523546774
        ],
        [
            3.5905070307213087,
            -8.245553367820778,
            11.54740496903736,
            8.906684363091815,
            13.635323692559671,
            -15.849601468398724,
            6.7136648814381354,
            3.4326476036290887,
            0.5552067775581254
        ]
    ],
    "outputs": [
        0.0,
        0.0,
        0.0,
        0.0,
        0.0,
        0.0,
        0.0,
        0.0,
        0.0
    ],
    "inputs": [
        0.0,
        0.0,
        0.0,
        0.0,
        0.0,
        0.0,
        0.0,
        0.0,
        0.0
    ],
    "weight_range": 16,
    "bias_range": 16,
    "tc_min": 1,
    "tc_max": 1,
    "sensors": null,
    "motors": null,
    "inv_time_constants": [
        1.0,
        1.0,
        1.0,
        1.0,
        1.0,
        1.0,
        1.0,
        1.0,
        1.0
    ]
}