{
    "size": 8,
    "voltages": [
        0.0,
        0.0,
        0.0,
        0.0,
        0.0,
        0.0,
        0.0,
        0.0
    ],
    "time_constants": [
        1.0,
        1.0,
        1.0,
        1.0,
        1.0,
        1.0,
        1.0,
        1.0
    ],
    "biases": [
        -0.22734570438531798,
        -6.833149442022282,
        -7.503716505833021,
        15.902711490908304,
        15.5537944866727,
        -3.3640824384707413,
        -15.629009761135283,
        -1.2824842416177455
    ],
    "inner_weights": [
        [
            0.2564737423543645,
            14.985579106097292,
            12.200669998092948,
            -1.9333867229566215,
            -11.266403161876969,
            16.0,
            14.642354871066916,
            -11.035942736907044
        ],
        [
            -15.887082138750698,
            -14.380297665730886,
            16.0,
            -14.804998095302608,
            -13.934927530785778,
            4.923228396850965,
            3.309944321629959,
            -7.179151419693907
        ],
        [
            6.819809606464635,
            -10.807039284569228,
            -15.134295897811272,
            -14.611589799236286,
            0.1543655577043126,
            16.0,
            -11.1279213609175,
            -13.455079742138066
        ],
        [
            6.66464388585969,
            10.376139176805726,
            10.458634119849016,
            -3.324181568637667,
            -0.5925277580185904,
            -13.966852556261651,
            15.192673747714515,
            16.0
        ],
        [
            16.0,
            7.490149211501779,
            -11.021774769081212,
            15.12428685550787,
            -3.7150266163117367,
            -13.811573644492814,
            15.473864541560054,
            15.681413150312888
        ],
        [
            -12.993481780905629,
            -15.57911117595296,
            -14.74416163948324,
            2.0250882377071897,
            15.880371192463862,
            -6.9466432786552215,
            -16.0,
            10.064869820105788
        ],
        [
            -15.228717390643501,
            13.156970205849932,
            14.327610999342943,
            -12.542251772651255,
            -13.717119709401766,
            12.586497339302685,
            -5.151652128951885,
            -14.681965570685716
        ],
        [
            10.012415540733116,
            14.626708826986077,
            8.61601650751839,
            -6.744568091590229,
            -12.135114906664045,
            2.522191277765958,
            15.032857162172904,
            -2.921921447782551
        ]
    ],
    "outputs": [
        0.0,
        0.0,
        0.0,
        0.0,
        0.0,
        0.0,
        0.0,
        0.0
    ],
    "inputs": [
        0.0,
        0.0,
        0.0,
        0.0,
        0.0,
        0.0,
        0.0,
        0.0
    ],
    "weight_range": 16,
    "bias_range": 16,
    "tc_min": 1,
    "tc_max": 1,
    "sensors": null,
    "motors": null,
    "inv_time_constants": [
        1.0,
        1.0,
        1.0,
        1.0,
        1.0,
        1.0,
        1.0,
        1.0
    ]
}