{
    "size": 8,
    "voltages": [
        0.0,
        0.0,
        0.0,
        0.0,
        0.0,
        0.0,
        0.0,
        0.0
    ],
    "time_constants": [
        1.0,
        1.0,
        1.0,
        1.0,
        1.0,
        1.0,
        1.0,
        1.0
    ],
    "biases": [
        8.025841182000317,
        2.930097693209821,
        -5.377817651294746,
        2.4502784354205236,
        8.653452553033569,
        -0.7613067019852989,
        6.584245491111559,
        -7.379584854560826
    ],
    "inner_weights": [
        [
            -8.22819134670551,
            -13.099545769317968,
            -15.176138641546855,
            10.111956361739535,
            -8.04005560284546,
            2.352598678902911,
            15.07608303731816,
            11.894415902414325
        ],
        [
            15.744896356511022,
            -12.226461191875808,
            5.2687680502615795,
            13.457003449017297,
            -15.480187572410596,
            -13.82020469353546,
            -13.887517192702509,
            -14.86974829052911
        ],
        [
            12.175265318306908,
            8.302755582471914,
            -10.096153320163296,
            10.627291043223348,
            -9.140193215643032,
            -8.917896451864818,
            -10.531913104606112,
            -14.668272068227969
        ],
        [
            -5.196060813599518,
            -16.0,
            -4.755290758505329,
            -4.821479180072054,
            1.2098263546880645,
            12.77352013427945,
            16.0,
            13.680415198899649
        ],
        [
            3.4118755145672037,
            7.250508924550839,
            4.528520171340116,
            -3.041314942734164,
            1.559985230134807,
            -4.189625916238923,
            -5.558760751466232,
            0.7819894894864416
        ],
        [
            -15.319359205172518,
            14.556486139537267,
            13.706510842923459,
            -12.80966018673146,
            3.9305791513075152,
            -14.630088857165598,
            -11.596134837103843,
            5.008734198400261
        ],
        [
            -10.106365369203719,
            -5.2180729001166695,
            9.390653235325361,
            -9.739299991235372,
            12.95597575216826,
            16.0,
            5.83416789969238,
            16.0
        ],
        [
            -16.0,
            15.50360506017606,
            13.894755226817303,
            -12.789066773735637,
            -0.28999913027467533,
            9.497007037136994,
            -15.998061651075956,
            0.30252025321177145
        ]
    ],
    "outputs": [
        0.0,
        0.0,
        0.0,
        0.0,
        0.0,
        0.0,
        0.0,
        0.0
    ],
    "inputs": [
        0.0,
        0.0,
        0.0,
        0.0,
        0.0,
        0.0,
        0.0,
        0.0
    ],
    "weight_range": 16,
    "bias_range": 16,
    "tc_min": 1,
    "tc_max": 1,
    "sensors": null,
    "motors": null,
    "inv_time_constants": [
        1.0,
        1.0,
        1.0,
        1.0,
        1.0,
        1.0,
        1.0,
        1.0
    ]
}