{
    "size": 6,
    "voltages": [
        0.0,
        0.0,
        0.0,
        0.0,
        0.0,
        0.0
    ],
    "time_constants": [
        1.0,
        1.0,
        1.0,
        1.0,
        1.0,
        1.0
    ],
    "biases": [
        5.314408732953121,
        -9.40539990184236,
        -1.096459763646149,
        15.403217414383821,
        11.737268190955438,
        6.204095482187206
    ],
    "inner_weights": [
        [
            0.31455792739891114,
            16.0,
            13.974506395667586,
            -14.81564884252684,
            -16.0,
            10.753773633838726
        ],
        [
            -16.0,
            -4.22800517520189,
            -15.77815279901291,
            -5.676536080397781,
            15.742845717184789,
            -15.190244813848096
        ],
        [
            -9.574212341752098,
            14.638596599426297,
            -15.484840977613299,
            -13.873915820196144,
            7.678740834008886,
            -6.9245868313034125
        ],
        [
            14.13666317573828,
            -5.160659397393812,
            14.337120830551257,
            -1.3883098646109258,
            -15.693917830157405,
            15.541866001755333
        ],
        [
            9.980661952557579,
            -13.5684951911428,
            -15.3922976921192,
            16.0,
            -1.531396701374554,
            -13.651232510336168
        ],
        [
            -16.0,
            14.511553101562262,
            14.415225683459719,
            -15.06082843868582,
            -12.878577827703955,
            -10.877686923934505
        ]
    ],
    "outputs": [
        0.0,
        0.0,
        0.0,
        0.0,
        0.0,
        0.0
    ],
    "inputs": [
        0.0,
        0.0,
        0.0,
        0.0,
        0.0,
        0.0
    ],
    "weight_range": 16,
    "bias_range": 16,
    "tc_min": 1,
    "tc_max": 1,
    "sensors": null,
    "motors": null,
    "inv_time_constants": [
        1.0,
        1.0,
        1.0,
        1.0,
        1.0,
        1.0
    ]
}