{
    "size": 7,
    "voltages": [
        0.0,
        0.0,
        0.0,
        0.0,
        0.0,
        0.0,
        0.0
    ],
    "time_constants": [
        1.0,
        1.0,
        1.0,
        1.0,
        1.0,
        1.0,
        1.0
    ],
    "biases": [
        -5.150159452539027,
        11.83186464098579,
        -1.4284002660472308,
        -8.856599524954452,
        14.999016736883908,
        -2.644710607028664,
        1.6393680696036943
    ],
    "inner_weights": [
        [
            -6.715969793769389,
            -14.324197702356086,
            -11.4063269641083,
            -7.254609702555999,
            0.17538445022135696,
            -16.0,
            15.180587480198954
        ],
        [
            11.892375443265236,
            -5.116043125752593,
            15.512982135198783,
            -10.647288937573299,
            -10.611768070102618,
            15.29468388418821,
            -15.319772172300627
        ],
        [
            16.0,
            -12.706742748222805,
            -15.322636117868525,
            12.845180582325353,
            -15.830474962771312,
            16.0,
            -1.9775473172177427
        ],
        [
            -14.973716667880652,
            -0.24228000217461249,
            16.0,
            8.058138310494446,
            3.7577299534489446,
            1.5715996246191417,
            13.940194997777084
        ],
        [
            -15.642861041863746,
            9.933941454605831,
            16.0,
            -4.91799100871489,
            -6.148934307728905,
            16.0,
            -15.209311041721962
        ],
        [
            15.721805472358465,
            -15.729275191520923,
            15.514775962497913,
            -16.0,
            -15.910941145519736,
            -9.347138393878431,
            15.454408426528586
        ],
        [
            -15.98649656418199,
            15.585293625215876,
            -15.28579992682384,
            -1.8850891364102507,
            16.0,
            -15.383230610656684,
            -3.614120057102507
        ]
    ],
    "outputs": [
        0.0,
        0.0,
        0.0,
        0.0,
        0.0,
        0.0,
        0.0
    ],
    "inputs": [
        0.0,
        0.0,
        0.0,
        0.0,
        0.0,
        0.0,
        0.0
    ],
    "weight_range": 16,
    "bias_range": 16,
    "tc_min": 1,
    "tc_max": 1,
    "sensors": null,
    "motors": null,
    "inv_time_constants": [
        1.0,
        1.0,
        1.0,
        1.0,
        1.0,
        1.0,
        1.0
    ]
}