{
    "size": 10,
    "voltages": [
        0.0,
        0.0,
        0.0,
        0.0,
        0.0,
        0.0,
        0.0,
        0.0,
        0.0,
        0.0
    ],
    "time_constants": [
        1.0,
        1.0,
        1.0,
        1.0,
        1.0,
        1.0,
        1.0,
        1.0,
        1.0,
        1.0
    ],
    "biases": [
        2.8119986516035667,
        -12.074724069746429,
        8.901585224372663,
        4.685326441660946,
        9.970948074665023,
        5.835254490101074,
        -0.278987549456352,
        -6.379740540857159,
        5.155758811396039,
        -10.067457933257906
    ],
    "inner_weights": [
        [
            0.9721903008933076,
            8.142376347760418,
            -3.8719627337807396,
            13.627065277134847,
            9.66050666506581,
            -5.038597229379496,
            13.919647314687605,
            -7.203503589058186,
            13.182310162689992,
            -9.228116880289353
        ],
        [
            -15.419291084897544,
            -10.721411317604693,
            14.89958379672512,
            -8.843759038205993,
            -13.819624929407832,
            -7.2502133524548515,
            -14.398680677387992,
            1.0558061251876194,
            -8.613275589575363,
            16.0
        ],
        [
            4.528594025925084,
            -6.156015221040443,
            -0.9514940029866165,
            3.1389291699704964,
            2.653436604280602,
            -3.9917065374672505,
            6.6512682012770625,
            4.291516082689356,
            8.02797068534987,
            -2.24519466617034
        ],
        [
            7.516022118059678,
            7.548589379449803,
            7.546948121162778,
            -13.20325960323149,
            14.78420853707498,
            3.0498150969240485,
            7.92608804602665,
            15.707292996361339,
            -15.741968128806661,
            11.990651211372873
        ],
        [
            -16.0,
            12.226117427471824,
            -14.331502884168438,
            15.017803743333118,
            -14.094252082556563,
            15.80111105275521,
            12.218847448769536,
            15.401908660719457,
            -13.542045300549361,
            8.42737567515095
        ],
        [
            8.827812006611408,
            5.1581361427560015,
            11.371869049269748,
            -13.971299428627498,
            -15.458323018167645,
            -7.149582670585966,
            -13.947733012866882,
            -11.132685359129058,
            15.268586891243462,
            -3.2170800105073827
        ],
        [
            -12.771408632202604,
            15.336971841070303,
            10.461500706329263,
            -7.343656145278637,
            3.2476281115220984,
            -12.255216048499108,
            -14.72380316271511,
            15.433306008166502,
            -12.291567392319106,
            12.33988150886953
        ],
        [
            -1.2756153251638487,
            -14.425108670724192,
            1.907328575301802,
            -10.511673270918495,
            -8.159871398998977,
            13.781152692411608,
            -14.402728222691916,
            -5.922158133887978,
            -11.418827275281618,
            3.8492521295737667
        ],
        [
            -6.729382780524789,
            14.281457734371935,
            5.128016917906287,
            12.69859425502846,
            13.450102555599635,
            -12.814679102773495,
            13.061917350049258,
            -4.083617491554286,
            -6.131157989781619,
            -0.5048820665431433
        ],
        [
            13.22058259135797,
            -4.5695563771272525,
            -11.583915157078668,
            -5.664054651408845,
            -16.0,
            16.0,
            -2.644036514232929,
            -7.376450548430521,
            -4.369295773192277,
            -4.410504333470369
        ]
    ],
    "outputs": [
        0.0,
        0.0,
        0.0,
        0.0,
        0.0,
        0.0,
        0.0,
        0.0,
        0.0,
        0.0
    ],
    "inputs": [
        0.0,
        0.0,
        0.0,
        0.0,
        0.0,
        0.0,
        0.0,
        0.0,
        0.0,
        0.0
    ],
    "weight_range": 16,
    "bias_range": 16,
    "tc_min": 1,
    "tc_max": 1,
    "sensors": null,
    "motors": null,
    "inv_time_constants": [
        1.0,
        1.0,
        1.0,
        1.0,
        1.0,
        1.0,
        1.0,
        1.0,
        1.0,
        1.0
    ]
}