{
    "size": 9,
    "voltages": [
        0.0,
        0.0,
        0.0,
        0.0,
        0.0,
        0.0,
        0.0,
        0.0,
        0.0
    ],
    "time_constants": [
        1.0,
        1.0,
        1.0,
        1.0,
        1.0,
        1.0,
        1.0,
        1.0,
        1.0
    ],
    "biases": [
        -3.246002508281739,
        -2.7582492737208977,
        6.037691363625351,
        3.3371458947306687,
        8.573419161479615,
        14.69128887903915,
        5.967536699568929,
        -0.6252793526122453,
        -2.997177105267971
    ],
    "inner_weights": [
        [
            7.078975613185448,
            9.149428997495443,
            8.920644309390749,
            12.026341442293774,
            -15.429925641471325,
            -10.994735066163186,
            16.0,
            -11.33649349194995,
            9.014442932165895
        ],
        [
            -3.849933673108253,
            -14.964809556506024,
            2.9341362093652754,
            -10.310435825472396,
            5.989847092299943,
            -14.73715970263044,
            15.733456275842045,
            7.2938599856456765,
            14.434078969992052
        ],
        [
            -7.143148837378142,
            -2.7341287252737008,
            -6.049723952092057,
            14.382450334204039,
            6.3859146251371115,
            14.556285278099692,
            -15.825021244627054,
            4.353429502285679,
            -14.487149072752965
        ],
        [
            -8.07936986121552,
            5.313632175343907,
            -15.060717136279944,
            -6.167480399176946,
            15.872710203778285,
            16.0,
            -14.863024940992187,
            7.366713799124708,
            -6.4136648315337474
        ],
        [
            15.387021392108146,
            9.036402278236688,
            -5.421064826454254,
            -11.961080470060608,
            -12.168831251579318,
            -16.0,
            9.961287940952172,
            15.104348525885298,
            14.893358561926568
        ],
        [
            14.183034307719398,
            13.755888860585056,
            -14.236643603232771,
            -15.028762550820252,
            11.669304717293043,
            -5.387564935597586,
            -12.444020079214386,
            8.343161120134972,
            5.451343767260534
        ],
        [
            -15.970617556223255,
            -15.840127930099433,
            9.898328337991073,
            15.138058443941631,
            -12.97390090521365,
            -7.4421655479862565,
            -10.969764921053384,
            -11.63939936933805,
            -7.626240829428259
        ],
        [
            16.0,
            14.288280979232425,
            -8.968394782844596,
            -15.738042008121804,
            -9.993856892836481,
            -11.436082158439318,
            -9.357945251307235,
            -10.351231418678356,
            2.469672690066024
        ],
        [
            -5.950754142230793,
            -13.66368039006587,
            15.590948306137287,
            4.074894010967585,
            -15.141585013475213,
            -5.484160341405677,
            13.190183582630087,
            -8.168065127878055,
            -3.115703228189034
        ]
    ],
    "outputs": [
        0.0,
        0.0,
        0.0,
        0.0,
        0.0,
        0.0,
        0.0,
        0.0,
        0.0
    ],
    "inputs": [
        0.0,
        0.0,
        0.0,
        0.0,
        0.0,
        0.0,
        0.0,
        0.0,
        0.0
    ],
    "weight_range": 16,
    "bias_range": 16,
    "tc_min": 1,
    "tc_max": 1,
    "sensors": null,
    "motors": null,
    "inv_time_constants": [
        1.0,
        1.0,
        1.0,
        1.0,
        1.0,
        1.0,
        1.0,
        1.0,
        1.0
    ]
}