{
    "size": 7,
    "voltages": [
        0.0,
        0.0,
        0.0,
        0.0,
        0.0,
        0.0,
        0.0
    ],
    "time_constants": [
        1.0,
        1.0,
        1.0,
        1.0,
        1.0,
        1.0,
        1.0
    ],
    "biases": [
        13.203528162495521,
        15.184875394113872,
        -2.07436365689264,
        -0.4293289620397961,
        -4.592584182040623,
        -4.859432205970741,
        -1.8981306536383762
    ],
    "inner_weights": [
        [
            -8.547467755816115,
            -12.665623398573995,
            -1.514349723410954,
            3.3894937585773186,
            16.0,
            14.575600625056323,
            13.547382911463561
        ],
        [
            16.0,
            -3.290684662664763,
            -15.515669454884959,
            -16.0,
            8.187983440097742,
            8.306117553261688,
            16.0
        ],
        [
            -4.783674065874066,
            11.377926813925566,
            -9.992276326439127,
            12.078845870066564,
            -15.35222558159088,
            -14.897563301151685,
            -13.328272623509584
        ],
        [
            -10.147777108518424,
            16.0,
            -2.7553195788730305,
            -10.543255583949332,
            -15.127105575590999,
            -15.623389072721302,
            13.74390893071953
        ],
        [
            -15.262485634944536,
            -12.278599211429668,
            15.275238084789704,
            16.0,
            -7.344929323112941,
            12.974650221342966,
            -15.035699791056071
        ],
        [
            -15.253083173169601,
            -14.805248448611382,
            16.0,
            16.0,
            6.100765536767176,
            -12.248757891415424,
            -15.80752712119153
        ],
        [
            7.128595075886788,
            -16.0,
            6.704713028741068,
            -12.77086987563625,
            15.59507096237998,
            13.010026818000023,
            -2.1959667443339446
        ]
    ],
    "outputs": [
        0.0,
        0.0,
        0.0,
        0.0,
        0.0,
        0.0,
        0.0
    ],
    "inputs": [
        0.0,
        0.0,
        0.0,
        0.0,
        0.0,
        0.0,
        0.0
    ],
    "weight_range": 16,
    "bias_range": 16,
    "tc_min": 1,
    "tc_max": 1,
    "sensors": null,
    "motors": null,
    "inv_time_constants": [
        1.0,
        1.0,
        1.0,
        1.0,
        1.0,
        1.0,
        1.0
    ]
}