{
    "size": 10,
    "voltages": [
        0.0,
        0.0,
        0.0,
        0.0,
        0.0,
        0.0,
        0.0,
        0.0,
        0.0,
        0.0
    ],
    "time_constants": [
        1.0,
        1.0,
        1.0,
        1.0,
        1.0,
        1.0,
        1.0,
        1.0,
        1.0,
        1.0
    ],
    "biases": [
        2.1290293756053655,
        10.645526306544228,
        10.264162768737918,
        3.084115173563975,
        -3.643567791057734,
        1.9859684266020532,
        -1.9933492884984525,
        7.94089532979526,
        -2.7132225114385187,
        -9.957122018462266
    ],
    "inner_weights": [
        [
            -2.009561123796676,
            11.037799094354657,
            12.593111295772093,
            7.938696612322088,
            -4.88470310313952,
            -9.751520590314762,
            -14.476915076408003,
            16.0,
            12.055436531048835,
            -8.319147638704598
        ],
        [
            10.479207846199607,
            -13.017453024231438,
            16.0,
            7.764347279084948,
            12.72083817839375,
            -12.378574178633812,
            -15.820018139327315,
            -15.245650472980895,
            13.580430007717364,
            16.0
        ],
        [
            -13.367353333921068,
            -0.42604905202273513,
            -13.882625167184873,
            16.0,
            16.0,
            10.74691838988973,
            2.989983873281607,
            -14.854925431924409,
            14.071193761060284,
            -14.693676002965756
        ],
        [
            -14.574082856307955,
            -10.87775867128541,
            -12.07509657813758,
            -14.400952364324661,
            7.289421319818072,
            12.53496141212062,
            15.47273052771635,
            -9.864147812030616,
            5.445923911715761,
            -12.448038351437493
        ],
        [
            15.607775031381179,
            -7.937983661203376,
            -10.846161119257463,
            -5.4614175882091684,
            -8.400076228487073,
            13.325621772657481,
            16.0,
            -6.751698931472317,
            -15.801088689865884,
            3.5147407923003806
        ],
        [
            2.0983051821157477,
            -11.234684723371041,
            -13.765844787245276,
            -14.118324344804336,
            -2.3687682862717634,
            -12.09105258607851,
            10.275268300816373,
            13.739298994995663,
            -5.902325272129362,
            -8.523421125188694
        ],
        [
            16.0,
            7.682643326646269,
            -16.0,
            -12.89690189935405,
            -15.42458035941719,
            -15.620079130625301,
            -9.450328567879781,
            9.796522950221869,
            -13.483962512374148,
            0.7689907165073406
        ],
        [
            -11.578182277546716,
            13.229188672944302,
            10.067964677431164,
            -0.20054110477488374,
            -8.187675003422813,
            -2.530406064433312,
            -15.881123504697578,
            -1.5777143069951394,
            10.677525748162628,
            4.747887706515386
        ],
        [
            -8.3735941432783,
            -16.0,
            3.416443048346912,
            10.742152829586926,
            14.704766027150564,
            12.836216889267847,
            13.617956396773424,
            -13.281311782666817,
            -13.782728377896396,
            -8.844026316293355
        ],
        [
            12.09676754698329,
            -11.225538147779694,
            9.478161517935606,
            -13.969853338120334,
            -15.476755626358452,
            -9.561306239802864,
            5.3853628785557355,
            -9.383820387287903,
            -6.778544911179035,
            -9.142767996057001
        ]
    ],
    "outputs": [
        0.0,
        0.0,
        0.0,
        0.0,
        0.0,
        0.0,
        0.0,
        0.0,
        0.0,
        0.0
    ],
    "inputs": [
        0.0,
        0.0,
        0.0,
        0.0,
        0.0,
        0.0,
        0.0,
        0.0,
        0.0,
        0.0
    ],
    "weight_range": 16,
    "bias_range": 16,
    "tc_min": 1,
    "tc_max": 1,
    "sensors": null,
    "motors": null,
    "inv_time_constants": [
        1.0,
        1.0,
        1.0,
        1.0,
        1.0,
        1.0,
        1.0,
        1.0,
        1.0,
        1.0
    ]
}