{
    "size": 6,
    "voltages": [
        0.0,
        0.0,
        0.0,
        0.0,
        0.0,
        0.0
    ],
    "time_constants": [
        1.0,
        1.0,
        1.0,
        1.0,
        1.0,
        1.0
    ],
    "biases": [
        1.7665707907290515,
        0.8526217145109354,
        4.400833608004795,
        -1.6036081601370298,
        4.468381969140193,
        -0.9014072147541545
    ],
    "inner_weights": [
        [
            -7.048777536504817,
            -12.44381481022528,
            16.0,
            11.795994953533807,
            -13.048621797822362,
            -16.0
        ],
        [
            1.8573650143124076,
            0.5416853692808754,
            -16.0,
            -15.33053201017683,
            12.722702587423507,
            15.859420710310891
        ],
        [
            -15.768937518229393,
            14.305159085093683,
            -5.70830220221977,
            13.28733194258567,
            -15.916284834062923,
            -3.839565252532429
        ],
        [
            -13.253310143012639,
            16.0,
            -9.567470447832376,
            -6.1282925912728095,
            -13.601969835376737,
            15.093938282949422
        ],
        [
            14.543670136426812,
            -15.343069987566327,
            14.84245867856601,
            14.00733654645287,
            0.9007345969807072,
            -14.319739846584875
        ],
        [
            15.815201006496903,
            -3.674696741562743,
            -8.151295846246805,
            -11.955408649345506,
            15.704377706874237,
            3.8287794354514926
        ]
    ],
    "outputs": [
        0.0,
        0.0,
        0.0,
        0.0,
        0.0,
        0.0
    ],
    "inputs": [
        0.0,
        0.0,
        0.0,
        0.0,
        0.0,
        0.0
    ],
    "weight_range": 16,
    "bias_range": 16,
    "tc_min": 1,
    "tc_max": 1,
    "sensors": null,
    "motors": null,
    "inv_time_constants": [
        1.0,
        1.0,
        1.0,
        1.0,
        1.0,
        1.0
    ]
}