{
    "size": 6,
    "voltages": [
        0.0,
        0.0,
        0.0,
        0.0,
        0.0,
        0.0
    ],
    "time_constants": [
        1.0,
        1.0,
        1.0,
        1.0,
        1.0,
        1.0
    ],
    "biases": [
        5.273418608533092,
        -3.3436885651683808,
        -2.2319645122302516,
        10.572328087469435,
        10.318694321949803,
        4.628064979446542
    ],
    "inner_weights": [
        [
            -7.143918866730079,
            15.298029069451736,
            -12.868929922879762,
            14.337039498169279,
            -11.387076611844332,
            -16.0
        ],
        [
            -15.84325778335427,
            0.1496135554560536,
            16.0,
            2.6664526769646257,
            14.258303265552467,
            -12.972198590657152
        ],
        [
            15.827131362610885,
            -15.656607258573223,
            -2.77742349409336,
            -16.0,
            -12.5373982927944,
            15.500578621835384
        ],
        [
            -12.373702593177974,
            11.282065194256628,
            0.9527748127397482,
            -12.52400302342998,
            16.0,
            -15.37617301034093
        ],
        [
            -7.785870718675421,
            -14.437857335871897,
            16.0,
            -16.0,
            -9.778416209161207,
            14.645685539604084
        ],
        [
            16.0,
            13.986521003316351,
            -12.462753027095738,
            7.361401108534853,
            -13.366694197642452,
            0.062685648225836
        ]
    ],
    "outputs": [
        0.0,
        0.0,
        0.0,
        0.0,
        0.0,
        0.0
    ],
    "inputs": [
        0.0,
        0.0,
        0.0,
        0.0,
        0.0,
        0.0
    ],
    "weight_range": 16,
    "bias_range": 16,
    "tc_min": 1,
    "tc_max": 1,
    "sensors": null,
    "motors": null,
    "inv_time_constants": [
        1.0,
        1.0,
        1.0,
        1.0,
        1.0,
        1.0
    ]
}