{
    "size": 10,
    "voltages": [
        0.0,
        0.0,
        0.0,
        0.0,
        0.0,
        0.0,
        0.0,
        0.0,
        0.0,
        0.0
    ],
    "time_constants": [
        1.0,
        1.0,
        1.0,
        1.0,
        1.0,
        1.0,
        1.0,
        1.0,
        1.0,
        1.0
    ],
    "biases": [
        4.9199906237588,
        2.732614078087419,
        -0.8007996862709514,
        7.364967597731269,
        -15.642319815688916,
        -8.726283299518837,
        -1.2035450658180225,
        -8.504749164886487,
        3.4456798026300284,
        -0.8986242459428687
    ],
    "inner_weights": [
        [
            -8.776864380625852,
            -11.32724569674488,
            11.043266424472561,
            -14.381014955572917,
            12.130205489724919,
            -13.180512141296447,
            -15.325976688299864,
            4.538855764267376,
            11.313238789078312,
            -6.501400150836753
        ],
        [
            10.420624343797058,
            -6.305445941567739,
            13.812745780408818,
            -2.636099717340352,
            13.675262702438397,
            14.756967582398724,
            -0.4985261448024101,
            10.66488025728498,
            -14.181051162225339,
            -3.2526106961421464
        ],
        [
            -9.14307491821027,
            -2.49237010419935,
            -0.7885988000274334,
            -15.780718537211337,
            5.3388417279318885,
            14.156125755451146,
            16.0,
            4.381169191990167,
            -8.150754750427112,
            2.424170206401631
        ],
        [
            -12.639135982773922,
            -8.029645724249008,
            9.585439642850819,
            -0.4997551768581447,
            10.24582166302936,
            0.10943121805594958,
            11.09403055571996,
            0.8689536571831719,
            10.533859016414873,
            -10.969930928816748
        ],
        [
            -6.394374341479333,
            -13.952962042156685,
            8.048758186141043,
            -9.613791284302271,
            -13.412290368220779,
            14.468276996017106,
            -13.386792178492508,
            15.713367224021082,
            14.168036822870167,
            -16.0
        ],
        [
            14.66175720304294,
            -8.644377681739915,
            16.0,
            -1.0656839510113147,
            12.281344022124053,
            -10.60402991756369,
            -11.230705232056996,
            14.096497729439797,
            16.0,
            14.947184205901795
        ],
        [
            12.203532613949829,
            15.443668868365961,
            -2.5556548233685152,
            1.8745983897884997,
            14.48781230151326,
            14.830870324875406,
            2.8284720858651005,
            -2.807904674592067,
            -16.0,
            14.362909396570677
        ],
        [
            -10.594187948755854,
            -16.0,
            12.973850170591374,
            -13.578236221421491,
            -6.0285940233594895,
            -15.276453931090003,
            -14.079443919016821,
            -10.139006863803852,
            15.33121209054633,
            -4.199938982197473
        ],
        [
            -15.275063178678728,
            14.312048448373295,
            -2.2834977519230257,
            -7.85532861771552,
            -15.970798929989147,
            -14.838407946078332,
            11.232706101832225,
            -15.51966864989862,
            -4.447369227414594,
            -1.0878217647049846
        ],
        [
            12.715605964154065,
            11.292716958159382,
            -6.450707966927298,
            -12.983333490401009,
            8.413732806165573,
            -12.504333775959054,
            -8.269189597529316,
            1.553532661631993,
            11.623878876591537,
            -9.082570938635088
        ]
    ],
    "outputs": [
        0.0,
        0.0,
        0.0,
        0.0,
        0.0,
        0.0,
        0.0,
        0.0,
        0.0,
        0.0
    ],
    "inputs": [
        0.0,
        0.0,
        0.0,
        0.0,
        0.0,
        0.0,
        0.0,
        0.0,
        0.0,
        0.0
    ],
    "weight_range": 16,
    "bias_range": 16,
    "tc_min": 1,
    "tc_max": 1,
    "sensors": null,
    "motors": null,
    "inv_time_constants": [
        1.0,
        1.0,
        1.0,
        1.0,
        1.0,
        1.0,
        1.0,
        1.0,
        1.0,
        1.0
    ]
}