{
    "size": 8,
    "voltages": [
        0.0,
        0.0,
        0.0,
        0.0,
        0.0,
        0.0,
        0.0,
        0.0
    ],
    "time_constants": [
        1.0,
        1.0,
        1.0,
        1.0,
        1.0,
        1.0,
        1.0,
        1.0
    ],
    "biases": [
        -0.9402745146942602,
        6.808612714957339,
        -3.3114832607577953,
        3.99717344982629,
        12.839871492424466,
        4.963647878015991,
        -2.8552430812520058,
        -5.121685943331036
    ],
    "inner_weights": [
        [
            -10.128741375092854,
            -13.906689110249166,
            -10.937777974617632,
            -14.085206251358159,
            -6.852156683986877,
            -16.0,
            16.0,
            14.567773099825287
        ],
        [
            12.924909790671444,
            -1.616525878796745,
            11.71126330498323,
            14.687723948497485,
            -10.966052044584828,
            14.161469990350161,
            -15.704279727514182,
            -13.10672870561613
        ],
        [
            3.528010352666901,
            -16.0,
            -11.883612368990763,
            15.297800490889177,
            -9.390077047288983,
            -13.567007258515119,
            12.607589389084145,
            13.226983003924204
        ],
        [
            16.0,
            -10.04766334967632,
            -3.83025835557512,
            -14.418838478082764,
            -15.130537146972292,
            13.272956025719173,
            7.813921621893273,
            16.0
        ],
        [
            -2.903255321298907,
            14.383111100210996,
            12.923082567980545,
            15.767138433409706,
            10.411741418440082,
            15.604633901198786,
            -16.0,
            -5.1995275175000755
        ],
        [
            15.094517615577326,
            -9.721378305500387,
            14.308735046358485,
            -2.403502613259778,
            -15.480405651017254,
            -5.817891644682184,
            1.7251711981160733,
            9.88116428802076
        ],
        [
            -16.0,
            13.435570122629736,
            -12.202575024747317,
            -12.245661782653382,
            15.436137231350896,
            -10.328986175266838,
            -3.629885951022306,
            -11.950152827390326
        ],
        [
            -16.0,
            0.07594312958691085,
            -4.3774103910514714,
            -10.778797958395836,
            2.0414486298498296,
            -12.502270978710245,
            15.41351011836564,
            -6.60099263342942
        ]
    ],
    "outputs": [
        0.0,
        0.0,
        0.0,
        0.0,
        0.0,
        0.0,
        0.0,
        0.0
    ],
    "inputs": [
        0.0,
        0.0,
        0.0,
        0.0,
        0.0,
        0.0,
        0.0,
        0.0
    ],
    "weight_range": 16,
    "bias_range": 16,
    "tc_min": 1,
    "tc_max": 1,
    "sensors": null,
    "motors": null,
    "inv_time_constants": [
        1.0,
        1.0,
        1.0,
        1.0,
        1.0,
        1.0,
        1.0,
        1.0
    ]
}