{
    "size": 6,
    "voltages": [
        0.0,
        0.0,
        0.0,
        0.0,
        0.0,
        0.0
    ],
    "time_constants": [
        1.0,
        1.0,
        1.0,
        1.0,
        1.0,
        1.0
    ],
    "biases": [
        11.271700041183092,
        2.930699274796861,
        8.795340615009549,
        2.4943261636891787,
        5.3379601728005825,
        -8.353886636685846
    ],
    "inner_weights": [
        [
            -11.66313525465343,
            15.744857494774218,
            -15.217834162504325,
            2.7172804395243864,
            -13.576654481436123,
            14.549375185932995
        ],
        [
            -12.137161979635819,
            1.9583639116621483,
            -15.189274710360001,
            13.519928170823839,
            0.3489677617370798,
            14.618864786272061
        ],
        [
            13.27165115071052,
            14.719994379330222,
            -0.48470482216723365,
            -16.0,
            -15.964126692963575,
            15.751682804638078
        ],
        [
            -16.0,
            -15.121031308163762,
            9.327724893293842,
            -0.13109757191083526,
            15.171004614509872,
            -15.281920512233043
        ],
        [
            14.73992929002667,
            -10.840294739911485,
            16.0,
            -13.31480031359276,
            -6.06425363677932,
            -14.167241507980357
        ],
        [
            -15.862132717343641,
            -14.170554545792225,
            -16.0,
            15.437426175809886,
            11.186952619358014,
            3.715366016904914
        ]
    ],
    "outputs": [
        0.0,
        0.0,
        0.0,
        0.0,
        0.0,
        0.0
    ],
    "inputs": [
        0.0,
        0.0,
        0.0,
        0.0,
        0.0,
        0.0
    ],
    "weight_range": 16,
    "bias_range": 16,
    "tc_min": 1,
    "tc_max": 1,
    "sensors": null,
    "motors": null,
    "inv_time_constants": [
        1.0,
        1.0,
        1.0,
        1.0,
        1.0,
        1.0
    ]
}