{
    "size": 6,
    "voltages": [
        0.0,
        0.0,
        0.0,
        0.0,
        0.0,
        0.0
    ],
    "time_constants": [
        1.0,
        1.0,
        1.0,
        1.0,
        1.0,
        1.0
    ],
    "biases": [
        5.259700693844925,
        4.211424131823621,
        3.7699508482578805,
        -6.8382730758092,
        1.2186096587469164,
        -4.1061168016395
    ],
    "inner_weights": [
        [
            1.161045922691411,
            15.85806373848302,
            15.775164973735126,
            -0.916795318859565,
            -16.0,
            16.0
        ],
        [
            -15.81956530381138,
            -9.366744147767696,
            -12.212161869074219,
            14.467312988935399,
            16.0,
            12.833541085417599
        ],
        [
            0.9914262658763865,
            15.846441076542497,
            -3.023416158575738,
            14.17737924431953,
            -16.0,
            14.65920181728091
        ],
        [
            -4.491678033460887,
            -16.0,
            -14.053118577889363,
            -6.21445523909584,
            14.33268116923778,
            -13.194349084012508
        ],
        [
            14.13548877034811,
            -13.333754276219366,
            12.369412294310589,
            -15.862648674465989,
            -2.1165303304352934,
            -15.320716822912404
        ],
        [
            -13.20068460960779,
            -0.4580277897442834,
            -14.998996744494075,
            15.074003213350847,
            3.236043821337287,
            -3.3840083590373666
        ]
    ],
    "outputs": [
        0.0,
        0.0,
        0.0,
        0.0,
        0.0,
        0.0
    ],
    "inputs": [
        0.0,
        0.0,
        0.0,
        0.0,
        0.0,
        0.0
    ],
    "weight_range": 16,
    "bias_range": 16,
    "tc_min": 1,
    "tc_max": 1,
    "sensors": null,
    "motors": null,
    "inv_time_constants": [
        1.0,
        1.0,
        1.0,
        1.0,
        1.0,
        1.0
    ]
}