{
    "size": 6,
    "voltages": [
        0.0,
        0.0,
        0.0,
        0.0,
        0.0,
        0.0
    ],
    "time_constants": [
        1.0,
        1.0,
        1.0,
        1.0,
        1.0,
        1.0
    ],
    "biases": [
        8.65300433348565,
        6.2002900830379595,
        -5.148658070031378,
        14.240063082494347,
        -14.374723852599839,
        -0.16194676236269423
    ],
    "inner_weights": [
        [
            -10.72538795239637,
            12.555340585668489,
            -15.495784927467112,
            14.555106504692148,
            -16.0,
            -4.9703017102472336
        ],
        [
            -15.514813115557047,
            -3.508431677481907,
            15.225474887089677,
            -7.156934155648671,
            15.120445387137739,
            16.0
        ],
        [
            13.44059566706589,
            -13.811873415454617,
            -2.4484501995717647,
            -14.941317028514609,
            16.0,
            -2.7030340144104805
        ],
        [
            -10.173881661542714,
            15.122452956220993,
            13.846152456286076,
            -0.9623656150800386,
            -4.592403720216799,
            16.0
        ],
        [
            16.0,
            -12.505267812921604,
            -13.861081416186323,
            -5.647585042166677,
            3.972926565779353,
            -16.0
        ],
        [
            -10.221624197707786,
            -10.573269883943492,
            11.021173220460847,
            -16.0,
            13.803866764971694,
            -13.584830056037791
        ]
    ],
    "outputs": [
        0.0,
        0.0,
        0.0,
        0.0,
        0.0,
        0.0
    ],
    "inputs": [
        0.0,
        0.0,
        0.0,
        0.0,
        0.0,
        0.0
    ],
    "weight_range": 16,
    "bias_range": 16,
    "tc_min": 1,
    "tc_max": 1,
    "sensors": null,
    "motors": null,
    "inv_time_constants": [
        1.0,
        1.0,
        1.0,
        1.0,
        1.0,
        1.0
    ]
}