{
    "size": 9,
    "voltages": [
        0.0,
        0.0,
        0.0,
        0.0,
        0.0,
        0.0,
        0.0,
        0.0,
        0.0
    ],
    "time_constants": [
        1.0,
        1.0,
        1.0,
        1.0,
        1.0,
        1.0,
        1.0,
        1.0,
        1.0
    ],
    "biases": [
        -11.422668033797645,
        0.32440788656576997,
        2.9234584766216423,
        0.4683300932184393,
        1.8239414685466366,
        0.29252581980114206,
        1.3506982576278295,
        4.796934164046854,
        12.330760121793219
    ],
    "inner_weights": [
        [
            -15.069848898719487,
            13.224429159611399,
            14.969683195590202,
            4.187544930003528,
            -14.486127399843411,
            -10.00634857391035,
            -14.495912852922665,
            -14.114577248927235,
            5.876316267488108
        ],
        [
            14.015775327780938,
            -11.306939875056617,
            11.773122340982297,
            3.9882965537307054,
            7.570722838218262,
            -8.602897917197362,
            14.105318723843812,
            -12.082275445480379,
            0.8071056557688572
        ],
        [
            -14.684532546449265,
            -16.0,
            -10.425258251850314,
            0.2131846115491275,
            12.41797332646284,
            -12.455059849135518,
            -3.3613882962154253,
            14.878605610214173,
            15.929905923824109
        ],
        [
            -2.9760088648189256,
            12.221216592816832,
            9.368240847030933,
            -8.48597023372523,
            11.198063027818222,
            -9.255113075353918,
            -14.14498709657383,
            2.717897375081,
            14.769995549580191
        ],
        [
            12.66046276107876,
            -3.0339760645243246,
            -15.543590086212703,
            -15.607953731730197,
            -2.449297434922506,
            16.0,
            13.406014557218954,
            13.541253767622882,
            -15.86709218319341
        ],
        [
            16.0,
            12.144604797187347,
            12.004863303332922,
            16.0,
            -16.0,
            -5.836230943474535,
            -16.0,
            -15.548865260730217,
            -7.652228945259942
        ],
        [
            14.470731667891165,
            -9.629563222735195,
            -10.442420932268739,
            8.171714131476136,
            -15.266610980645648,
            13.956987296834034,
            -10.827735236820322,
            -6.32567329072049,
            -12.562301924178747
        ],
        [
            16.0,
            16.0,
            -11.014354055390735,
            -9.17337457280723,
            0.6481432532089284,
            15.152285157715976,
            15.237559058533286,
            -9.2281341239321,
            -16.0
        ],
        [
            -14.491748077975933,
            -14.140901513211414,
            1.2750456766217366,
            1.4940295269631243,
            11.940327554513884,
            -4.701266642349088,
            14.993174949664352,
            14.972532078877224,
            -12.80771205050478
        ]
    ],
    "outputs": [
        0.0,
        0.0,
        0.0,
        0.0,
        0.0,
        0.0,
        0.0,
        0.0,
        0.0
    ],
    "inputs": [
        0.0,
        0.0,
        0.0,
        0.0,
        0.0,
        0.0,
        0.0,
        0.0,
        0.0
    ],
    "weight_range": 16,
    "bias_range": 16,
    "tc_min": 1,
    "tc_max": 1,
    "sensors": null,
    "motors": null,
    "inv_time_constants": [
        1.0,
        1.0,
        1.0,
        1.0,
        1.0,
        1.0,
        1.0,
        1.0,
        1.0
    ]
}