{
    "size": 10,
    "voltages": [
        0.0,
        0.0,
        0.0,
        0.0,
        0.0,
        0.0,
        0.0,
        0.0,
        0.0,
        0.0
    ],
    "time_constants": [
        1.0,
        1.0,
        1.0,
        1.0,
        1.0,
        1.0,
        1.0,
        1.0,
        1.0,
        1.0
    ],
    "biases": [
        13.17090100495079,
        12.612549045315294,
        5.630454986162587,
        -4.664525033661307,
        -5.278648127306324,
        -14.256636102697021,
        -4.533863167374419,
        5.020755142513123,
        -8.695962958026522,
        -11.51543625241602
    ],
    "inner_weights": [
        [
            -15.370727785205375,
            -0.8501408470385401,
            11.63834170730001,
            9.356327064255154,
            -14.239498177652566,
            8.882690976937969,
            -12.397238801291785,
            5.269378451758279,
            -11.199210066298843,
            13.13502524620232
        ],
        [
            -0.25101342757212486,
            3.7342723222584437,
            -1.214438579492739,
            -13.084196211470767,
            8.714486958910754,
            8.226000961668904,
            12.958924070110713,
            -3.5745955822582554,
            3.343665622680532,
            13.334184149261379
        ],
        [
            -2.2325925853878945,
            9.966744559156487,
            -6.560510049548288,
            -2.570848931891268,
            14.302375652194268,
            8.947958004438767,
            16.0,
            -11.930976164610618,
            -4.517112834207594,
            10.557771990815619
        ],
        [
            6.138201231825496,
            15.689841944349812,
            -3.7448248723179227,
            6.913988506364317,
            -14.711408771563153,
            -5.385519786564618,
            3.83457320119328,
            15.502735918749467,
            14.549223089744762,
            -4.162093741211807
        ],
        [
            10.345984934922633,
            -12.768573242579553,
            -9.548054920153778,
            16.0,
            3.0266635917929117,
            -8.581887850881529,
            -12.880565060383935,
            7.540621328339416,
            2.029560899947405,
            -13.868701289081963
        ],
        [
            -13.8314016884984,
            -16.0,
            1.1366206016297027,
            -0.8337538497998055,
            4.885575253258851,
            -9.854320265549404,
            -14.648647555894366,
            -14.131888268994222,
            -8.656150911292873,
            -8.23722443806534
        ],
        [
            -3.3032861574202363,
            -6.664729813054564,
            -12.268989830668572,
            -7.156309624465582,
            3.8863113501728104,
            2.6400419669488824,
            -0.27923429811541056,
            -6.70517283084107,
            3.3559688596054134,
            -2.8999848499484147
        ],
        [
            0.8980262824110616,
            -11.617090699165752,
            15.685891806175725,
            -14.600768455489876,
            -9.486798906718505,
            12.578983265872324,
            9.899603979841544,
            2.0831207948571464,
            5.40471927674656,
            8.933970072423925
        ],
        [
            -6.535412791736561,
            14.582559995245875,
            7.792455603795983,
            -5.185021637983175,
            3.648998374470075,
            -14.609105824017965,
            -8.517593694608586,
            -14.445550370305623,
            3.8247236786128744,
            1.3192517520808507
        ],
        [
            -15.064880380719494,
            -16.0,
            -7.311363592902385,
            14.979406378391833,
            15.246131087257101,
            14.739397078091836,
            4.470052979752974,
            -7.507002195141724,
            -11.023708334894469,
            6.873041516074512
        ]
    ],
    "outputs": [
        0.0,
        0.0,
        0.0,
        0.0,
        0.0,
        0.0,
        0.0,
        0.0,
        0.0,
        0.0
    ],
    "inputs": [
        0.0,
        0.0,
        0.0,
        0.0,
        0.0,
        0.0,
        0.0,
        0.0,
        0.0,
        0.0
    ],
    "weight_range": 16,
    "bias_range": 16,
    "tc_min": 1,
    "tc_max": 1,
    "sensors": null,
    "motors": null,
    "inv_time_constants": [
        1.0,
        1.0,
        1.0,
        1.0,
        1.0,
        1.0,
        1.0,
        1.0,
        1.0,
        1.0
    ]
}