{
    "size": 10,
    "voltages": [
        0.0,
        0.0,
        0.0,
        0.0,
        0.0,
        0.0,
        0.0,
        0.0,
        0.0,
        0.0
    ],
    "time_constants": [
        1.0,
        1.0,
        1.0,
        1.0,
        1.0,
        1.0,
        1.0,
        1.0,
        1.0,
        1.0
    ],
    "biases": [
        -4.793306559931866,
        -5.37714967766279,
        1.1400074661720228,
        7.77726748591244,
        9.261204818334537,
        8.953455543038546,
        0.8702025748502047,
        -1.4275393872822182,
        -6.022584127502037,
        7.37426015592083
    ],
    "inner_weights": [
        [
            -10.627220318780711,
            12.893355832427838,
            -4.571195179093005,
            9.45017555212258,
            -16.0,
            -15.581854042918154,
            13.17240271728672,
            7.844449901047103,
            14.727935145417126,
            -4.598623823024449
        ],
        [
            -15.195826004679304,
            -16.0,
            0.3230878718090054,
            -15.692796857290611,
            15.988518696643903,
            16.0,
            -14.143794367490356,
            6.48828341725841,
            -8.274096124184442,
            -15.403182822583698
        ],
        [
            9.877429703762685,
            8.292935252831652,
            -9.646983140644904,
            14.011231501562056,
            -13.577209200782606,
            4.030092751491749,
            10.309787778239802,
            1.0971229304835635,
            11.73825120984475,
            -7.492412284400147
        ],
        [
            3.971092579591356,
            16.0,
            -12.907759401854552,
            -13.607454147371621,
            1.5061025408746138,
            -15.73781681017852,
            15.020637937259856,
            14.902611116430267,
            14.293291401026705,
            -3.98096214608194
        ],
        [
            13.943186407861308,
            -12.531424977955407,
            12.289209174840181,
            -14.689147164374857,
            -6.351121938738552,
            14.77505470027132,
            -15.616411334392655,
            14.81580854076465,
            -8.7478390670758,
            -10.995297269262126
        ],
        [
            15.046169371570029,
            -15.74932632064454,
            13.284487881536954,
            12.95406414505345,
            -13.88531594314603,
            3.5096788100043312,
            15.49235883540674,
            5.3060423521033515,
            12.06257784064554,
            -5.0272662861451485
        ],
        [
            -14.296530858776752,
            8.187494983791519,
            -9.507982450689543,
            -2.992941083276611,
            8.314468052616236,
            -14.183088412305384,
            -6.70607442940533,
            6.5962024152211285,
            1.2109539990898317,
            -12.408673659876616
        ],
        [
            10.417505213889353,
            -1.047202284411041,
            9.375334701994067,
            0.39778985524576393,
            7.066113377202661,
            -1.7376290939259007,
            -14.716847494664446,
            -1.379847985400931,
            -8.45645962811098,
            -12.25987798967396
        ],
        [
            -14.350958148240345,
            16.0,
            -14.46637309929724,
            -7.966937580150283,
            -13.1503917820237,
            -8.918245689456587,
            10.536050117059792,
            6.4339417745621965,
            -8.48120480360825,
            10.447620706110929
        ],
        [
            4.932290296852611,
            -11.60603507785108,
            -1.260322664153744,
            -0.4613480819582876,
            -6.3971507277923765,
            8.103253596790848,
            -14.533068323776615,
            3.146619149802409,
            -11.768736172951414,
            0.9906941575434384
        ]
    ],
    "outputs": [
        0.0,
        0.0,
        0.0,
        0.0,
        0.0,
        0.0,
        0.0,
        0.0,
        0.0,
        0.0
    ],
    "inputs": [
        0.0,
        0.0,
        0.0,
        0.0,
        0.0,
        0.0,
        0.0,
        0.0,
        0.0,
        0.0
    ],
    "weight_range": 16,
    "bias_range": 16,
    "tc_min": 1,
    "tc_max": 1,
    "sensors": null,
    "motors": null,
    "inv_time_constants": [
        1.0,
        1.0,
        1.0,
        1.0,
        1.0,
        1.0,
        1.0,
        1.0,
        1.0,
        1.0
    ]
}