{
    "size": 5,
    "voltages": [
        0.0,
        0.0,
        0.0,
        0.0,
        0.0
    ],
    "time_constants": [
        1.0,
        1.0,
        1.0,
        1.0,
        1.0
    ],
    "biases": [
        4.962123147951122,
        2.841213305988191,
        2.3994747888322934,
        -5.290069834057782,
        -3.821681961697884
    ],
    "inner_weights": [
        [
            -15.440311330203116,
            12.53034454976827,
            -6.884442640834614,
            -6.432755921313348,
            9.34509634097374
        ],
        [
            -5.616940880696678,
            11.670732374088267,
            -1.6795957691560268,
            1.5433570032030133,
            -4.5704961654403355
        ],
        [
            -12.406015187433287,
            -11.459291044854492,
            -1.7613095452100822,
            7.4233672059811795,
            -1.276760697719311
        ],
        [
            2.9678210872119166,
            -5.225156562269401,
            -1.4583097334947261,
            -10.011911269423209,
            -2.9172731751452616
        ],
        [
            -11.772734721730686,
            -14.812469920485164,
            -13.376389415964447,
            -9.169921565429078,
            1.4473364388719254
        ]
    ],
    "outputs": [
        0.0,
        0.0,
        0.0,
        0.0,
        0.0
    ],
    "weight_range": 16,
    "bias_range": 16,
    "tc_min": 1,
    "tc_max": 1,
    "inv_time_constants": [
        1.0,
        1.0,
        1.0,
        1.0,
        1.0
    ]
}