{
    "size": 5,
    "voltages": [
        0.0,
        0.0,
        0.0,
        0.0,
        0.0
    ],
    "time_constants": [
        1.0,
        1.0,
        1.0,
        1.0,
        1.0
    ],
    "biases": [
        13.901359390437488,
        9.857269604775645,
        -5.2694524902187325,
        -0.27688005541194016,
        -8.872508546068396
    ],
    "inner_weights": [
        [
            13.56912369838161,
            -10.948141422886657,
            11.741282458105513,
            -13.306977892433338,
            2.3543578860040846
        ],
        [
            -6.977927460386791,
            -7.799022150079825,
            2.047373182666032,
            -8.965652741802366,
            4.755865586643246
        ],
        [
            4.088071757109848,
            -2.848818868438329,
            -3.118612548308956,
            -1.594813695877047,
            -8.514482225382007
        ],
        [
            -11.701385711220958,
            -12.6491914452623,
            -0.8643126659209024,
            -12.356878853167924,
            -6.846496425678737
        ],
        [
            10.822774037106146,
            -5.9496504627215465,
            -13.555959086658468,
            8.621664294164226,
            -7.744960476626151
        ]
    ],
    "outputs": [
        0.0,
        0.0,
        0.0,
        0.0,
        0.0
    ],
    "weight_range": 16,
    "bias_range": 16,
    "tc_min": 1,
    "tc_max": 1,
    "inv_time_constants": [
        1.0,
        1.0,
        1.0,
        1.0,
        1.0
    ]
}