{
    "size": 6,
    "voltages": [
        0.0,
        0.0,
        0.0,
        0.0,
        0.0,
        0.0
    ],
    "time_constants": [
        1.0,
        1.0,
        1.0,
        1.0,
        1.0,
        1.0
    ],
    "biases": [
        13.969428987307648,
        -4.384513276429384,
        10.275864643300668,
        -11.93899628151335,
        -2.6740025351127557,
        11.71948227601926
    ],
    "inner_weights": [
        [
            10.782211976464758,
            15.047547262090553,
            -1.6910788716316354,
            -6.893407711083789,
            8.678930816312132,
            -6.4338037684551175
        ],
        [
            15.242722396649103,
            13.732863203127557,
            -9.450429896354418,
            -4.955407448908176,
            -9.203198404094998,
            -6.436476578624951
        ],
        [
            -5.003186111119938,
            13.11879100162113,
            -11.659462544356927,
            -9.765982150533588,
            -10.854114762630527,
            -12.410994157153912
        ],
        [
            -2.7151576918391207,
            -6.355447251225176,
            -11.628484310972155,
            8.49264390057846,
            3.2812309516528018,
            3.739480787712125
        ],
        [
            5.337017478203816,
            7.707307582804333,
            -3.0175169769275705,
            -10.408457242000576,
            -10.480330126914694,
            -5.451913079312792
        ],
        [
            4.396862064817412,
            14.110275350214113,
            -7.419018323566235,
            -13.278328552389823,
            15.88334613941154,
            -15.778681425652849
        ]
    ],
    "outputs": [
        0.0,
        0.0,
        0.0,
        0.0,
        0.0,
        0.0
    ],
    "weight_range": 16,
    "bias_range": 16,
    "tc_min": 1,
    "tc_max": 1,
    "inv_time_constants": [
        1.0,
        1.0,
        1.0,
        1.0,
        1.0,
        1.0
    ]
}