{
    "size": 6,
    "voltages": [
        0.0,
        0.0,
        0.0,
        0.0,
        0.0,
        0.0
    ],
    "time_constants": [
        1.0,
        1.0,
        1.0,
        1.0,
        1.0,
        1.0
    ],
    "biases": [
        15.31719909663164,
        3.813272486553725,
        11.837460970423397,
        -8.035939197429133,
        4.577086681214173,
        -6.385578912937547
    ],
    "inner_weights": [
        [
            -1.3422416568291027,
            -6.132812577122827,
            -8.592414558862007,
            -7.122414343803971,
            10.151513980885436,
            -12.436907645040058
        ],
        [
            4.045991326536079,
            -7.142787627631542,
            5.82958957403185,
            5.727065085143774,
            9.49495739480777,
            -14.534330799272542
        ],
        [
            13.20314478113179,
            -9.157888437213867,
            -6.2836063592794815,
            15.650035950410839,
            -10.051791906523874,
            15.639194733157165
        ],
        [
            8.002695403902887,
            -8.883646556341056,
            -11.267074933448594,
            0.5052888035667245,
            -3.383733805648987,
            -13.763835988089305
        ],
        [
            -5.176775353792948,
            -15.646808918715486,
            8.560891457952586,
            11.991108174597063,
            1.0750182628982614,
            -13.298792015085162
        ],
        [
            10.378598263135064,
            0.14659824033139301,
            12.211796060597255,
            -10.430518885994733,
            -3.105347636955017,
            10.62804941076654
        ]
    ],
    "outputs": [
        0.0,
        0.0,
        0.0,
        0.0,
        0.0,
        0.0
    ],
    "weight_range": 16,
    "bias_range": 16,
    "tc_min": 1,
    "tc_max": 1,
    "inv_time_constants": [
        1.0,
        1.0,
        1.0,
        1.0,
        1.0,
        1.0
    ]
}