{
    "size": 6,
    "voltages": [
        0.0,
        0.0,
        0.0,
        0.0,
        0.0,
        0.0
    ],
    "time_constants": [
        1.0,
        1.0,
        1.0,
        1.0,
        1.0,
        1.0
    ],
    "biases": [
        -10.131344785116138,
        7.2959148240929075,
        7.463682075971612,
        -14.523520686114363,
        15.026764600734069,
        -4.142606617580469
    ],
    "inner_weights": [
        [
            1.467245757919315,
            11.483411538923487,
            5.948562770130533,
            -5.389061727570105,
            -14.080066254060227,
            -3.639111006633314
        ],
        [
            -9.179204522100619,
            13.840212802603524,
            7.130185563387588,
            -14.499350186611853,
            10.28194718030393,
            2.939823977307576
        ],
        [
            -7.933711731544335,
            -5.917545907526062,
            -9.989183287707277,
            -4.789762974494106,
            -7.768230019384603,
            -15.644348309655939
        ],
        [
            -2.89316768420969,
            -2.807857551169036,
            -14.617959331314175,
            14.560281389719115,
            -3.2743268872481437,
            0.9490684686005224
        ],
        [
            -8.549986794831476,
            -6.1246415196124815,
            1.663290855256136,
            6.671220128279796,
            14.509585702322454,
            3.2615938320620863
        ],
        [
            -3.1279497617145537,
            -4.642233614740636,
            10.053231689787118,
            -6.475460506221701,
            1.42765839863009,
            14.818630913004014
        ]
    ],
    "outputs": [
        0.0,
        0.0,
        0.0,
        0.0,
        0.0,
        0.0
    ],
    "weight_range": 16,
    "bias_range": 16,
    "tc_min": 1,
    "tc_max": 1,
    "inv_time_constants": [
        1.0,
        1.0,
        1.0,
        1.0,
        1.0,
        1.0
    ]
}