{
    "size": 6,
    "voltages": [
        0.0,
        0.0,
        0.0,
        0.0,
        0.0,
        0.0
    ],
    "time_constants": [
        1.0,
        1.0,
        1.0,
        1.0,
        1.0,
        1.0
    ],
    "biases": [
        11.177366828518942,
        -7.439302253373686,
        3.674390756749908,
        4.888194342207651,
        -3.621874107702862,
        -2.8686662856698
    ],
    "inner_weights": [
        [
            -14.440803814107927,
            -6.748490886725861,
            7.070923098599355,
            -15.308280002689607,
            -9.410471511441951,
            -14.375255785747942
        ],
        [
            -6.327299393132261,
            5.245129427990399,
            -6.140339416419877,
            2.6749208389951598,
            -13.773729452396783,
            11.756943487778827
        ],
        [
            -11.736303383944072,
            -10.300010830096053,
            -0.13025440556301504,
            11.638388625863154,
            8.286202736387658,
            15.055524011173045
        ],
        [
            8.29768168913769,
            -3.7039989731158585,
            -2.9210134578005587,
            6.827533692303319,
            -7.33856727445972,
            11.33129190372301
        ],
        [
            13.221247027577778,
            8.344194229267398,
            0.5333932082581185,
            -10.629255512911765,
            -6.441846668516298,
            -6.913822559019717
        ],
        [
            -5.5291975482326094,
            -1.275509318624767,
            1.4197875026444038,
            -9.043172167688898,
            9.595786462047247,
            7.253902377489133
        ]
    ],
    "outputs": [
        0.0,
        0.0,
        0.0,
        0.0,
        0.0,
        0.0
    ],
    "weight_range": 16,
    "bias_range": 16,
    "tc_min": 1,
    "tc_max": 1,
    "inv_time_constants": [
        1.0,
        1.0,
        1.0,
        1.0,
        1.0,
        1.0
    ]
}