{
    "size": 6,
    "voltages": [
        0.0,
        0.0,
        0.0,
        0.0,
        0.0,
        0.0
    ],
    "time_constants": [
        1.0,
        1.0,
        1.0,
        1.0,
        1.0,
        1.0
    ],
    "biases": [
        -15.629262563851675,
        -1.7000740192706907,
        4.861993972717514,
        6.762124167586773,
        -7.839729666908013,
        8.445393082295848
    ],
    "inner_weights": [
        [
            -6.3720534385082,
            -10.017733877059904,
            -5.658154337016978,
            5.30398624922589,
            2.143065631014828,
            -3.25587331523953
        ],
        [
            -3.8587227032129086,
            -15.661390851883425,
            -10.548300768201212,
            -12.051412138236671,
            6.156840844930752,
            11.982129938326121
        ],
        [
            -5.203299051564052,
            15.758695221746162,
            -11.79071773492102,
            0.01055476983334458,
            -6.828143790024733,
            -8.941284646254328
        ],
        [
            0.06673749241469906,
            4.354001271333644,
            4.3416620498899405,
            -13.426141163429133,
            2.6058800555664448,
            10.854107501412951
        ],
        [
            -6.623415933195712,
            15.613752353222196,
            1.5101132959143229,
            14.700348552550665,
            -4.59881344685741,
            0.5512893302813531
        ],
        [
            15.616428662627076,
            -9.463934953294327,
            15.233691794472747,
            -14.722263454853813,
            -15.381546285321232,
            -9.79144987663426
        ]
    ],
    "outputs": [
        0.0,
        0.0,
        0.0,
        0.0,
        0.0,
        0.0
    ],
    "weight_range": 16,
    "bias_range": 16,
    "tc_min": 1,
    "tc_max": 1,
    "inv_time_constants": [
        1.0,
        1.0,
        1.0,
        1.0,
        1.0,
        1.0
    ]
}