{
    "size": 6,
    "voltages": [
        0.0,
        0.0,
        0.0,
        0.0,
        0.0,
        0.0
    ],
    "time_constants": [
        1.0,
        1.0,
        1.0,
        1.0,
        1.0,
        1.0
    ],
    "biases": [
        -5.293783833625781,
        -1.668615069781307,
        -2.368869634582687,
        1.566902234218027,
        8.630124743725595,
        13.510376635803553
    ],
    "inner_weights": [
        [
            10.383023229225017,
            -10.196808560089607,
            12.074456582625682,
            -0.014358164907545046,
            14.87764586312571,
            -15.886542502088613
        ],
        [
            13.556619092428324,
            4.142205223505414,
            -6.262478240020741,
            -5.090397373867702,
            -11.49647421715147,
            -0.415943172590012
        ],
        [
            12.193495047832968,
            -1.5041588343664642,
            -0.8000582381449277,
            12.23489700053338,
            5.358839898196479,
            -13.381479672940042
        ],
        [
            -15.109650384058817,
            7.041070723851444,
            6.77830404595964,
            -14.724058431448022,
            -1.0877232879125032,
            -4.243362822902505
        ],
        [
            3.1751354128200973,
            7.18997352203457,
            -9.856405239320832,
            0.9030055336028049,
            -6.673820813389373,
            -11.536281767859741
        ],
        [
            14.59140611541708,
            3.361411057932525,
            13.129029888927327,
            -1.3493877222628612,
            -14.608548774058214,
            -11.949998860149737
        ]
    ],
    "outputs": [
        0.0,
        0.0,
        0.0,
        0.0,
        0.0,
        0.0
    ],
    "weight_range": 16,
    "bias_range": 16,
    "tc_min": 1,
    "tc_max": 1,
    "inv_time_constants": [
        1.0,
        1.0,
        1.0,
        1.0,
        1.0,
        1.0
    ]
}