{
    "size": 6,
    "voltages": [
        0.0,
        0.0,
        0.0,
        0.0,
        0.0,
        0.0
    ],
    "time_constants": [
        1.0,
        1.0,
        1.0,
        1.0,
        1.0,
        1.0
    ],
    "biases": [
        -12.113853487234472,
        -9.188120782283388,
        0.23801826922759162,
        -0.7488568655776113,
        -13.394810310483205,
        -4.57575865637623
    ],
    "inner_weights": [
        [
            4.566077305154529,
            1.2358697910063015,
            0.38073543867616166,
            3.528231267615883,
            -0.2243525244418656,
            -9.137216070674075
        ],
        [
            -8.192639382797402,
            2.3070248313087163,
            8.724117239201895,
            -6.059905539259336,
            -3.0693384194379547,
            3.0976015308560534
        ],
        [
            -8.274087459884253,
            12.98303492588494,
            -10.905221279713267,
            2.8372376217452597,
            -7.616909874854752,
            12.042871051849662
        ],
        [
            13.410413783908162,
            -12.640867043623572,
            15.061795501299013,
            -14.6103245613029,
            -14.910596757431108,
            1.0425878914484379
        ],
        [
            -15.12145454889951,
            -5.20009573542567,
            -9.813249363901654,
            -7.402239475890777,
            15.259943503596261,
            14.309297926311576
        ],
        [
            10.236336080063534,
            4.967201154245597,
            -14.226193602808298,
            6.053147329167871,
            4.377133530932202,
            3.288828044657137
        ]
    ],
    "outputs": [
        0.0,
        0.0,
        0.0,
        0.0,
        0.0,
        0.0
    ],
    "weight_range": 16,
    "bias_range": 16,
    "tc_min": 1,
    "tc_max": 1,
    "inv_time_constants": [
        1.0,
        1.0,
        1.0,
        1.0,
        1.0,
        1.0
    ]
}