{
    "size": 6,
    "voltages": [
        0.0,
        0.0,
        0.0,
        0.0,
        0.0,
        0.0
    ],
    "time_constants": [
        1.0,
        1.0,
        1.0,
        1.0,
        1.0,
        1.0
    ],
    "biases": [
        -7.784724693982373,
        -5.429309553595456,
        -13.403095219976219,
        6.877743593481203,
        -6.736801175777835,
        0.5667556110018594
    ],
    "inner_weights": [
        [
            -4.626588230232432,
            -5.092835945942348,
            13.859406153010237,
            13.242213940640848,
            10.798871308044614,
            -14.09638189680301
        ],
        [
            -8.057272796127837,
            0.29182222110739886,
            -13.134584926496082,
            9.124828390771178,
            -3.228432272339834,
            -1.8337476116603035
        ],
        [
            8.586140204863415,
            2.1151380530035198,
            -8.14819751711033,
            1.4402133124434648,
            -11.373774267260597,
            -1.6342657136540595
        ],
        [
            -1.1070495088091405,
            6.959706638886704,
            14.534999830753854,
            3.994295476851793,
            -2.6218409687044044,
            12.606147468908887
        ],
        [
            -5.579637366327514,
            15.446404328589125,
            6.7241702591369545,
            13.512545831898084,
            15.63994379359427,
            7.254706146015668
        ],
        [
            -5.407821666272536,
            -7.417765756628459,
            -12.717687723076605,
            -10.067060528489403,
            -9.618010756543931,
            2.543647517152671
        ]
    ],
    "outputs": [
        0.0,
        0.0,
        0.0,
        0.0,
        0.0,
        0.0
    ],
    "weight_range": 16,
    "bias_range": 16,
    "tc_min": 1,
    "tc_max": 1,
    "inv_time_constants": [
        1.0,
        1.0,
        1.0,
        1.0,
        1.0,
        1.0
    ]
}