{
    "size": 6,
    "voltages": [
        0.0,
        0.0,
        0.0,
        0.0,
        0.0,
        0.0
    ],
    "time_constants": [
        1.0,
        1.0,
        1.0,
        1.0,
        1.0,
        1.0
    ],
    "biases": [
        4.412561041246001,
        -14.977661993247516,
        -2.8093691046810036,
        14.306639975120543,
        8.363663411874462,
        -1.215439222289202
    ],
    "inner_weights": [
        [
            5.000453927454618,
            14.55684406122328,
            15.068033119802124,
            -12.86937032590761,
            -8.29616269500221,
            11.796543581241291
        ],
        [
            1.518493902480433,
            7.012905533720254,
            13.62187777570086,
            3.745235747569488,
            5.339531469461427,
            -5.315141078999542
        ],
        [
            -10.146848166382604,
            -4.4012309929037094,
            -3.1406051603970973,
            8.381147527199435,
            -7.464479270336458,
            -7.452943250359976
        ],
        [
            15.234463028611021,
            -14.00801477164709,
            -2.5852821657852942,
            -4.760005655673169,
            -13.136468088092457,
            -9.68454747407035
        ],
        [
            14.107459342255513,
            -15.661906170083874,
            -10.044612462835289,
            15.535611438866283,
            -5.1119574345875485,
            -5.550636422590657
        ],
        [
            4.925130847492216,
            -15.29546589085044,
            -9.854759248410208,
            14.47942063576166,
            8.022502795555699,
            -8.737538774871382
        ]
    ],
    "outputs": [
        0.0,
        0.0,
        0.0,
        0.0,
        0.0,
        0.0
    ],
    "weight_range": 16,
    "bias_range": 16,
    "tc_min": 1,
    "tc_max": 1,
    "inv_time_constants": [
        1.0,
        1.0,
        1.0,
        1.0,
        1.0,
        1.0
    ]
}