{
    "size": 6,
    "voltages": [
        0.0,
        0.0,
        0.0,
        0.0,
        0.0,
        0.0
    ],
    "time_constants": [
        1.0,
        1.0,
        1.0,
        1.0,
        1.0,
        1.0
    ],
    "biases": [
        1.7892601736123552,
        -10.69457718752836,
        -6.552389406691482,
        10.89947152507645,
        -4.398015698762489,
        -5.093952719274505
    ],
    "inner_weights": [
        [
            -8.047675921992642,
            -1.600786526374545,
            -2.8498943041106948,
            -7.6704098916192045,
            11.852662027102383,
            -10.07872233081904
        ],
        [
            -15.370834386238592,
            14.504065008118786,
            5.774425751393256,
            -0.42917995038310863,
            14.88085823571053,
            -3.4112403481077322
        ],
        [
            -13.454157718819385,
            -4.75496241875852,
            -10.763674796636952,
            15.461338273084724,
            12.180101894887724,
            -0.18996902042997021
        ],
        [
            -3.169304284208689,
            -1.558673183719577,
            7.068059152124679,
            -8.071414898025399,
            3.9289584769328307,
            -11.441637892306279
        ],
        [
            -9.562358960898727,
            -13.401032657641878,
            14.511113433892028,
            -14.216375371450546,
            3.1851674705739192,
            7.135924175791438
        ],
        [
            15.049271019674304,
            10.290222637189412,
            0.8816341580595548,
            -5.392744654602637,
            -4.672569741094435,
            -13.471030359748088
        ]
    ],
    "outputs": [
        0.0,
        0.0,
        0.0,
        0.0,
        0.0,
        0.0
    ],
    "weight_range": 16,
    "bias_range": 16,
    "tc_min": 1,
    "tc_max": 1,
    "inv_time_constants": [
        1.0,
        1.0,
        1.0,
        1.0,
        1.0,
        1.0
    ]
}