{
    "size": 6,
    "voltages": [
        0.0,
        0.0,
        0.0,
        0.0,
        0.0,
        0.0
    ],
    "time_constants": [
        1.0,
        1.0,
        1.0,
        1.0,
        1.0,
        1.0
    ],
    "biases": [
        -3.162671989214047,
        -0.8897079906553351,
        -11.589524077913282,
        7.2064870275747595,
        2.743575565283628,
        -10.99117708730563
    ],
    "inner_weights": [
        [
            15.494139217362456,
            -5.330807487531093,
            5.558451989412401,
            -9.715506649135214,
            -4.657713131487245,
            10.027710501825936
        ],
        [
            -8.068814287639647,
            -1.3244375953211573,
            12.073645487906806,
            -3.466929242642941,
            -5.56373054879008,
            -13.11695647219932
        ],
        [
            10.694967997562689,
            -12.921228641855027,
            4.7214426271129675,
            1.584127627755052,
            11.191697340499594,
            -7.509845816821361
        ],
        [
            -1.8922137280152,
            12.188332239836171,
            7.5634465585035215,
            6.804481196853462,
            -14.858496993985213,
            -15.368600673839595
        ],
        [
            -5.510500120191583,
            2.0165322676785706,
            7.862945508012658,
            7.346172410236786,
            15.686115829826097,
            14.831479634029474
        ],
        [
            1.6062507182602772,
            15.624373478958194,
            0.2961477074626835,
            -4.807282004991617,
            13.802230905054476,
            -9.466171029673738
        ]
    ],
    "outputs": [
        0.0,
        0.0,
        0.0,
        0.0,
        0.0,
        0.0
    ],
    "weight_range": 16,
    "bias_range": 16,
    "tc_min": 1,
    "tc_max": 1,
    "inv_time_constants": [
        1.0,
        1.0,
        1.0,
        1.0,
        1.0,
        1.0
    ]
}