{
    "size": 6,
    "voltages": [
        0.0,
        0.0,
        0.0,
        0.0,
        0.0,
        0.0
    ],
    "time_constants": [
        1.0,
        1.0,
        1.0,
        1.0,
        1.0,
        1.0
    ],
    "biases": [
        5.968029685810677,
        10.708021500715933,
        -15.414775124985862,
        8.004618078238959,
        15.64355484500783,
        7.941300940154861
    ],
    "inner_weights": [
        [
            -2.655295849517632,
            7.050383790149059,
            -15.996340005844964,
            -6.325357675781127,
            -11.303811493852383,
            -13.04516496739847
        ],
        [
            -10.039673235914531,
            -4.942056734622472,
            -3.303440824618562,
            1.2421354881074222,
            -2.5857755390945663,
            5.927024012696304
        ],
        [
            -9.457528008591442,
            12.099757964510253,
            -15.123597017666363,
            5.454960325708871,
            -2.646246324251937,
            1.878074510264053
        ],
        [
            -11.50761796495252,
            -9.660752349283879,
            9.623826197617174,
            14.98437042302072,
            -5.970426298904229,
            6.1543237014180505
        ],
        [
            12.044452873473226,
            12.627413232123114,
            -13.278585236167107,
            -14.750246936547764,
            -10.565426573933795,
            12.10056010974122
        ],
        [
            -12.852901317342397,
            -2.5245559998383307,
            14.652464964816062,
            1.0612891191365463,
            6.140067646415147,
            -5.903499807805986
        ]
    ],
    "outputs": [
        0.0,
        0.0,
        0.0,
        0.0,
        0.0,
        0.0
    ],
    "weight_range": 16,
    "bias_range": 16,
    "tc_min": 1,
    "tc_max": 1,
    "inv_time_constants": [
        1.0,
        1.0,
        1.0,
        1.0,
        1.0,
        1.0
    ]
}