{
    "size": 10,
    "voltages": [
        0.0,
        0.0,
        0.0,
        0.0,
        0.0,
        0.0,
        0.0,
        0.0,
        0.0,
        0.0
    ],
    "time_constants": [
        1.0,
        1.0,
        1.0,
        1.0,
        1.0,
        1.0,
        1.0,
        1.0,
        1.0,
        1.0
    ],
    "biases": [
        8.960521790818323,
        11.151828305294366,
        -3.220297471640258,
        9.501563421688306,
        -15.434537153848858,
        -10.641799836270085,
        -9.5816790333898,
        -8.29572861381127,
        -13.533760481477213,
        7.418691881471329
    ],
    "inner_weights": [
        [
            10.339530902713342,
            -15.164224589764245,
            -9.255339522198593,
            3.7894966191875277,
            -12.854897109219227,
            3.8442019160594825,
            -14.2755129728498,
            14.740929849735632,
            15.373739974882351,
            0.676084808679164
        ],
        [
            4.36970703473753,
            8.472222344615997,
            8.478569427738215,
            -2.6340614540888723,
            8.601769802359765,
            -2.4575439868149864,
            13.63531428885861,
            5.821647515916748,
            -4.209421077609971,
            11.485115371290242
        ],
        [
            -3.824138240531525,
            -12.961463555724553,
            -5.6034971636216575,
            -2.7164100434402805,
            7.752766363212167,
            5.053083762772022,
            -9.557861397030504,
            9.871613223787072,
            9.164878029112568,
            -3.361931587068387
        ],
        [
            0.3397195196498686,
            9.477105328064784,
            -1.7479201314871204,
            7.778141136326884,
            -13.48002965370317,
            -0.3953517434662537,
            -2.0995633640646467,
            -8.126145738466679,
            11.572502984741462,
            -15.359278108224476
        ],
        [
            -1.5735452853935996,
            -14.482468020951739,
            -0.07272012230881586,
            11.480768132096145,
            -5.285898994714092,
            12.85088099681397,
            -12.06759827295106,
            -10.962120098135578,
            9.19632933237737,
            5.278049850531026
        ],
        [
            7.046533516750092,
            1.2561703481036446,
            -0.8976814638442718,
            12.822000119368585,
            -4.015599655492494,
            0.8891662371126969,
            6.223789582879846,
            -2.3818155913133765,
            4.4344537420325665,
            3.0183899074658065
        ],
        [
            -1.4630086712701669,
            13.304845334295322,
            7.81015689399749,
            13.743545658880187,
            12.517695656204584,
            -5.749337401899567,
            6.080843154562974,
            -14.116221492552878,
            -9.542916370129902,
            7.137976532943473
        ],
        [
            8.064317557558251,
            -6.547803921881279,
            14.67030145537936,
            -15.86037524713705,
            -4.808251512510882,
            -9.68056416047018,
            -1.9971676409119326,
            13.747701365559099,
            -7.032144603120031,
            -2.3077152249315347
        ],
        [
            -1.1147212235571615,
            11.363962067341905,
            15.500378942131839,
            -0.7127179208734482,
            1.174539627816543,
            9.030546635426656,
            10.074408538022304,
            -11.339035684128781,
            -5.016650799875066,
            6.259836897920312
        ],
        [
            -9.976979871391844,
            -1.4264098698425052,
            15.05353853285444,
            15.81906526371143,
            8.016268116260417,
            0.39324460132923633,
            0.4727148268884882,
            -13.786491756219291,
            15.077835658006212,
            14.554253043104062
        ]
    ],
    "outputs": [
        0.0,
        0.0,
        0.0,
        0.0,
        0.0,
        0.0,
        0.0,
        0.0,
        0.0,
        0.0
    ],
    "weight_range": 16,
    "bias_range": 16,
    "tc_min": 1,
    "tc_max": 1,
    "inv_time_constants": [
        1.0,
        1.0,
        1.0,
        1.0,
        1.0,
        1.0,
        1.0,
        1.0,
        1.0,
        1.0
    ]
}