{
    "size": 10,
    "voltages": [
        0.0,
        0.0,
        0.0,
        0.0,
        0.0,
        0.0,
        0.0,
        0.0,
        0.0,
        0.0
    ],
    "time_constants": [
        1.0,
        1.0,
        1.0,
        1.0,
        1.0,
        1.0,
        1.0,
        1.0,
        1.0,
        1.0
    ],
    "biases": [
        -7.0609488289051185,
        12.944353632630644,
        12.981814189378255,
        -2.583444535626203,
        -4.25965281630641,
        -8.838433329924374,
        -1.6653009683416258,
        -2.1907365460254837,
        -12.075472129951606,
        -6.5513185834607555
    ],
    "inner_weights": [
        [
            -0.009781744997312103,
            -7.810011702026554,
            -7.740779808365616,
            -12.898505297946748,
            2.053923665981589,
            -15.488317649262264,
            -11.1169526757146,
            -0.632072622019205,
            -12.804071687279368,
            -2.6571554455201785
        ],
        [
            13.236826030824062,
            -4.776975670238794,
            -12.332660097985723,
            6.803468496069886,
            -12.739643101385916,
            -3.017585939787004,
            5.295406050389182,
            -11.572500126028345,
            10.573858855506163,
            -12.057609946110887
        ],
        [
            2.809329742343234,
            -13.980848454977075,
            -0.09271218805743331,
            13.708627870881749,
            9.792986918995748,
            -9.651480379724031,
            -4.950926757242986,
            1.1115671122302473,
            15.314670999542397,
            0.09742415674093863
        ],
        [
            -4.881679865845772,
            -9.190831125882355,
            -10.321471204562837,
            -12.67108467509198,
            -10.001425481165615,
            -14.709960041709909,
            -8.322647369539478,
            1.479766511639383,
            -9.350938625193042,
            15.76652732933045
        ],
        [
            -5.8394854209337375,
            -2.705456839737252,
            14.099945794826446,
            -10.438472375634742,
            2.419745757623506,
            -5.818212430249833,
            -2.9284300904923164,
            3.886606173021434,
            9.283478026216393,
            2.4894103430293484
        ],
        [
            -6.757706544783154,
            -13.900299818040967,
            -7.721706600427584,
            0.7465615215645371,
            1.0724079893174583,
            3.700594368308458,
            -14.183195272407776,
            -7.685469176093033,
            14.617594986026969,
            -12.925474772966254
        ],
        [
            4.686252503204166,
            -14.09705406633935,
            4.714336864111225,
            11.522293388774699,
            2.332744890391627,
            13.519604694480915,
            -4.585365727626996,
            15.621380083659556,
            -9.575667441639421,
            -8.626034568330496
        ],
        [
            7.079822360090887,
            6.609739953950463,
            -2.506642186101253,
            7.326493385474656,
            -7.25138108945491,
            -2.510001559050032,
            -15.70643542007798,
            -6.183696645783801,
            9.318131317706701,
            -6.240434624081793
        ],
        [
            4.9908826187787305,
            5.538373007924456,
            -4.697844742878335,
            13.348525550999451,
            0.7648710645720413,
            7.609797984757609,
            -9.940387193139749,
            -13.199817932981968,
            -8.513177285021158,
            15.97446567506907
        ],
        [
            -8.406344281320862,
            12.489096628025667,
            13.965387503692327,
            8.189277475937708,
            15.12812513200339,
            6.087696923427238,
            -14.612191773057127,
            -13.447422095669193,
            5.761965705022909,
            -6.848614224108502
        ]
    ],
    "outputs": [
        0.0,
        0.0,
        0.0,
        0.0,
        0.0,
        0.0,
        0.0,
        0.0,
        0.0,
        0.0
    ],
    "weight_range": 16,
    "bias_range": 16,
    "tc_min": 1,
    "tc_max": 1,
    "inv_time_constants": [
        1.0,
        1.0,
        1.0,
        1.0,
        1.0,
        1.0,
        1.0,
        1.0,
        1.0,
        1.0
    ]
}