{
    "size": 10,
    "voltages": [
        0.0,
        0.0,
        0.0,
        0.0,
        0.0,
        0.0,
        0.0,
        0.0,
        0.0,
        0.0
    ],
    "time_constants": [
        1.0,
        1.0,
        1.0,
        1.0,
        1.0,
        1.0,
        1.0,
        1.0,
        1.0,
        1.0
    ],
    "biases": [
        9.779604750466888,
        -13.259313501101623,
        -8.179855487220642,
        12.569778765154929,
        -0.6844454187627598,
        -9.907178359745618,
        -7.902584547234241,
        8.3948559261325,
        14.673287643334486,
        8.394160746678367
    ],
    "inner_weights": [
        [
            11.84397237207078,
            2.6328617175219122,
            -7.07715389756579,
            -10.050840573114264,
            -2.844795906396378,
            -12.243982491689103,
            5.918999819972321,
            -1.9964460908911867,
            1.7993384055030468,
            -4.253429708181635
        ],
        [
            -3.124296677945509,
            -12.382697577779318,
            -1.695012919440341,
            2.7342437283531424,
            -10.816476676961976,
            0.6630012176858742,
            -5.566363963589584,
            6.373959614222112,
            -4.275374434678923,
            10.763984264513766
        ],
        [
            -0.5970258160794444,
            0.5280735357395514,
            -3.74245989858019,
            15.921308668082585,
            0.4558236240569258,
            1.8897047785110637,
            -14.897607420525713,
            7.0377608437547075,
            -2.527886476568245,
            -2.018075990648036
        ],
        [
            -6.98557587875262,
            12.808778817814812,
            5.427592899430465,
            -1.405799984367306,
            -6.726260967288447,
            0.8262068308711008,
            1.895745968049976,
            7.849082616975558,
            10.507080114345708,
            10.358222461601574
        ],
        [
            -13.531509763865856,
            4.635586251545689,
            -6.103757259630491,
            0.7761189080440971,
            14.658954801092538,
            12.262430588289735,
            -6.546179515657922,
            0.39603163077374504,
            -13.161522634102951,
            4.53493539481056
        ],
        [
            -11.762542281228203,
            8.527546066554692,
            -13.544248313545062,
            -5.406597673677005,
            5.755250789861677,
            0.2948185427428385,
            4.964676487890763,
            3.2678514499987443,
            7.009745841557326,
            -2.7129844666139
        ],
        [
            -3.3106678656428628,
            10.404446843461525,
            6.801656117081706,
            -12.866011131303424,
            10.94893627426821,
            -1.8937251939328306,
            -4.032344183426726,
            13.237626230872209,
            1.5288965362916187,
            -7.93800758846065
        ],
        [
            -15.120833876019834,
            -9.39976641236031,
            2.90833156728106,
            -10.763151103617862,
            10.781701245471002,
            8.806501476209139,
            -10.590673395268595,
            8.543818537075662,
            -5.268292829816833,
            -0.8832654467999923
        ],
        [
            -9.117940125652218,
            13.187007979143178,
            8.29464484613576,
            5.649963445522477,
            -15.315958996281193,
            5.147978460603348,
            -12.97793310800688,
            10.597202233150494,
            -12.392030643199963,
            2.138547499519621
        ],
        [
            -10.41196522309675,
            9.29941212969873,
            -14.922150439016672,
            9.47107783549432,
            6.061992732814076,
            -0.260938761908708,
            -13.16627936958064,
            14.001608402007474,
            -13.300408758862499,
            -0.9794025602905059
        ]
    ],
    "outputs": [
        0.0,
        0.0,
        0.0,
        0.0,
        0.0,
        0.0,
        0.0,
        0.0,
        0.0,
        0.0
    ],
    "weight_range": 16,
    "bias_range": 16,
    "tc_min": 1,
    "tc_max": 1,
    "inv_time_constants": [
        1.0,
        1.0,
        1.0,
        1.0,
        1.0,
        1.0,
        1.0,
        1.0,
        1.0,
        1.0
    ]
}