{
    "size": 10,
    "voltages": [
        0.0,
        0.0,
        0.0,
        0.0,
        0.0,
        0.0,
        0.0,
        0.0,
        0.0,
        0.0
    ],
    "time_constants": [
        1.0,
        1.0,
        1.0,
        1.0,
        1.0,
        1.0,
        1.0,
        1.0,
        1.0,
        1.0
    ],
    "biases": [
        13.19620788493857,
        -6.057202740402058,
        -5.899439887996866,
        9.824963575828193,
        -2.8812616179178967,
        0.38218749699512955,
        -11.148598454135925,
        -11.70079122001584,
        -15.505406363173808,
        -3.8715762712842157
    ],
    "inner_weights": [
        [
            4.612593154186719,
            -3.8160483316762708,
            5.217532970741395,
            -10.763176764711893,
            14.803450037578198,
            -4.906821107847499,
            15.736031753395444,
            -8.47814734061934,
            2.7422165926930475,
            -2.9859167479935778
        ],
        [
            -11.640501695390498,
            1.412361204421753,
            0.5816430984270546,
            8.539363401552173,
            13.883204586194552,
            -13.12949175085032,
            -9.735319783359198,
            15.81419789751557,
            -8.474224076256355,
            -8.352436097835167
        ],
        [
            4.131194586470464,
            7.518482452580464,
            6.027020258150522,
            -15.00381605063593,
            12.88044298395312,
            -6.8340695068046635,
            1.7796020417955063,
            -3.9545521750546193,
            -15.14802032726034,
            -0.18722811048944976
        ],
        [
            10.71088299178927,
            -4.256405439671916,
            0.49222759170906016,
            -0.8838679863910457,
            -3.643133169380885,
            7.81238414208946,
            -5.27225345068144,
            3.054025222432916,
            -5.883731778935875,
            -4.91998643429935
        ],
        [
            -8.165382129373342,
            6.334405279424033,
            -9.213413395474735,
            -7.446618613553298,
            -4.0353894810391076,
            2.3388322170538984,
            13.355458519001644,
            10.207229976157308,
            -10.778211444497543,
            -15.227047364644093
        ],
        [
            9.108916069210828,
            -7.524563873369644,
            -5.140254196757038,
            10.059826723540262,
            9.838550907521665,
            -0.20602762243406048,
            11.049998204274281,
            -4.313920499519238,
            -14.469411227154218,
            -7.547334835288474
        ],
        [
            -1.1562508762067658,
            6.187361903906265,
            -5.9700238911725165,
            -1.1988227673976581,
            10.230004885946649,
            5.903712803189691,
            -5.63091763821879,
            2.4579839727868134,
            4.244799481324016,
            3.0867733621293105
        ],
        [
            -11.589539857509777,
            3.776032762508752,
            -0.2091618233441359,
            -11.404412007084321,
            -15.013699479625721,
            14.05298328905246,
            -7.781193112117311,
            -14.171692703711138,
            -3.5933368172818128,
            -4.572904079475087
        ],
        [
            15.564292575525112,
            14.066900392326385,
            2.6488071542280167,
            15.779300280845572,
            15.677264017321498,
            11.681803971920232,
            -10.825016688257424,
            -4.20831230459542,
            -6.184746884701617,
            -5.092376224761075
        ],
        [
            -6.704712075092143,
            4.411650329450655,
            -14.379071906737092,
            13.925897943409506,
            -15.172965220047267,
            1.0124496715678362,
            -13.708678572198462,
            6.127822036557564,
            -12.253199621613138,
            -9.80759975467878
        ]
    ],
    "outputs": [
        0.0,
        0.0,
        0.0,
        0.0,
        0.0,
        0.0,
        0.0,
        0.0,
        0.0,
        0.0
    ],
    "weight_range": 16,
    "bias_range": 16,
    "tc_min": 1,
    "tc_max": 1,
    "inv_time_constants": [
        1.0,
        1.0,
        1.0,
        1.0,
        1.0,
        1.0,
        1.0,
        1.0,
        1.0,
        1.0
    ]
}