{
    "size": 10,
    "voltages": [
        0.0,
        0.0,
        0.0,
        0.0,
        0.0,
        0.0,
        0.0,
        0.0,
        0.0,
        0.0
    ],
    "time_constants": [
        1.0,
        1.0,
        1.0,
        1.0,
        1.0,
        1.0,
        1.0,
        1.0,
        1.0,
        1.0
    ],
    "biases": [
        0.7599838938021648,
        -6.467696737046584,
        2.2715426200064393,
        2.3676123041595893,
        -14.57850942137189,
        -1.4955121906484088,
        15.680227051869178,
        -8.745089338754344,
        -0.8560848338809102,
        -13.476673753603453
    ],
    "inner_weights": [
        [
            15.648368431219204,
            1.585431259031214,
            -6.993686337437989,
            -13.526733885466474,
            -1.7769761289023016,
            -0.8701449678244693,
            -14.447295970993732,
            -10.773617657335464,
            -12.289577232065778,
            4.076533846541633
        ],
        [
            11.397825555059981,
            4.803277474801682,
            15.703093912249603,
            -0.9487760510788661,
            3.7854234741554613,
            -6.9546493910026435,
            15.232106106161332,
            5.538175972213608,
            -1.9030115592145762,
            -6.7300051119329645
        ],
        [
            0.31038988950852087,
            -12.401251334528173,
            -8.737446741046853,
            -0.6863262508257719,
            -8.231738983036383,
            -3.5845594365706575,
            10.203949682092048,
            -13.614694874830509,
            13.540785248885413,
            -8.803325375697348
        ],
        [
            6.603887507455877,
            -12.461905383279639,
            3.2321319527419625,
            -2.9826387811746002,
            10.778542413825804,
            -7.999026308993308,
            -1.352384273259311,
            1.8378464858264252,
            -7.937593606670234,
            -12.472277687496561
        ],
        [
            7.252390281856773,
            -6.077633999480884,
            10.424126895910572,
            -1.5466711473102848,
            -12.98755426878424,
            12.390503603515572,
            7.7361320947395065,
            -12.098167186086432,
            11.387810293876125,
            -13.85797532197282
        ],
        [
            -10.113536452559032,
            -10.490661846194193,
            13.5128952786485,
            5.32263907915096,
            -7.838183829222295,
            -7.9578799091887475,
            15.489170081223204,
            5.721451978633731,
            -3.1241189134180907,
            -13.946486529085043
        ],
        [
            -1.796027965330353,
            -9.373067895212753,
            -5.677121480929447,
            4.783550410484256,
            7.168395867835077,
            -1.0133600852452176,
            -9.992136699170256,
            -6.515601898190656,
            -11.513861906312716,
            -12.96737093905239
        ],
        [
            -0.2635789749752817,
            15.704918503316769,
            12.154032848011994,
            -10.83907773691422,
            -6.242774536820363,
            3.3534469531647204,
            14.089748269779939,
            7.4598240184724105,
            -14.73856630763948,
            -10.881202209013018
        ],
        [
            -13.944570513922322,
            -1.7743850576180726,
            10.87271965630341,
            1.8411319623215476,
            15.613300570286896,
            8.422259290482575,
            14.108087335703306,
            7.255948677486089,
            -7.915768138213476,
            13.038524871471541
        ],
        [
            5.911126020452819,
            -12.632482642968267,
            3.3356224847144382,
            7.592349831040153,
            -8.40890947694255,
            15.64754910695346,
            10.905356802415472,
            -2.1407923359497794,
            7.1281666316811965,
            5.396351535631734
        ]
    ],
    "outputs": [
        0.0,
        0.0,
        0.0,
        0.0,
        0.0,
        0.0,
        0.0,
        0.0,
        0.0,
        0.0
    ],
    "weight_range": 16,
    "bias_range": 16,
    "tc_min": 1,
    "tc_max": 1,
    "inv_time_constants": [
        1.0,
        1.0,
        1.0,
        1.0,
        1.0,
        1.0,
        1.0,
        1.0,
        1.0,
        1.0
    ]
}