{
    "size": 10,
    "voltages": [
        0.0,
        0.0,
        0.0,
        0.0,
        0.0,
        0.0,
        0.0,
        0.0,
        0.0,
        0.0
    ],
    "time_constants": [
        1.0,
        1.0,
        1.0,
        1.0,
        1.0,
        1.0,
        1.0,
        1.0,
        1.0,
        1.0
    ],
    "biases": [
        1.7770267162327862,
        -15.838582234517649,
        -4.330169121395521,
        8.622848333191008,
        -7.179922796363616,
        -6.64069620174029,
        -13.271097335275183,
        -9.994885736095384,
        -7.598695278998356,
        4.6414880183305165
    ],
    "inner_weights": [
        [
            -6.146081516000933,
            0.620527337769623,
            8.585525169215149,
            9.255063557467512,
            11.85798599922635,
            -9.986515468093796,
            -7.375832140258616,
            -0.12185148838844029,
            7.6518959076387425,
            -9.761536267467502
        ],
        [
            -10.248152104770817,
            1.2424402744049061,
            -6.951500652448718,
            8.350075822787158,
            -7.369825867329684,
            -6.607375701951835,
            14.796976371608782,
            13.222858437475523,
            2.1815950529848287,
            -0.46424467188706586
        ],
        [
            4.9185398607547235,
            1.1721407529399883,
            15.863644716813425,
            -11.456561155794027,
            15.210932370359245,
            3.8258391680845065,
            7.055558646559181,
            -6.557965715981702,
            3.2042228982426515,
            8.020335105851704
        ],
        [
            4.523717588495593,
            13.545582704577374,
            12.439367724886491,
            4.629483280534451,
            -6.539442878022509,
            5.842998810629965,
            -7.136087424694956,
            -11.954241482067275,
            2.2373526753486708,
            -2.9100961838001176
        ],
        [
            1.9329647131211694,
            11.338989449541348,
            -12.904995290725399,
            -4.661028059644508,
            15.155896680371242,
            13.502916081403594,
            14.997327629299122,
            -14.369395682219036,
            12.273788164565971,
            8.639189974677077
        ],
        [
            -8.33230624988349,
            -12.677927990613068,
            -10.03848571798531,
            8.087048497885192,
            14.492711229204126,
            9.298624768756348,
            -10.028504073521315,
            0.38550202422887736,
            -13.393629187721778,
            0.7436727771848197
        ],
        [
            -11.716507591554794,
            -9.644015576293718,
            -12.5377500888053,
            4.247207218928551,
            14.461385658782081,
            0.8435146559767475,
            -5.221848366292161,
            0.2658540663179636,
            15.695037635346171,
            4.264439979581013
        ],
        [
            -4.328971278122623,
            15.223203035153507,
            9.038437525219535,
            -14.758567434325347,
            15.532985042307512,
            -4.733686155220571,
            -7.108727268414846,
            -5.960701889599925,
            4.485559782703152,
            -0.41927046684843106
        ],
        [
            -7.313577376147929,
            14.269119330002756,
            -2.886996345330676,
            -7.431933090723518,
            11.627308093249159,
            -1.2373976035358503,
            6.419098060490725,
            -1.4748942264775913,
            7.849529484192367,
            -14.03147523632721
        ],
        [
            -13.864017348330155,
            -6.515497043269921,
            3.5918242822389175,
            -15.570159564336283,
            -3.7676143024370994,
            5.7478479123354305,
            13.232807081331202,
            -7.775095144972269,
            -12.68130271527123,
            10.683422254606096
        ]
    ],
    "outputs": [
        0.0,
        0.0,
        0.0,
        0.0,
        0.0,
        0.0,
        0.0,
        0.0,
        0.0,
        0.0
    ],
    "weight_range": 16,
    "bias_range": 16,
    "tc_min": 1,
    "tc_max": 1,
    "inv_time_constants": [
        1.0,
        1.0,
        1.0,
        1.0,
        1.0,
        1.0,
        1.0,
        1.0,
        1.0,
        1.0
    ]
}