{
    "size": 10,
    "voltages": [
        0.0,
        0.0,
        0.0,
        0.0,
        0.0,
        0.0,
        0.0,
        0.0,
        0.0,
        0.0
    ],
    "time_constants": [
        1.0,
        1.0,
        1.0,
        1.0,
        1.0,
        1.0,
        1.0,
        1.0,
        1.0,
        1.0
    ],
    "biases": [
        -5.547363143292923,
        0.8658592722434975,
        12.350147177944784,
        -4.567367679920007,
        13.073124829433574,
        3.9475237053376873,
        -15.493720228910199,
        13.741991479800362,
        6.108701360541566,
        15.914331214447376
    ],
    "inner_weights": [
        [
            -2.655295849517632,
            7.050383790149059,
            -15.996340005844964,
            -6.325357675781127,
            -11.303811493852383,
            -13.04516496739847,
            -10.039673235914531,
            -4.942056734622472,
            -3.303440824618562,
            1.2421354881074222
        ],
        [
            -2.5857755390945663,
            5.927024012696304,
            -9.457528008591442,
            12.099757964510253,
            -15.123597017666363,
            5.454960325708871,
            -2.646246324251937,
            1.878074510264053,
            -11.50761796495252,
            -9.660752349283879
        ],
        [
            9.623826197617174,
            14.98437042302072,
            -5.970426298904229,
            6.1543237014180505,
            12.044452873473226,
            12.627413232123114,
            -13.278585236167107,
            -14.750246936547764,
            -10.565426573933795,
            12.10056010974122
        ],
        [
            -12.852901317342397,
            -2.5245559998383307,
            14.652464964816062,
            1.0612891191365463,
            6.140067646415147,
            -5.903499807805986,
            5.968029685810677,
            10.708021500715933,
            -15.414775124985862,
            8.004618078238959
        ],
        [
            15.64355484500783,
            7.941300940154861,
            -7.025792253939034,
            9.256938510447632,
            -12.696767789515455,
            -1.6674071623710347,
            13.075056098979058,
            -6.604347252042256,
            -6.79118916523684,
            -11.839085692215114
        ],
        [
            -15.380257348150494,
            5.722737054076511,
            -9.22790028799811,
            -7.502506900088761,
            -0.2696589030291747,
            -14.292398556253428,
            2.3717633757444183,
            -11.304685603014075,
            2.857777180905096,
            6.392267520669797
        ],
        [
            -12.725298277509573,
            -2.750208389773814,
            6.220805047287843,
            -2.7462633751391152,
            -14.401489313725211,
            1.1486849892963704,
            5.241428647033242,
            0.476451585865874,
            14.227032191706027,
            2.7697612960637734
        ],
        [
            12.908861289212272,
            -11.6008094673204,
            -11.543156887975726,
            9.836521238704762,
            -3.2743412164629255,
            -10.708665692258151,
            13.680274572673085,
            -4.87149248814379,
            8.025987300356977,
            7.231935531214447
        ],
        [
            12.265794918585915,
            3.9575106257794843,
            8.03015788887479,
            -4.835253056709039,
            -7.362307463519166,
            12.668358982274139,
            -2.301081924118563,
            14.874881508748338,
            5.2301279301903385,
            3.894263046691897
        ],
        [
            -12.328128865491994,
            14.38365627862628,
            -1.6028117286419032,
            2.5084676603882166,
            -2.9396223116390026,
            -8.415136632223113,
            12.908144657992121,
            2.3577435735131473,
            -15.908149535002913,
            3.748637235863164
        ]
    ],
    "outputs": [
        0.0,
        0.0,
        0.0,
        0.0,
        0.0,
        0.0,
        0.0,
        0.0,
        0.0,
        0.0
    ],
    "weight_range": 16,
    "bias_range": 16,
    "tc_min": 1,
    "tc_max": 1,
    "inv_time_constants": [
        1.0,
        1.0,
        1.0,
        1.0,
        1.0,
        1.0,
        1.0,
        1.0,
        1.0,
        1.0
    ]
}