{
    "size": 10,
    "voltages": [
        0.0,
        0.0,
        0.0,
        0.0,
        0.0,
        0.0,
        0.0,
        0.0,
        0.0,
        0.0
    ],
    "time_constants": [
        1.0,
        1.0,
        1.0,
        1.0,
        1.0,
        1.0,
        1.0,
        1.0,
        1.0,
        1.0
    ],
    "biases": [
        -12.834795186852197,
        -4.967181017330091,
        6.056128926213269,
        -10.170815614357675,
        -15.91868023294839,
        -7.438266745160757,
        6.372084629253518,
        -2.594099306156977,
        -5.789601395380988,
        -9.209771344053614
    ],
    "inner_weights": [
        [
            10.714948757300782,
            -12.646524660164168,
            7.8284954137445695,
            -4.463973239798857,
            -4.502053190141698,
            3.495628179780855,
            -3.3990543651759566,
            -2.909676484451243,
            0.31687710686740544,
            6.724735786466351
        ],
        [
            14.736839206581354,
            -1.3881245139540077,
            -2.315151326028513,
            -12.369161564160947,
            -9.027236180911228,
            14.639106210173356,
            14.187223052940642,
            12.218376997007926,
            4.6851379969085905,
            -9.157606011820526
        ],
        [
            4.378624441818854,
            -11.547319936483088,
            -1.321469750228399,
            11.963621925002183,
            -7.729590212253644,
            5.275235128401011,
            11.605578753182698,
            -11.236861982584994,
            2.0143986610871423,
            -10.907031557979273
        ],
        [
            -10.467362349366429,
            -12.671265248312604,
            -9.505997023994652,
            -1.4339425048675878,
            9.426397319302943,
            15.706325791385012,
            9.760550418574471,
            -3.922707017074483,
            0.5035976198988621,
            -14.115234516093523
        ],
        [
            6.755061958496917,
            -13.679749971275644,
            12.243570621756152,
            7.233850194129875,
            10.667718798136189,
            6.727381882547757,
            6.317757382534136,
            13.763289709061521,
            12.213527963433055,
            -12.960896534513342
        ],
        [
            -1.3921146484031226,
            -0.23284826058738872,
            -12.51284787405337,
            -11.08049725242401,
            15.49708906580836,
            -7.310075081217644,
            12.708860371979885,
            -10.744491343229289,
            -11.764534568367026,
            -5.8446911145817815
        ],
        [
            -6.162478117580083,
            -2.4942340238591783,
            -5.40811549437548,
            2.1784119334799,
            -12.95089083004325,
            9.535279515238027,
            -7.4029961447063,
            13.165277213515584,
            12.855807349307451,
            -15.492550388759557
        ],
        [
            11.317831871432311,
            5.619397557441761,
            -14.794230645471739,
            -6.113669349676055,
            2.0559837443895113,
            3.010484142489357,
            5.786029049402323,
            4.237818400069553,
            14.03847966534616,
            7.58782696771139
        ],
        [
            7.835376322072399,
            -12.515660950705893,
            -0.20367127680897923,
            11.736033154309595,
            -15.415836554145542,
            -10.147080936301883,
            -12.39424390127239,
            11.305525094778197,
            -14.449467238328797,
            -0.018275354871324367
        ],
        [
            0.09887580773967031,
            8.471268321787754,
            -4.88067465954936,
            13.805405821005117,
            -6.425410693695227,
            1.636143480850432,
            -14.158231692879323,
            3.0498176768168186,
            4.577412832009923,
            7.718209042642773
        ]
    ],
    "outputs": [
        0.0,
        0.0,
        0.0,
        0.0,
        0.0,
        0.0,
        0.0,
        0.0,
        0.0,
        0.0
    ],
    "weight_range": 16,
    "bias_range": 16,
    "tc_min": 1,
    "tc_max": 1,
    "inv_time_constants": [
        1.0,
        1.0,
        1.0,
        1.0,
        1.0,
        1.0,
        1.0,
        1.0,
        1.0,
        1.0
    ]
}