{
    "size": 10,
    "voltages": [
        0.0,
        0.0,
        0.0,
        0.0,
        0.0,
        0.0,
        0.0,
        0.0,
        0.0,
        0.0
    ],
    "time_constants": [
        1.0,
        1.0,
        1.0,
        1.0,
        1.0,
        1.0,
        1.0,
        1.0,
        1.0,
        1.0
    ],
    "biases": [
        5.0792825077945025,
        1.166882927834635,
        -0.7671527946825165,
        4.716496047312003,
        -0.3754169523497062,
        1.2590431707550884,
        13.411610878724733,
        -1.4221985820603145,
        4.37575911657234,
        3.307509245504793
    ],
    "inner_weights": [
        [
            4.811975735666934,
            0.17450795951497255,
            12.115247069489662,
            -10.181112788110898,
            11.271458197587108,
            8.004361155392342,
            5.315253359530324,
            15.61265434483079,
            -7.777010476677436,
            -15.094210391280061
        ],
        [
            4.343011694752054,
            11.113996399572038,
            7.557588003712343,
            -15.334172418448308,
            -12.42869981871895,
            -6.472840260612486,
            5.983046122874999,
            11.572033792052679,
            -9.64370050611901,
            5.030048979533522
        ],
        [
            6.388980127747043,
            -4.72344099974892,
            9.27873753040981,
            10.04953401974555,
            -9.682518895931743,
            14.382569414271437,
            -0.7487876484660063,
            5.331211135410047,
            -9.238014807955192,
            9.840842363183313
        ],
        [
            -5.77004414216216,
            -6.59404880954277,
            -6.338618315192143,
            10.492460857976017,
            1.6810780432708015,
            -9.866323042154907,
            6.856215702292495,
            4.475851431071213,
            1.0625226030919883,
            2.32089322761572
        ],
        [
            -15.60535880054654,
            6.247615305742887,
            1.1090947318559081,
            -13.46768904693069,
            -15.563599944187288,
            -7.108702718504734,
            15.916329039348696,
            -8.78077958549661,
            -12.639508697087216,
            -15.478375080825803
        ],
        [
            -5.067921526488284,
            9.862337879684425,
            -9.045772067160534,
            13.907358971648247,
            15.631932033405594,
            -15.647465764672322,
            9.116888125388872,
            5.931635801997153,
            0.500607605153192,
            -7.388378541463652
        ],
        [
            5.273007065405071,
            8.867982489482472,
            -0.7786974308348711,
            15.609159740352599,
            -0.12014752359916869,
            5.488706807529454,
            -2.2317029962730466,
            -7.648712231600651,
            14.214283582476575,
            5.988201621854472
        ],
        [
            5.108972659586289,
            -14.868195649910504,
            12.998360447474784,
            -2.60014971179422,
            -0.7698081512871902,
            -11.659721016389163,
            -4.40822843978199,
            -5.562762210196524,
            -11.263429106948827,
            9.46834253552601
        ],
        [
            0.743747629603952,
            12.613578007535185,
            9.421303269453283,
            4.139300285430213,
            -13.851936443224805,
            9.192640420092271,
            -3.874367167271771,
            -0.9400836249450393,
            -13.46877846746251,
            -11.090673466845256
        ],
        [
            -3.9301058838875313,
            -4.759890458271705,
            -14.479836957992916,
            -8.405594037737817,
            -9.71376169530178,
            -3.6335793733784776,
            10.681305594942494,
            8.798280956813404,
            9.713095563509832,
            -9.872550777613021
        ]
    ],
    "outputs": [
        0.0,
        0.0,
        0.0,
        0.0,
        0.0,
        0.0,
        0.0,
        0.0,
        0.0,
        0.0
    ],
    "weight_range": 16,
    "bias_range": 16,
    "tc_min": 1,
    "tc_max": 1,
    "inv_time_constants": [
        1.0,
        1.0,
        1.0,
        1.0,
        1.0,
        1.0,
        1.0,
        1.0,
        1.0,
        1.0
    ]
}