{
    "size": 10,
    "voltages": [
        0.0,
        0.0,
        0.0,
        0.0,
        0.0,
        0.0,
        0.0,
        0.0,
        0.0,
        0.0
    ],
    "time_constants": [
        1.0,
        1.0,
        1.0,
        1.0,
        1.0,
        1.0,
        1.0,
        1.0,
        1.0,
        1.0
    ],
    "biases": [
        -3.673056632221627,
        3.063740617181004,
        3.545825776141097,
        3.187814028714808,
        -6.006912101015949,
        -13.764042407581183,
        9.62349549489688,
        13.165889604266212,
        -9.770411870638814,
        -9.260555556707715
    ],
    "inner_weights": [
        [
            -11.066789043850484,
            7.681590288492952,
            -7.5739195140756905,
            1.0796605881695278,
            -15.53360120046657,
            13.399904259196319,
            12.822875331744392,
            -14.930514315956973,
            14.622378760803738,
            -11.609301716605554
        ],
        [
            -6.917492705345733,
            3.394661899482525,
            14.215204353697349,
            11.287537315497119,
            -15.927704527407567,
            0.679232871049372,
            1.66520426446613,
            -0.4679227627932896,
            8.580292930061514,
            -10.857063899981757
        ],
        [
            8.46593441084412,
            -15.334086465533883,
            -11.67327429218826,
            -12.279263443145926,
            -6.083277296319064,
            5.486484646784085,
            -0.9206470959995485,
            10.11738553747286,
            -6.733222927022286,
            7.46003128360546
        ],
        [
            6.483915368167882,
            -5.517776759570463,
            -5.291279068606215,
            15.297858528528604,
            3.9866275755312763,
            14.410032790384811,
            8.55922081985564,
            10.400296102872751,
            -2.9875103421868268,
            -1.558130834517943
        ],
        [
            -3.1797879244264458,
            15.844421130833872,
            -10.317946369987542,
            14.803100896891209,
            -2.583991351708601,
            -2.430321710368041,
            -1.1792361687249304,
            -4.0408592376347094,
            -1.1037407944796485,
            -14.874615632934248
        ],
        [
            -13.303274568580939,
            7.440662340542403,
            4.3583998026517605,
            -15.106950756430958,
            -6.394558085632429,
            -8.932719333475664,
            -14.239360213113596,
            0.7438742649053403,
            -2.6761709665724744,
            -14.457000005581747
        ],
        [
            2.3169444969474995,
            9.712532821676042,
            -12.364744974725856,
            -7.132249138393721,
            4.5336989339335325,
            -0.23240622603174899,
            0.20979442137903348,
            -1.2339116778894343,
            12.631778365692504,
            3.384886180338718
        ],
        [
            3.307379301361717,
            -1.7961006018793952,
            -0.6385029335395132,
            12.430320871350172,
            -9.327984369274237,
            14.226606789002396,
            -13.648958593847503,
            3.0448786123548963,
            -15.003165732743476,
            5.2882378409852535
        ],
        [
            4.396335844511022,
            11.598885193523682,
            14.13240679486902,
            -1.7399342908599778,
            5.43864423794416,
            13.578582388223733,
            3.821550936567892,
            -5.677256553317957,
            -5.776758050125402,
            -6.673386079787107
        ],
        [
            14.637357559649828,
            -3.0093330252914328,
            14.2897863156097,
            11.430097882622196,
            6.045685313038643,
            -15.894784999925132,
            12.803311989023438,
            13.435675870794348,
            -15.810900612208503,
            4.57363674994706
        ]
    ],
    "outputs": [
        0.0,
        0.0,
        0.0,
        0.0,
        0.0,
        0.0,
        0.0,
        0.0,
        0.0,
        0.0
    ],
    "weight_range": 16,
    "bias_range": 16,
    "tc_min": 1,
    "tc_max": 1,
    "inv_time_constants": [
        1.0,
        1.0,
        1.0,
        1.0,
        1.0,
        1.0,
        1.0,
        1.0,
        1.0,
        1.0
    ]
}