{
    "size": 10,
    "voltages": [
        0.0,
        0.0,
        0.0,
        0.0,
        0.0,
        0.0,
        0.0,
        0.0,
        0.0,
        0.0
    ],
    "time_constants": [
        1.0,
        1.0,
        1.0,
        1.0,
        1.0,
        1.0,
        1.0,
        1.0,
        1.0,
        1.0
    ],
    "biases": [
        1.2478574755209628,
        5.83101246180086,
        -12.94209611256072,
        7.375569164334333,
        3.3399517961457015,
        -15.491597462472043,
        8.805317984878862,
        5.126189502003445,
        -3.241924744677501,
        15.37677663742208
    ],
    "inner_weights": [
        [
            -10.061591205806742,
            -3.6288223026537594,
            10.620678356389433,
            -9.64168163072377,
            13.329854908783734,
            9.225942420430378,
            7.123337100154796,
            15.862224667662872,
            11.051908562805437,
            -8.520749112891977
        ],
        [
            -5.682738181484837,
            6.932992232285422,
            -12.709363188883327,
            3.20290182578794,
            -11.639555266359896,
            12.776124258151114,
            -8.127766283781835,
            14.51509301856034,
            9.22529737258878,
            -2.108982724459029
        ],
        [
            -7.851982334828065,
            -4.107883371314735,
            2.2210268956250196,
            -6.798038085411235,
            11.50179930602052,
            13.651945369767702,
            -14.799920985009443,
            -5.629365953235116,
            -5.189064087527839,
            4.067476642877807
        ],
        [
            -13.584544903140124,
            -8.751284812150978,
            13.462510044781403,
            -7.882346557076794,
            12.061803715961634,
            -6.6934380327606995,
            -8.440785021082679,
            -10.082703111880157,
            -11.609060388019682,
            -0.5409755978998696
        ],
        [
            7.382159563072644,
            8.58449623767989,
            -6.08655241721938,
            6.239916738263457,
            14.398380391353822,
            0.9524911521397925,
            -2.580035652874688,
            2.074965987607463,
            8.695120850175318,
            -2.072011438453881
        ],
        [
            6.770818136627973,
            6.365610622601817,
            -10.901833262021384,
            -15.55915565388364,
            11.431059138375009,
            1.6162427722362338,
            -13.463051000522437,
            1.230162285930735,
            -7.899006130247063,
            15.219102322978774
        ],
        [
            -7.468085684279913,
            3.6362312918286115,
            -8.878066464165219,
            -11.28180929056344,
            -1.6187030675821603,
            15.093477249427842,
            14.866986605348501,
            -12.072318268779359,
            -4.32111206467593,
            -12.318583925076254
        ],
        [
            12.55135472205917,
            2.1789677299357244,
            14.097807985347707,
            -8.438136879020643,
            11.510324902028099,
            5.039267610558113,
            -4.573191743002965,
            -9.847012294126475,
            -7.244983815258902,
            10.725723546411011
        ],
        [
            15.433376990362607,
            3.6931040022943193,
            7.779939684147276,
            -6.39104196490889,
            10.596788532363636,
            -2.3250538375893903,
            -11.508577298160983,
            7.265674222539214,
            9.416565193991453,
            9.792282455429724
        ],
        [
            9.71059079286103,
            -10.992098669899683,
            11.79825779168393,
            9.457790647872525,
            8.527467258042524,
            1.2898176231455238,
            6.089748182714615,
            8.109171544841661,
            11.166264037573388,
            -13.547975536616601
        ]
    ],
    "outputs": [
        0.0,
        0.0,
        0.0,
        0.0,
        0.0,
        0.0,
        0.0,
        0.0,
        0.0,
        0.0
    ],
    "weight_range": 16,
    "bias_range": 16,
    "tc_min": 1,
    "tc_max": 1,
    "inv_time_constants": [
        1.0,
        1.0,
        1.0,
        1.0,
        1.0,
        1.0,
        1.0,
        1.0,
        1.0,
        1.0
    ]
}