{
    "size": 10,
    "voltages": [
        0.0,
        0.0,
        0.0,
        0.0,
        0.0,
        0.0,
        0.0,
        0.0,
        0.0,
        0.0
    ],
    "time_constants": [
        1.0,
        1.0,
        1.0,
        1.0,
        1.0,
        1.0,
        1.0,
        1.0,
        1.0,
        1.0
    ],
    "biases": [
        -6.706040350844031,
        -3.572249821920213,
        -11.926224463587761,
        -9.190031705647346,
        8.161717966618848,
        2.5238619068902146,
        4.2186146243227896,
        14.641996934646702,
        -12.983892318848604,
        -11.9127396675355
    ],
    "inner_weights": [
        [
            11.484456553377271,
            -4.073243040791041,
            1.7641208959550951,
            14.581009567736565,
            7.573427136359161,
            10.118564451599386,
            -12.765230070124009,
            13.711618253053985,
            3.4914934077218973,
            3.089709955944798
        ],
        [
            -13.062907686521534,
            -4.954040214228556,
            5.208080741938804,
            -1.865168369240454,
            1.6476091646067381,
            6.518799725666675,
            2.8608394016485015,
            -14.402151698702507,
            1.9773388779134962,
            8.523471115974761
        ],
        [
            13.149066549368321,
            -13.026881701184369,
            12.880684483590908,
            -1.2492670117627753,
            -1.5354089733843033,
            15.981615586571362,
            -10.802440206311847,
            6.699858694372875,
            -10.860029529672246,
            9.944856578867107
        ],
        [
            -14.875290411972713,
            1.1163753198486077,
            -10.671996063167068,
            -6.130867841032487,
            -14.558002787474216,
            -8.365563957634823,
            5.5947049513735045,
            9.036247984564351,
            6.246452305421062,
            -5.473457619067183
        ],
        [
            -0.19098027833863185,
            0.7718836070858472,
            -6.446680150818462,
            -1.1805395146418576,
            15.513097363966821,
            0.03631747300423882,
            -3.261681699934716,
            7.2929701399167115,
            11.62659105194269,
            -15.162574808609165
        ],
        [
            -6.719450205585186,
            9.250214212519936,
            -1.3721705766342644,
            -15.778288625764251,
            -2.581265383252166,
            -5.418407557622455,
            3.332868086164325,
            -5.612133227206559,
            15.400034579866837,
            2.823422428695654
        ],
        [
            -11.805057653992726,
            0.6712865163953481,
            -4.544691190902643,
            -15.520000722760884,
            -12.91424298756591,
            9.09551317309705,
            -2.335902580853947,
            -9.665541671302382,
            3.9712488535240773,
            4.4892460557856175
        ],
        [
            -7.337512066324859,
            -11.845830929018714,
            -0.8728602623060944,
            -3.4999527453794386,
            -3.037436292998329,
            -3.96323069645862,
            -6.650408069630775,
            1.6922428852908418,
            -2.202060427398571,
            9.080372122776172
        ],
        [
            6.424742302162773,
            8.845102603022934,
            -6.789454543404759,
            -9.269934556201093,
            0.13163274576551487,
            -11.739995715176242,
            -10.516356220972202,
            -8.145145024429382,
            -14.63476667497882,
            -8.755620661849662
        ],
        [
            4.023427871497876,
            4.298337075666396,
            1.054069677887263,
            7.532337548315994,
            10.085298853229524,
            -4.00460234102156,
            9.75752029129453,
            12.148780797607674,
            2.7804557354862176,
            4.987115306249869
        ]
    ],
    "outputs": [
        0.0,
        0.0,
        0.0,
        0.0,
        0.0,
        0.0,
        0.0,
        0.0,
        0.0,
        0.0
    ],
    "weight_range": 16,
    "bias_range": 16,
    "tc_min": 1,
    "tc_max": 1,
    "inv_time_constants": [
        1.0,
        1.0,
        1.0,
        1.0,
        1.0,
        1.0,
        1.0,
        1.0,
        1.0,
        1.0
    ]
}