{
    "size": 10,
    "voltages": [
        0.0,
        0.0,
        0.0,
        0.0,
        0.0,
        0.0,
        0.0,
        0.0,
        0.0,
        0.0
    ],
    "time_constants": [
        1.0,
        1.0,
        1.0,
        1.0,
        1.0,
        1.0,
        1.0,
        1.0,
        1.0,
        1.0
    ],
    "biases": [
        11.57077520426699,
        -15.208142273142105,
        13.87318024090871,
        10.659262791665782,
        -3.6697602417058874,
        -8.253432577879796,
        -3.2897101119084766,
        -11.807400231983866,
        14.86585967222208,
        -9.740428841655213
    ],
    "inner_weights": [
        [
            -9.130019551461547,
            13.104075882933234,
            10.151531941230619,
            12.924175191523435,
            6.620136639181695,
            -12.221561557091697,
            -13.043173917579065,
            1.983167946005743,
            2.285182885957628,
            -14.753377133611398
        ],
        [
            -5.550481097799185,
            -6.693818112028389,
            0.33802167534358674,
            -6.276901883595269,
            -6.280192485178823,
            -11.418490822949845,
            -14.837439087371635,
            -3.2244691842103848,
            7.8989450458423285,
            11.358967928365455
        ],
        [
            4.949774730429009,
            14.921281406580999,
            4.596970477434951,
            7.8165494893387475,
            10.624082579214488,
            -15.809342169775935,
            1.0674455336218713,
            13.46648232764019,
            -10.134916275271276,
            15.582341830262148
        ],
        [
            -0.9730532016011644,
            1.8002372121217824,
            -7.9638399339198465,
            -2.0428082814642394,
            10.404514611263721,
            4.383599542590012,
            10.336211059490623,
            -6.932283428507759,
            -1.5766617866443227,
            -10.404729026624413
        ],
        [
            -14.560128008311889,
            5.315917571205219,
            -5.555606852269921,
            -7.708046343601847,
            7.929618197096179,
            6.2666604757606095,
            14.907768652083007,
            -5.283076650545411,
            12.458683833230701,
            -2.3115054447140047
        ],
        [
            13.845522421378789,
            8.590081141683427,
            -9.084973089812209,
            11.538140953173006,
            11.427479956417873,
            15.987152777992115,
            -6.346750641294271,
            -7.138567332737544,
            -5.147390644282769,
            -8.82933871401174
        ],
        [
            -6.236345617756658,
            6.829601524186387,
            4.048493111611535,
            -8.183424104476,
            -9.815686578030235,
            15.685716825723375,
            -4.221654400328106,
            -10.206500267988659,
            -7.939671113382168,
            10.999290579942517
        ],
        [
            -2.2497383203654024,
            7.650530262190298,
            -11.430331601012472,
            8.25489391307169,
            10.061231885113017,
            -6.098717536562006,
            -14.580959965934706,
            -15.204479724614373,
            -4.638310819506852,
            13.183331609366629
        ],
        [
            -12.439968817879112,
            8.08411807551256,
            5.427976695133093,
            1.5929130373974054,
            -8.216971112064488,
            -7.654660631949444,
            14.357317517933325,
            -13.71921397467289,
            -7.5191928929615415,
            -12.688301530199336
        ],
        [
            -5.390058322400112,
            -4.377646476281711,
            -7.5187597366693275,
            11.885160667263538,
            10.564727853239678,
            15.34470336385376,
            1.482186124638357,
            1.6075696547310585,
            -12.38547439358026,
            6.520615457953038
        ]
    ],
    "outputs": [
        0.0,
        0.0,
        0.0,
        0.0,
        0.0,
        0.0,
        0.0,
        0.0,
        0.0,
        0.0
    ],
    "weight_range": 16,
    "bias_range": 16,
    "tc_min": 1,
    "tc_max": 1,
    "inv_time_constants": [
        1.0,
        1.0,
        1.0,
        1.0,
        1.0,
        1.0,
        1.0,
        1.0,
        1.0,
        1.0
    ]
}