{
    "size": 10,
    "voltages": [
        0.0,
        0.0,
        0.0,
        0.0,
        0.0,
        0.0,
        0.0,
        0.0,
        0.0,
        0.0
    ],
    "time_constants": [
        1.0,
        1.0,
        1.0,
        1.0,
        1.0,
        1.0,
        1.0,
        1.0,
        1.0,
        1.0
    ],
    "biases": [
        10.130612749595578,
        -11.260000038914825,
        5.563635967890178,
        2.5691202912676943,
        -4.174150708084927,
        -11.615988227029732,
        11.470900201761491,
        -7.1100256141269185,
        -2.379332730345908,
        7.488816584750754
    ],
    "inner_weights": [
        [
            -13.204811427130398,
            -8.624732814344704,
            -2.8460457395547927,
            -6.054953646077216,
            2.1105885043681774,
            1.4420385210832158,
            9.827182170572055,
            13.38096343307512,
            0.7069040909976678,
            -2.4100076355748783
        ],
        [
            -13.70227345441159,
            12.75292320573497,
            -2.543557566238519,
            2.6294332140286585,
            -9.147086851985499,
            -1.6804582469416651,
            -1.028358259669389,
            -12.779610978016642,
            13.67321263367069,
            -10.84842098103897
        ],
        [
            11.987013782782999,
            -14.330878180535734,
            15.752946240354031,
            -12.635285892995839,
            -3.136324709218833,
            -13.701230257887904,
            -15.385822792909522,
            7.0820527001016735,
            -14.673092314217012,
            -15.403182839048998
        ],
        [
            -13.345992353658861,
            -7.011054276524231,
            -2.267465350978899,
            -15.368628997801657,
            -1.2266273019172864,
            5.426770440503702,
            5.537403718380929,
            9.502908922730555,
            -13.320952216146114,
            12.63596613571281
        ],
        [
            9.17463218023887,
            5.248771542443581,
            11.285726333440468,
            1.4204140034209338,
            -9.680914950924453,
            1.2386986164939593,
            0.2332796999806348,
            -7.1245745410697445,
            5.391495321020965,
            7.4034346743348
        ],
        [
            6.166848024578453,
            3.1764561829947233,
            -9.720390562011783,
            5.095723609513911,
            -6.124525979209686,
            -4.180129735630292,
            -6.886906918735377,
            13.667748858961982,
            8.816693799898367,
            4.522094242860046
        ],
        [
            -6.845988987028804,
            5.271532149429557,
            -11.69381393757918,
            -0.17078897294401685,
            4.695966002383656,
            14.017443320315568,
            15.920887088076121,
            9.881752001198791,
            -1.424591507338782,
            6.112104740233413
        ],
        [
            6.641852671641228,
            -3.8997094361576004,
            2.606580549053401,
            4.099405596495586,
            -12.462208481029567,
            5.183975012179328,
            2.5181279278149376,
            -6.05958789378904,
            -3.4812310522207,
            -2.779458261538668
        ],
        [
            13.706798549991476,
            -6.124388887445921,
            5.7299457163891745,
            -7.697322936187536,
            -12.055745944896671,
            -9.703057142595796,
            11.311704667449952,
            -6.204454884657103,
            1.613816939047414,
            14.702084041605005
        ],
        [
            12.347402526970232,
            -1.5434369536905166,
            -10.580673631043851,
            -6.5192920753180275,
            1.2656502660825453,
            8.356774101725168,
            12.458644000164334,
            2.169517431235647,
            -0.8179853892693849,
            8.444595306233147
        ]
    ],
    "outputs": [
        0.0,
        0.0,
        0.0,
        0.0,
        0.0,
        0.0,
        0.0,
        0.0,
        0.0,
        0.0
    ],
    "weight_range": 16,
    "bias_range": 16,
    "tc_min": 1,
    "tc_max": 1,
    "inv_time_constants": [
        1.0,
        1.0,
        1.0,
        1.0,
        1.0,
        1.0,
        1.0,
        1.0,
        1.0,
        1.0
    ]
}