{
    "size": 10,
    "voltages": [
        0.0,
        0.0,
        0.0,
        0.0,
        0.0,
        0.0,
        0.0,
        0.0,
        0.0,
        0.0
    ],
    "time_constants": [
        1.0,
        1.0,
        1.0,
        1.0,
        1.0,
        1.0,
        1.0,
        1.0,
        1.0,
        1.0
    ],
    "biases": [
        13.760980421996248,
        -3.4120184881771856,
        -9.767437488090458,
        7.96900190751651,
        -1.557602422237796,
        -12.326532592476859,
        -15.079445583288326,
        -7.071305927388735,
        10.373334812096449,
        -7.847091394323947
    ],
    "inner_weights": [
        [
            -15.440311330203116,
            12.53034454976827,
            -6.884442640834614,
            -6.432755921313348,
            9.34509634097374,
            -5.616940880696678,
            11.670732374088267,
            -1.6795957691560268,
            1.5433570032030133,
            -4.5704961654403355
        ],
        [
            -12.406015187433287,
            -11.459291044854492,
            -1.7613095452100822,
            7.4233672059811795,
            -1.276760697719311,
            2.9678210872119166,
            -5.225156562269401,
            -1.4583097334947261,
            -10.011911269423209,
            -2.9172731751452616
        ],
        [
            -11.772734721730686,
            -14.812469920485164,
            -13.376389415964447,
            -9.169921565429078,
            1.4473364388719254,
            4.962123147951122,
            2.841213305988191,
            2.3994747888322934,
            -5.290069834057782,
            -3.821681961697884
        ],
        [
            -3.14749785832689,
            5.73839462844294,
            -11.32235454132627,
            9.241094985540343,
            -14.802334220020978,
            3.6361723995653357,
            -11.133829585912423,
            8.700065604755505,
            -7.580190722456187,
            8.703015353540763
        ],
        [
            -6.801524850107793,
            4.853739968080021,
            14.418842835298872,
            13.39117895892159,
            -10.726931832661336,
            -5.190601262527082,
            -13.117857091955628,
            6.170826627996636,
            5.757270142013823,
            13.09330143217024
        ],
        [
            -6.2055690675968265,
            -10.172559813631118,
            -14.887110100465467,
            -4.153630377770575,
            14.811116173280993,
            2.5358508848108627,
            12.465931187008714,
            0.5663945068480025,
            7.299229484558165,
            -3.7507564666522235
        ],
        [
            15.736171214974402,
            -3.435656582386592,
            -11.434705753878706,
            13.0246534588929,
            -14.055211714714577,
            -13.067425786418351,
            -1.0633284243241299,
            -15.974486270178303,
            6.061050616218939,
            -3.8154854636055617
        ],
        [
            6.80112140349382,
            3.416395947523288,
            13.645667966953436,
            -13.443110734973573,
            3.7281835258168314,
            3.1795258698346913,
            -4.705941948508929,
            -5.1935612254520365,
            -15.502983858926243,
            10.591372179385264
        ],
        [
            7.819760571978836,
            -4.794545073158286,
            -0.49023978517884004,
            2.3658265223532595,
            -7.092311813563239,
            -7.046787168880499,
            15.493191042873352,
            -1.7062894171581036,
            -13.866664364360012,
            -4.444950140832702
        ],
        [
            -14.724937820760175,
            -15.223123926343469,
            9.571017685049899,
            9.808003390018648,
            -7.400195465771077,
            -8.271168924591475,
            -7.731405120917135,
            15.622286442991985,
            6.867611749460444,
            3.4342219729547203
        ]
    ],
    "outputs": [
        0.0,
        0.0,
        0.0,
        0.0,
        0.0,
        0.0,
        0.0,
        0.0,
        0.0,
        0.0
    ],
    "weight_range": 16,
    "bias_range": 16,
    "tc_min": 1,
    "tc_max": 1,
    "inv_time_constants": [
        1.0,
        1.0,
        1.0,
        1.0,
        1.0,
        1.0,
        1.0,
        1.0,
        1.0,
        1.0
    ]
}