{
    "size": 10,
    "voltages": [
        0.0,
        0.0,
        0.0,
        0.0,
        0.0,
        0.0,
        0.0,
        0.0,
        0.0,
        0.0
    ],
    "time_constants": [
        1.0,
        1.0,
        1.0,
        1.0,
        1.0,
        1.0,
        1.0,
        1.0,
        1.0,
        1.0
    ],
    "biases": [
        -4.636937532499605,
        15.563154796043868,
        13.019753515645,
        1.6062397489749785,
        2.645927924280027,
        -0.7052817111219944,
        -5.328021705962438,
        -13.458369907141915,
        -6.596864890396603,
        -14.035464559873308
    ],
    "inner_weights": [
        [
            -6.8462777068635,
            14.659378128608001,
            8.650013831004095,
            15.579840098958812,
            -9.338705219048922,
            -11.618654436997499,
            13.067961673276805,
            -13.803567424732151,
            -13.589352885130971,
            1.3931100635940084
        ],
        [
            -13.139209071421824,
            -3.763415439157974,
            5.393934069795797,
            -2.2665912780210142,
            -14.593398160435093,
            -9.782848360031341,
            -1.7068965128713351,
            -13.997655100735663,
            -6.4778469755146055,
            14.196188797360481
        ],
        [
            -6.950045575644882,
            -7.4338065103090045,
            -2.9689918676995752,
            10.431692894494855,
            0.2144212221481041,
            -7.376787806530743,
            -5.113974802585808,
            15.183099247682328,
            -10.10225346814843,
            -8.247290475983394
        ],
        [
            6.094698038400882,
            -3.7140711547458274,
            -1.233841507326293,
            5.607199585425715,
            -13.256620676719152,
            -8.511467286853744,
            0.7186841031598341,
            -13.788266382896062,
            -13.112425654771677,
            -13.313028544533267
        ],
        [
            -5.670382313606442,
            13.14890879555563,
            10.623680415724905,
            8.002568630095737,
            -0.9838779280924008,
            11.754379853586073,
            -7.062787050048559,
            -13.387644886757059,
            -11.225232738231636,
            -0.1674385677253909
        ],
        [
            -6.2812182068095765,
            -6.3434600612532215,
            -15.763618481695868,
            2.5428277368721055,
            6.98617804748525,
            -2.9675685778931147,
            -10.78514559076071,
            -9.270186283407682,
            8.32393683452191,
            -4.550779221658495
        ],
        [
            -3.6143636337159997,
            8.125553862931294,
            11.757969489688776,
            7.987994024227273,
            -3.28205367646213,
            -2.557444414998585,
            1.7144259092670815,
            -1.1045447258931134,
            11.570212370763148,
            10.359476897807596
        ],
        [
            -13.630576367355289,
            -5.738912523829136,
            -2.547647457841279,
            5.162947546715586,
            4.208423175675065,
            0.48541114232683213,
            -4.686493409037375,
            -14.648529240354353,
            -14.818494502216062,
            8.968207821987459
        ],
        [
            -10.232558216806247,
            -3.1071647035855428,
            10.417670209119859,
            -1.9507773757150524,
            1.3605054801300902,
            -15.510490312792019,
            -2.1702563916838606,
            -1.1479687054198244,
            -5.8001752419982715,
            3.802622900394937
        ],
        [
            -8.60791208847812,
            -11.145143611424448,
            -4.00306452545933,
            4.27475114060902,
            -4.478146448704621,
            1.6640069680697884,
            9.032206324103033,
            5.833442100799093,
            12.941118883044396,
            8.687747685066714
        ]
    ],
    "outputs": [
        0.0,
        0.0,
        0.0,
        0.0,
        0.0,
        0.0,
        0.0,
        0.0,
        0.0,
        0.0
    ],
    "weight_range": 16,
    "bias_range": 16,
    "tc_min": 1,
    "tc_max": 1,
    "inv_time_constants": [
        1.0,
        1.0,
        1.0,
        1.0,
        1.0,
        1.0,
        1.0,
        1.0,
        1.0,
        1.0
    ]
}