{
    "size": 10,
    "voltages": [
        0.0,
        0.0,
        0.0,
        0.0,
        0.0,
        0.0,
        0.0,
        0.0,
        0.0,
        0.0
    ],
    "time_constants": [
        1.0,
        1.0,
        1.0,
        1.0,
        1.0,
        1.0,
        1.0,
        1.0,
        1.0,
        1.0
    ],
    "biases": [
        10.414872040452018,
        -3.667054024720411,
        -4.660929207939244,
        -2.301487281350223,
        -3.357914190275608,
        11.028150852719541,
        -4.037638106785124,
        -4.109408762050737,
        -2.689825343758457,
        -2.4145767563768707
    ],
    "inner_weights": [
        [
            2.820185634472775,
            12.726839293101374,
            12.528983343190657,
            10.106799273845887,
            -14.851533260260695,
            6.136242616284285,
            -3.8822098558269396,
            0.5923502543385801,
            5.054446897882016,
            -9.796793027745654
        ],
        [
            -7.285875133869315,
            6.995389875237304,
            9.056115502688336,
            11.210484472799852,
            8.807836607819606,
            -14.826742194525256,
            -12.265800475747355,
            8.04098238360643,
            -8.345017081612497,
            -7.846207553851304
        ],
        [
            11.4440169974324,
            14.392928835657688,
            1.9739794563570534,
            -10.27902336480075,
            8.648061860428808,
            -0.2438067323344164,
            4.20009809803345,
            10.86393353323859,
            -1.2467393186422164,
            -0.06591765416623474
        ],
        [
            5.741155761704025,
            4.825149251946563,
            -7.39855236018067,
            -13.845610657951433,
            8.686244427474008,
            -0.6085077664113321,
            -5.4653949525233045,
            0.34051379760485645,
            -7.563877482878183,
            -6.063630398518484
        ],
        [
            4.0593100069232015,
            1.8383939383130397,
            -5.805454093446336,
            -3.365016932530324,
            -7.744813252314074,
            2.631715945126899,
            -10.827881265798805,
            3.140282232480633,
            10.426354472192326,
            -10.995465007649688
        ],
        [
            7.497616618145699,
            -2.923410173477688,
            8.918012939626564,
            9.727058163552275,
            9.154286192859225,
            2.953184596986013,
            5.263654490419306,
            4.690153176819489,
            -2.379632673150372,
            0.43418668024778384
        ],
        [
            0.040250998915112746,
            -14.813318050598426,
            6.659715045808447,
            3.8537792069443064,
            8.889873107751772,
            -1.2988970992678617,
            -3.8462222495190197,
            -6.6594494862809235,
            1.8313235995837474,
            -13.306764745678937
        ],
        [
            4.20101341260947,
            14.226255613451777,
            12.519601118071634,
            12.114642552428524,
            -4.967947935776145,
            6.499217025343032,
            0.8748033515163165,
            5.098142578578223,
            -7.414699722396701,
            3.448546541385184
        ],
        [
            -14.458964159532162,
            6.256020461578469,
            -6.423299915156456,
            -10.699662242998045,
            -5.367937916054803,
            -10.705992143829427,
            13.268415392074207,
            -6.911199810553327,
            -12.556567525098174,
            -12.255943352553565
        ],
        [
            8.176755161463905,
            10.844622662267518,
            -14.862815146511736,
            -12.113799366376103,
            12.512257762036896,
            0.4829514957669474,
            13.581408372117156,
            2.5997641507362594,
            8.744204393804928,
            -2.4743393809614176
        ]
    ],
    "outputs": [
        0.0,
        0.0,
        0.0,
        0.0,
        0.0,
        0.0,
        0.0,
        0.0,
        0.0,
        0.0
    ],
    "weight_range": 16,
    "bias_range": 16,
    "tc_min": 1,
    "tc_max": 1,
    "inv_time_constants": [
        1.0,
        1.0,
        1.0,
        1.0,
        1.0,
        1.0,
        1.0,
        1.0,
        1.0,
        1.0
    ]
}