{
    "size": 10,
    "voltages": [
        0.0,
        0.0,
        0.0,
        0.0,
        0.0,
        0.0,
        0.0,
        0.0,
        0.0,
        0.0
    ],
    "time_constants": [
        1.0,
        1.0,
        1.0,
        1.0,
        1.0,
        1.0,
        1.0,
        1.0,
        1.0,
        1.0
    ],
    "biases": [
        -7.607256934305539,
        -12.772525086552907,
        13.350166597133871,
        0.5587277366025738,
        -11.726730370450124,
        -12.398620350612589,
        10.932516749250468,
        1.4743915689734841,
        -7.647469339279105,
        2.426416570235645
    ],
    "inner_weights": [
        [
            -15.668027075657601,
            0.05998694875964006,
            -0.13525461970732522,
            -11.71745507330315,
            -11.452445265454767,
            -9.006122379965497,
            -2.607738223665521,
            -8.060762610766108,
            -13.310091162708797,
            -4.944043518387197
        ],
        [
            -10.663156910965714,
            12.11389073704509,
            14.430849012054928,
            -14.760051973365766,
            6.371436524760352,
            2.328314098221096,
            12.736227783204786,
            5.340767133428372,
            1.53080905748741,
            6.477677570177768
        ],
        [
            -3.6327305723307077,
            6.222037688462663,
            10.39585486401754,
            -1.0986087882474926,
            14.096781104852994,
            9.719672640394169,
            15.46749594317864,
            -10.571639757319453,
            0.6747107667135133,
            14.256557343239702
        ],
        [
            4.785294821135238,
            11.546621543222294,
            15.067072386887205,
            -10.062666018097257,
            -8.220298389970928,
            11.948826979235992,
            13.000872861552246,
            8.264895577492762,
            -4.89913747918337,
            -1.1668891525101586
        ],
        [
            3.5372077071401407,
            -0.11898503452201581,
            -0.7048315667728993,
            -2.0622251274769354,
            11.853065485648994,
            -10.00452329403451,
            6.0055709821656045,
            6.51293356164442,
            13.606402472675438,
            -14.737445834423454
        ],
        [
            4.707734833443563,
            4.417727510956318,
            -1.2256748009376963,
            -14.302098416467423,
            -14.765730458804533,
            -10.57499474534794,
            9.42553238331326,
            -10.796606510077414,
            -11.56036160705434,
            -4.706657496554179
        ],
        [
            -0.49604943511033284,
            6.327564323960882,
            9.63700581426195,
            -7.463219933697879,
            13.103238696264008,
            -15.26825760097034,
            -3.9960716001352345,
            -9.61173348325681,
            -5.03023266683487,
            -1.7884065585905127
        ],
        [
            -0.05953246842263482,
            -2.7409176064121077,
            -9.143809187682002,
            -9.067529192740412,
            -8.566171928112045,
            7.3307398600452025,
            -2.69060265552665,
            2.6847416964415842,
            -0.181228635753385,
            -2.2385019452420316
        ],
        [
            7.5125061451574275,
            1.7989275777167641,
            -6.315819466879791,
            15.065542234030591,
            -8.805036412054267,
            -11.559386977450473,
            3.6778392115909995,
            -0.25827394288812044,
            -10.139112523096944,
            -12.50206351472961
        ],
        [
            1.2664167975495637,
            -6.742422990456198,
            -12.702270340924052,
            -0.3007504584218985,
            4.2269339114385645,
            -14.784985058337657,
            0.0034534541362951643,
            -13.32661024225775,
            9.322183511820029,
            8.257152797528683
        ]
    ],
    "outputs": [
        0.0,
        0.0,
        0.0,
        0.0,
        0.0,
        0.0,
        0.0,
        0.0,
        0.0,
        0.0
    ],
    "weight_range": 16,
    "bias_range": 16,
    "tc_min": 1,
    "tc_max": 1,
    "inv_time_constants": [
        1.0,
        1.0,
        1.0,
        1.0,
        1.0,
        1.0,
        1.0,
        1.0,
        1.0,
        1.0
    ]
}