{
    "size": 10,
    "voltages": [
        0.0,
        0.0,
        0.0,
        0.0,
        0.0,
        0.0,
        0.0,
        0.0,
        0.0,
        0.0
    ],
    "time_constants": [
        1.0,
        1.0,
        1.0,
        1.0,
        1.0,
        1.0,
        1.0,
        1.0,
        1.0,
        1.0
    ],
    "biases": [
        -5.586456614040653,
        5.449566258996072,
        8.319510943540916,
        -11.915146972724806,
        -13.133527862637209,
        -9.078039857327568,
        10.601458479065297,
        -10.233150589734109,
        -13.265325882503877,
        -10.243416511657095
    ],
    "inner_weights": [
        [
            0.701302928008154,
            6.3810037444692504,
            -7.364192925665591,
            5.583419990047755,
            13.058306666026077,
            5.924806533101034,
            -9.227092992221522,
            -5.847485627962225,
            -7.446419041185447,
            -12.14379780180781
        ],
        [
            15.899420681650547,
            -13.425929940102591,
            -6.892808009921158,
            1.128006374063471,
            11.065667448230354,
            -9.596027645613763,
            9.985393636169032,
            -4.0660226885490225,
            9.908519712178709,
            -15.61615159115506
        ],
        [
            5.378221202461347,
            -6.703225722864975,
            -5.672966228918195,
            -2.633282722319951,
            -0.43532810309941183,
            14.165712638756652,
            7.428727168720808,
            15.219751170141976,
            2.5226288974881506,
            0.4761884426580565
        ],
        [
            -1.758101630352062,
            11.703328855597512,
            3.886229440043021,
            0.938346035755373,
            -13.871459798152067,
            -0.7722566796720933,
            -8.491657125481783,
            0.9403498587565231,
            -12.72191890769636,
            -11.172456827677255
        ],
        [
            14.352056298676768,
            15.177405442158637,
            -13.542810556018058,
            10.28173976463508,
            -13.073379586344899,
            6.874326094112266,
            3.1747546478298716,
            -10.50080418393507,
            6.878295368676319,
            -7.675965376213799
        ],
        [
            12.244977916239531,
            -2.3395032758033842,
            13.171892485754647,
            -15.07016307536544,
            7.611306257585301,
            5.968351708088164,
            14.462444623783735,
            3.9209885823270874,
            15.033413696685617,
            -7.449993930021062
        ],
        [
            10.444793401165832,
            15.008314443619078,
            4.935470200838374,
            2.4094986377974905,
            13.310968937282755,
            13.304751137849447,
            -15.827726744156752,
            2.9275777604484716,
            -15.497886675647191,
            -9.26228396298902
        ],
        [
            7.177033853323078,
            -11.40157385895861,
            6.315898322686859,
            -3.4577610528449156,
            2.879457328404147,
            12.892259645041435,
            -1.690462121342371,
            12.8030759388969,
            1.7755858443063808,
            11.18168734944479
        ],
        [
            -1.0850072442247551,
            -9.736775836869388,
            -6.250156068529904,
            3.082854483945198,
            11.953948811543363,
            14.92707141879016,
            -8.752857335905727,
            9.036207995004041,
            -6.934156950351241,
            8.11498174928452
        ],
        [
            -4.219657497439652,
            -15.552567829820532,
            10.315155013564798,
            -11.809112231446022,
            -2.9121222600670933,
            -10.854574935442386,
            8.289220193733403,
            5.31396439655661,
            9.967605298087914,
            5.0844363057004
        ]
    ],
    "outputs": [
        0.0,
        0.0,
        0.0,
        0.0,
        0.0,
        0.0,
        0.0,
        0.0,
        0.0,
        0.0
    ],
    "weight_range": 16,
    "bias_range": 16,
    "tc_min": 1,
    "tc_max": 1,
    "inv_time_constants": [
        1.0,
        1.0,
        1.0,
        1.0,
        1.0,
        1.0,
        1.0,
        1.0,
        1.0,
        1.0
    ]
}