{
    "size": 10,
    "voltages": [
        0.0,
        0.0,
        0.0,
        0.0,
        0.0,
        0.0,
        0.0,
        0.0,
        0.0,
        0.0
    ],
    "time_constants": [
        1.0,
        1.0,
        1.0,
        1.0,
        1.0,
        1.0,
        1.0,
        1.0,
        1.0,
        1.0
    ],
    "biases": [
        -3.561797206788107,
        5.325046494180789,
        -1.8060644085017934,
        3.486085968000239,
        9.101482360965989,
        14.975231923598507,
        -4.055422915869965,
        5.527177568184538,
        9.84576082959968,
        6.318724683220918
    ],
    "inner_weights": [
        [
            -8.047675921992642,
            -1.600786526374545,
            -2.8498943041106948,
            -7.6704098916192045,
            11.852662027102383,
            -10.07872233081904,
            -15.370834386238592,
            14.504065008118786,
            5.774425751393256,
            -0.42917995038310863
        ],
        [
            14.88085823571053,
            -3.4112403481077322,
            -13.454157718819385,
            -4.75496241875852,
            -10.763674796636952,
            15.461338273084724,
            12.180101894887724,
            -0.18996902042997021,
            -3.169304284208689,
            -1.558673183719577
        ],
        [
            7.068059152124679,
            -8.071414898025399,
            3.9289584769328307,
            -11.441637892306279,
            -9.562358960898727,
            -13.401032657641878,
            14.511113433892028,
            -14.216375371450546,
            3.1851674705739192,
            7.135924175791438
        ],
        [
            15.049271019674304,
            10.290222637189412,
            0.8816341580595548,
            -5.392744654602637,
            -4.672569741094435,
            -13.471030359748088,
            1.7892601736123552,
            -10.69457718752836,
            -6.552389406691482,
            10.89947152507645
        ],
        [
            -4.398015698762489,
            -5.093952719274505,
            6.732855814929014,
            -14.985351951080041,
            -0.8835882865817126,
            7.410451923377536,
            8.742904776437925,
            -8.280166650543396,
            -6.201694543666296,
            -11.627211572878618
        ],
        [
            3.063543031258579,
            -10.797796272652615,
            9.674470858978335,
            0.004052869927420488,
            -14.096181591505271,
            -3.460295168770717,
            3.832816064182083,
            -9.9778610146588,
            -2.3075687961259597,
            -13.152587585795288
        ],
        [
            7.444173922004005,
            -3.4144206274795543,
            -4.987635395571832,
            -3.2996884582699693,
            -15.444095170588021,
            -1.012320109153194,
            12.584016550271844,
            -10.829938818811058,
            11.022702814383663,
            -7.19781450026197
        ],
        [
            8.599440986121007,
            10.688083890777083,
            12.841482166356645,
            15.098397435423546,
            -2.2708426960513,
            5.9546977979780955,
            -5.559120696657089,
            9.519654223542005,
            -2.0950920618780877,
            0.32622060639196704
        ],
        [
            8.426516393864905,
            -10.434587105612614,
            -1.5217427769567458,
            12.742123727480017,
            6.057059866120149,
            -6.848959879785259,
            -2.532368330303857,
            2.173463912245815,
            14.96421073896148,
            1.9427357250040522
        ],
        [
            15.131654762096684,
            -10.52829703931917,
            -8.45102829283088,
            2.1214076659487198,
            4.906078140901574,
            14.843880451080317,
            12.335220746410602,
            -4.216772906729496,
            -5.061477080994507,
            11.221489160260731
        ]
    ],
    "outputs": [
        0.0,
        0.0,
        0.0,
        0.0,
        0.0,
        0.0,
        0.0,
        0.0,
        0.0,
        0.0
    ],
    "weight_range": 16,
    "bias_range": 16,
    "tc_min": 1,
    "tc_max": 1,
    "inv_time_constants": [
        1.0,
        1.0,
        1.0,
        1.0,
        1.0,
        1.0,
        1.0,
        1.0,
        1.0,
        1.0
    ]
}