{
    "size": 10,
    "voltages": [
        0.0,
        0.0,
        0.0,
        0.0,
        0.0,
        0.0,
        0.0,
        0.0,
        0.0,
        0.0
    ],
    "time_constants": [
        1.0,
        1.0,
        1.0,
        1.0,
        1.0,
        1.0,
        1.0,
        1.0,
        1.0,
        1.0
    ],
    "biases": [
        2.008462866499894,
        8.260720342066683,
        1.588852865071832,
        8.279958396527384,
        1.6263678778449204,
        -0.6474767362984721,
        6.645628311194628,
        0.19258513110190023,
        -15.509950557690058,
        13.4947299124386
    ],
    "inner_weights": [
        [
            -12.584377527830057,
            5.898964264917996,
            1.1188037565147901,
            -4.186013544001117,
            -2.796331400754081,
            2.8111192328057797,
            6.914361225343875,
            -10.453310759219203,
            -13.864246608951337,
            0.021723925661888188
        ],
        [
            -2.171289754132779,
            14.293629500317085,
            -2.679684093554652,
            -8.080970043640868,
            -3.067461140026303,
            4.29629068748525,
            2.680424879169273,
            9.027339622635896,
            3.73984624427246,
            4.08853296511807
        ],
        [
            -4.164188174577053,
            -10.611945455849696,
            7.8502737280123895,
            -3.3466850869159117,
            5.137084081228338,
            -5.803383973291329,
            -13.776924691337285,
            -14.435123041052844,
            -1.8673168629775851,
            6.4462694083779155
        ],
        [
            9.22792834852973,
            -8.40527957077482,
            4.834978402716011,
            11.855762766839852,
            -9.26437908294102,
            -11.84348143074224,
            9.776346169912998,
            -14.717802331111756,
            -4.446335358552641,
            5.637595377102965
        ],
        [
            10.47242369713241,
            -2.0322081843345075,
            -13.471916474548959,
            -13.0067858128177,
            6.156180621327138,
            9.434281750076433,
            -5.684136413387446,
            -3.9227925077368617,
            7.45134856787578,
            -7.152386144264021
        ],
        [
            -8.252261430497846,
            -7.32387986024894,
            -10.772189450450128,
            -14.489312848525106,
            10.745751470213154,
            12.61186822478848,
            3.136588414444038,
            -4.656012325009129,
            -13.524020447050503,
            -10.43632236205326
        ],
        [
            -10.280353178185333,
            -2.6233664253764246,
            12.59728777833821,
            -7.63874653475694,
            4.7105169659721575,
            12.621155452494154,
            2.304609736124725,
            -12.717970840817866,
            3.7721827357302082,
            3.9708660099526867
        ],
        [
            6.315621392315251,
            6.626762441255451,
            -6.513995710828873,
            -5.613558478042503,
            -7.210275258437637,
            2.135341927216647,
            -13.48664703884604,
            -1.6763038729708377,
            10.373418635067996,
            10.69383918754123
        ],
        [
            -3.2554586794330085,
            -4.3402183802508,
            -10.550682656534974,
            -11.809950847659707,
            -9.657545405489461,
            -0.1663433506767369,
            7.646531730250842,
            -11.501021682660213,
            -12.023584836714956,
            -10.145263344271221
        ],
        [
            8.010453856990903,
            8.599018404775315,
            10.324399877288553,
            4.800654637228746,
            12.522298735093031,
            10.15060450343729,
            4.750434423890464,
            -11.518297854557417,
            -0.9205919330906198,
            -8.733647057506044
        ]
    ],
    "outputs": [
        0.0,
        0.0,
        0.0,
        0.0,
        0.0,
        0.0,
        0.0,
        0.0,
        0.0,
        0.0
    ],
    "weight_range": 16,
    "bias_range": 16,
    "tc_min": 1,
    "tc_max": 1,
    "inv_time_constants": [
        1.0,
        1.0,
        1.0,
        1.0,
        1.0,
        1.0,
        1.0,
        1.0,
        1.0,
        1.0
    ]
}