{
    "size": 10,
    "voltages": [
        0.0,
        0.0,
        0.0,
        0.0,
        0.0,
        0.0,
        0.0,
        0.0,
        0.0,
        0.0
    ],
    "time_constants": [
        1.0,
        1.0,
        1.0,
        1.0,
        1.0,
        1.0,
        1.0,
        1.0,
        1.0,
        1.0
    ],
    "biases": [
        8.641204177391376,
        9.290616205184111,
        0.8507628493119377,
        -7.798635835255137,
        15.851676179475088,
        -12.588052163781356,
        -2.7218789068348173,
        -11.05215573922781,
        0.22654452728464847,
        9.82005164284903
    ],
    "inner_weights": [
        [
            5.512913876185337,
            -0.3814912243013211,
            10.415845569148683,
            -14.99371559595846,
            9.857598827675126,
            2.0997574275369786,
            -6.476080041473793,
            -14.505736943777496,
            15.700076783065477,
            -15.781576542603034
        ],
        [
            8.633376902078073,
            7.896547231817589,
            -3.9219540372811146,
            -0.18728152828877143,
            13.726348547058535,
            -3.3454705809337497,
            15.16660149852672,
            0.781270892007683,
            -13.004381014471917,
            10.025869209028127
        ],
        [
            -9.226022861140368,
            1.7390651069019327,
            -6.647388289306829,
            10.116555519590023,
            10.497362118617964,
            -8.909524104653514,
            4.6347104513059705,
            -12.954188098127027,
            -2.8267763570259703,
            -12.900311639594651
        ],
        [
            -11.391648034954091,
            -9.209722389902176,
            -0.7470030574124813,
            -13.516357228799524,
            -8.478598991214891,
            -15.790303914202749,
            12.756613986316793,
            1.671501660085223,
            -10.638507913142288,
            13.72410187186355
        ],
        [
            1.3468063621735062,
            -14.663726998584323,
            0.7960588787844145,
            4.484561296458395,
            9.62106123668514,
            10.71740325409953,
            -7.915768635123758,
            14.984752408809086,
            -1.0803796892850492,
            -7.549082564644095
        ],
        [
            1.5801093701143003,
            -3.9253188081473027,
            -9.48069286453778,
            13.29479996735504,
            14.053677532329974,
            10.79979496240815,
            -2.1507412738845737,
            6.91561446151254,
            11.243007701497138,
            -13.470506070037302
        ],
        [
            -2.881326843454257,
            4.530243224750837,
            15.246442310939525,
            6.56922749589943,
            4.371843286766676,
            -9.427625252267358,
            -6.621916386115508,
            -10.8796776309919,
            -6.274137478924281,
            6.992204152890448
        ],
        [
            14.655359966050746,
            -15.494968948698627,
            -5.99697735201293,
            -14.434794016766755,
            11.992668558506598,
            6.200252783449606,
            10.44987276707677,
            13.387140758672079,
            -11.100209446470487,
            -0.9590841358432662
        ],
        [
            1.4805963318566704,
            0.5200930658138532,
            7.05336184758719,
            10.320804768218228,
            -8.471470738308078,
            -12.622719710419776,
            3.644161338530843,
            -8.20299827103467,
            10.462286767060743,
            -1.1030651179014122
        ],
        [
            6.112956116749647,
            -4.6463035426301005,
            -12.689077422425889,
            -6.43585924495223,
            -10.777315952985443,
            -8.549627372264066,
            1.4213572071840765,
            -4.642841064317441,
            7.82871206386519,
            4.741082252706054
        ]
    ],
    "outputs": [
        0.0,
        0.0,
        0.0,
        0.0,
        0.0,
        0.0,
        0.0,
        0.0,
        0.0,
        0.0
    ],
    "weight_range": 16,
    "bias_range": 16,
    "tc_min": 1,
    "tc_max": 1,
    "inv_time_constants": [
        1.0,
        1.0,
        1.0,
        1.0,
        1.0,
        1.0,
        1.0,
        1.0,
        1.0,
        1.0
    ]
}