{
    "size": 10,
    "voltages": [
        0.0,
        0.0,
        0.0,
        0.0,
        0.0,
        0.0,
        0.0,
        0.0,
        0.0,
        0.0
    ],
    "time_constants": [
        1.0,
        1.0,
        1.0,
        1.0,
        1.0,
        1.0,
        1.0,
        1.0,
        1.0,
        1.0
    ],
    "biases": [
        12.570141715486166,
        -8.438840796153162,
        -9.258295937203297,
        -4.603138669891035,
        0.6603622038906458,
        2.7107250117658985,
        3.5923554050974396,
        -6.549492396994861,
        -12.69563219001321,
        15.967079628548667
    ],
    "inner_weights": [
        [
            -3.6872601754642,
            11.51065109089981,
            14.214388345837442,
            6.490396595543341,
            4.276291109485019,
            3.390761023699138,
            -9.595941028483058,
            -3.603587594665562,
            -7.712538759954189,
            -13.612566994567427
        ],
        [
            -7.009376810310695,
            -1.9701071633264071,
            -0.5360306051371779,
            11.791663561196632,
            0.9481402881371075,
            1.992420615512188,
            -0.9262289921538951,
            6.042944223898299,
            0.15451537204413412,
            10.341624152502803
        ],
        [
            14.731748927570752,
            11.460615638884043,
            -6.106354417658739,
            1.59107399932957,
            4.949708212328396,
            14.427479285802676,
            15.19262872274248,
            -1.6468909429633065,
            9.576733720428471,
            7.307316385638934
        ],
        [
            -13.179342226082891,
            9.377107492951968,
            13.541257457738773,
            3.6769996398029754,
            -9.254850370365041,
            -8.267481981434898,
            -2.7782715964321376,
            7.334059933735968,
            -15.517108766727638,
            -10.10308168259353
        ],
        [
            -1.8229324831239495,
            3.1487798458024407,
            -11.929824554352464,
            9.979041482932644,
            -9.027880883015385,
            -13.106368849206298,
            -12.122629196967406,
            15.743951657114163,
            -5.6322599686343295,
            -3.1442868220009252
        ],
        [
            -0.6803963433950138,
            -2.633448817450205,
            -6.5659876324398,
            2.2242361637094454,
            -4.374855252466972,
            -7.99776693621504,
            -1.8600574953178146,
            3.240573028462002,
            -5.457358166852771,
            4.746096031556629
        ],
        [
            -2.6472428077648047,
            -6.696447913413479,
            6.058472388978249,
            13.434877610528961,
            2.5379359725641173,
            5.444871747403589,
            4.607964774001999,
            5.200280822935824,
            -3.480044387274784,
            7.321491390851847
        ],
        [
            4.352596315218982,
            -1.3417983176490118,
            -15.131120122072012,
            0.8411112222435015,
            -1.418510442247353,
            4.536820698612498,
            1.4070569792920224,
            14.963034780615708,
            9.213420883939158,
            3.70387231611096
        ],
        [
            -2.6669988442641213,
            7.861395366385786,
            -14.954179729069025,
            -15.364687136966129,
            7.586353618842541,
            0.5150980180513081,
            -6.479059329328059,
            1.37017996709913,
            11.188028967500081,
            -4.476205180749336
        ],
        [
            11.950918464440594,
            11.364374017371137,
            -8.885459480537616,
            4.816652461618304,
            14.38744039543256,
            5.662045544511887,
            0.32326884433559755,
            -8.021499378891676,
            -11.286013133185666,
            -2.95512599407688
        ]
    ],
    "outputs": [
        0.0,
        0.0,
        0.0,
        0.0,
        0.0,
        0.0,
        0.0,
        0.0,
        0.0,
        0.0
    ],
    "weight_range": 16,
    "bias_range": 16,
    "tc_min": 1,
    "tc_max": 1,
    "inv_time_constants": [
        1.0,
        1.0,
        1.0,
        1.0,
        1.0,
        1.0,
        1.0,
        1.0,
        1.0,
        1.0
    ]
}