{
    "size": 10,
    "voltages": [
        0.0,
        0.0,
        0.0,
        0.0,
        0.0,
        0.0,
        0.0,
        0.0,
        0.0,
        0.0
    ],
    "time_constants": [
        1.0,
        1.0,
        1.0,
        1.0,
        1.0,
        1.0,
        1.0,
        1.0,
        1.0,
        1.0
    ],
    "biases": [
        -13.83874618142222,
        -11.858030297936317,
        15.82425561394177,
        -8.696317770165905,
        0.5459007238909663,
        -10.49745782700764,
        6.151248769192367,
        -1.8422245140890574,
        -8.81906611100711,
        -1.0175406891231091
    ],
    "inner_weights": [
        [
            10.383023229225017,
            -10.196808560089607,
            12.074456582625682,
            -0.014358164907545046,
            14.87764586312571,
            -15.886542502088613,
            13.556619092428324,
            4.142205223505414,
            -6.262478240020741,
            -5.090397373867702
        ],
        [
            -11.49647421715147,
            -0.415943172590012,
            12.193495047832968,
            -1.5041588343664642,
            -0.8000582381449277,
            12.23489700053338,
            5.358839898196479,
            -13.381479672940042,
            -15.109650384058817,
            7.041070723851444
        ],
        [
            6.77830404595964,
            -14.724058431448022,
            -1.0877232879125032,
            -4.243362822902505,
            3.1751354128200973,
            7.18997352203457,
            -9.856405239320832,
            0.9030055336028049,
            -6.673820813389373,
            -11.536281767859741
        ],
        [
            14.59140611541708,
            3.361411057932525,
            13.129029888927327,
            -1.3493877222628612,
            -14.608548774058214,
            -11.949998860149737,
            -5.293783833625781,
            -1.668615069781307,
            -2.368869634582687,
            1.566902234218027
        ],
        [
            8.630124743725595,
            13.510376635803553,
            7.990089824972824,
            -6.64488739124139,
            -9.821634125750844,
            -7.661338931629416,
            7.234675012005809,
            -1.457520533555634,
            -10.52458957009436,
            4.558174421994245
        ],
        [
            -15.668951062963828,
            8.592144529575275,
            -7.738551432032249,
            -7.415450885611246,
            -0.4899700524892303,
            -5.5439433477099165,
            -4.066812519777983,
            -12.857836526055955,
            -14.75424410842301,
            -10.002338210835209
        ],
        [
            -11.569037831858953,
            -5.100401992321068,
            14.98714521977848,
            -12.048052094997857,
            5.346179922785375,
            2.3295588323006875,
            7.3135726437402795,
            -1.7753182997449102,
            -0.6955836853556754,
            -8.148421061294233
        ],
        [
            -11.965732309223483,
            10.583184423311678,
            5.094758323869808,
            -5.032266404934401,
            10.303052436221247,
            9.40309968266584,
            -0.8028819908170064,
            -2.1021943551166657,
            -12.149956528131817,
            15.31591587860375
        ],
        [
            4.672468053203062,
            -9.481397334226905,
            5.134457876289847,
            13.247108463767585,
            -15.443821899981078,
            -15.613121722617397,
            3.425505475086581,
            -3.7961408093921456,
            9.780653387129885,
            -4.550311011009512
        ],
        [
            12.557946507844353,
            5.8252329080681555,
            3.702883230975864,
            13.075206032052616,
            3.853843862640886,
            -11.490223765757605,
            12.900616248643058,
            1.9461721002165966,
            11.73364128551546,
            12.938813804067738
        ]
    ],
    "outputs": [
        0.0,
        0.0,
        0.0,
        0.0,
        0.0,
        0.0,
        0.0,
        0.0,
        0.0,
        0.0
    ],
    "weight_range": 16,
    "bias_range": 16,
    "tc_min": 1,
    "tc_max": 1,
    "inv_time_constants": [
        1.0,
        1.0,
        1.0,
        1.0,
        1.0,
        1.0,
        1.0,
        1.0,
        1.0,
        1.0
    ]
}