{
    "size": 10,
    "voltages": [
        0.0,
        0.0,
        0.0,
        0.0,
        0.0,
        0.0,
        0.0,
        0.0,
        0.0,
        0.0
    ],
    "time_constants": [
        1.0,
        1.0,
        1.0,
        1.0,
        1.0,
        1.0,
        1.0,
        1.0,
        1.0,
        1.0
    ],
    "biases": [
        -3.4200244308167953,
        -13.762019205674747,
        8.912631072848683,
        -7.129991837257119,
        -9.389336566054851,
        11.795628896536975,
        -1.7778304994514684,
        -13.973849746409392,
        6.521604346188315,
        6.942310416687036
    ],
    "inner_weights": [
        [
            -4.316621343273795,
            -1.5614106914131867,
            -0.12606883943073655,
            -13.580093868955618,
            2.2963706344870687,
            -6.731711815233325,
            -6.118257318770407,
            -4.003962671832941,
            10.10741358179246,
            15.002710198634016
        ],
        [
            9.244199013263042,
            -3.8181815310984213,
            -10.793081077189896,
            1.516405655369514,
            8.958101725630023,
            -6.398601384525687,
            4.890761219203519,
            -6.512031042987719,
            -14.95586353897805,
            14.360167799882031
        ],
        [
            -11.112253538068327,
            -7.075622572546539,
            2.3842511816405825,
            1.7243478272709787,
            -13.457287505296616,
            -10.726644018455104,
            7.282014822524445,
            -12.064005740142534,
            -4.243610537623898,
            -15.543567719754332
        ],
        [
            0.5158678535061902,
            -8.310508521064001,
            0.17828283449811266,
            -4.115791676192668,
            -4.136565842438429,
            -2.408542806284917,
            2.515688815944472,
            3.190112090736438,
            1.3523352639889694,
            11.003247103744386
        ],
        [
            -6.9004616757316874,
            -13.351627232064782,
            5.066799497201956,
            -8.932947052929542,
            10.375382274873658,
            -3.2819977700603324,
            5.612608323991189,
            13.067932160307372,
            5.865904129381857,
            14.1201255049284
        ],
        [
            15.08840767701098,
            2.4915294888829678,
            15.665915451326637,
            -7.442002843955407,
            1.8751050517187835,
            -15.588421132529493,
            7.9628967576168606,
            12.22266824807047,
            -15.375252396152781,
            -5.715229407206994
        ],
        [
            -15.144857305059151,
            9.08444721456178,
            2.9701851819881213,
            2.1225549378469033,
            12.857502636550432,
            2.6097009225412364,
            9.442050441436841,
            2.9896763150389525,
            5.879266480668544,
            -2.644161976513278
        ],
        [
            -8.727544140912887,
            -6.901601960447891,
            -5.755552138101674,
            11.914761989761374,
            0.3156723574545204,
            -12.705553775974895,
            4.994068435240671,
            -13.931709414637584,
            13.103242579256257,
            2.2515724233759897
        ],
        [
            8.24976963041195,
            14.096765034009128,
            -14.615851952475406,
            -14.293696183095449,
            6.758712309010139,
            1.537494964103427,
            5.161651176832386,
            -5.102844549177359,
            -3.134933129025537,
            3.5147183271319804
        ],
        [
            14.970409202413279,
            -13.326674687049394,
            -11.364857645852588,
            -2.6818358826219857,
            7.436214831612311,
            -11.896509281876448,
            12.658899784500193,
            -8.976604474433959,
            -15.5815104656301,
            -10.264845166010755
        ]
    ],
    "outputs": [
        0.0,
        0.0,
        0.0,
        0.0,
        0.0,
        0.0,
        0.0,
        0.0,
        0.0,
        0.0
    ],
    "weight_range": 16,
    "bias_range": 16,
    "tc_min": 1,
    "tc_max": 1,
    "inv_time_constants": [
        1.0,
        1.0,
        1.0,
        1.0,
        1.0,
        1.0,
        1.0,
        1.0,
        1.0,
        1.0
    ]
}