{
    "size": 10,
    "voltages": [
        0.0,
        0.0,
        0.0,
        0.0,
        0.0,
        0.0,
        0.0,
        0.0,
        0.0,
        0.0
    ],
    "time_constants": [
        1.0,
        1.0,
        1.0,
        1.0,
        1.0,
        1.0,
        1.0,
        1.0,
        1.0,
        1.0
    ],
    "biases": [
        -2.015750040507836,
        13.864350700396834,
        6.5989519501554454,
        -7.451627816228719,
        -10.24747515468922,
        4.977707355483123,
        10.30489012054376,
        13.053083746740196,
        4.037623089700094,
        -10.791278798419448
    ],
    "inner_weights": [
        [
            -8.854685467086757,
            0.7412269248216354,
            1.6224466105977946,
            -14.540737595750198,
            -4.456677268871275,
            -8.861409865878759,
            6.039237178283408,
            -10.760594399971225,
            -13.74960426222399,
            14.112347527866753
        ],
        [
            2.037804167514409,
            -13.504245139520414,
            7.124496355994875,
            -10.929530447258674,
            -7.990998184191252,
            -6.60840780472968,
            6.291542854675036,
            -1.1435491827151445,
            -9.118011401141136,
            -1.7015596134509572
        ],
        [
            -12.13187995075338,
            13.3659842478312,
            2.126282519014257,
            -0.8953818962583284,
            -5.933874411289231,
            -14.617096648427964,
            8.078237342719138,
            1.3846094038821768,
            8.55009362287042,
            9.29436051890518
        ],
        [
            -13.688915860011836,
            5.110906701051121,
            -14.294421172984094,
            5.920782487126424,
            -1.8127692155755248,
            -1.024123283841245,
            5.1538987124787035,
            6.078932221651581,
            -7.573456497741958,
            -15.632674119674405
        ],
        [
            8.681422291992487,
            10.116554441243181,
            -11.531468680054534,
            2.4962158583949154,
            -5.098423294585622,
            -8.569104400989872,
            -9.64339988527665,
            -7.312295254762219,
            15.259288448342176,
            -9.10627269499643
        ],
        [
            -4.594962654012921,
            -15.411201707820279,
            3.737288627040453,
            -8.627027591005298,
            7.755255554107187,
            2.696006668636368,
            -2.5566862531277756,
            6.696090630235588,
            15.105456828907823,
            9.921251765032903
        ],
        [
            -2.219034250826038,
            14.647315193966424,
            -14.471740764643332,
            7.449017628534026,
            5.621326377004628,
            0.8641653694129907,
            2.1435984599161664,
            7.134247975908512,
            5.843307205288411,
            9.450005763177266
        ],
        [
            -12.388943289542599,
            -9.626795770516132,
            7.0822153271281145,
            -3.3962456805493773,
            -5.146067100229768,
            -11.089738045708124,
            -12.781631532441008,
            -2.9680925806375136,
            2.653294862928121,
            7.703056670773794
        ],
        [
            11.85154693682204,
            14.928837132885693,
            -1.4219246287290623,
            -3.1864640297061406,
            -6.433931809170826,
            10.507522135779787,
            13.114917439704186,
            8.516373608041441,
            -13.8139269019544,
            3.392848639226024
        ],
        [
            14.054916237708113,
            -12.73143495215784,
            15.28126452607847,
            -4.585960820016325,
            4.93398938684993,
            -12.070857399033752,
            14.763270189234621,
            4.837805669491704,
            13.973689916618358,
            13.082473768781089
        ]
    ],
    "outputs": [
        0.0,
        0.0,
        0.0,
        0.0,
        0.0,
        0.0,
        0.0,
        0.0,
        0.0,
        0.0
    ],
    "weight_range": 16,
    "bias_range": 16,
    "tc_min": 1,
    "tc_max": 1,
    "inv_time_constants": [
        1.0,
        1.0,
        1.0,
        1.0,
        1.0,
        1.0,
        1.0,
        1.0,
        1.0,
        1.0
    ]
}