{
    "size": 10,
    "voltages": [
        0.0,
        0.0,
        0.0,
        0.0,
        0.0,
        0.0,
        0.0,
        0.0,
        0.0,
        0.0
    ],
    "time_constants": [
        1.0,
        1.0,
        1.0,
        1.0,
        1.0,
        1.0,
        1.0,
        1.0,
        1.0,
        1.0
    ],
    "biases": [
        6.3891297427963245,
        0.20807170584873447,
        11.475500394600672,
        12.30136361383818,
        -14.969322716851742,
        11.186881999908092,
        10.820422455575756,
        -0.26421430858766826,
        -7.018846532894241,
        -0.7965555816571062
    ],
    "inner_weights": [
        [
            -9.529526610232278,
            9.105523331537949,
            11.537191655584998,
            -5.53327356539409,
            -8.03646476528533,
            9.931638919887277,
            6.829913256232409,
            5.1625092281031755,
            6.735720224946132,
            -12.387171994556244
        ],
        [
            11.83910411059432,
            -0.7543098442895797,
            -13.431331810002586,
            -11.239345218471986,
            -5.631223881200356,
            -15.78376368571461,
            6.940162327698911,
            -13.917544912018176,
            -2.43693638386765,
            9.75614689879319
        ],
        [
            -15.056124064709646,
            0.8245858741263525,
            9.194752514287412,
            9.98002754300267,
            -5.073362421636297,
            -3.210453037024667,
            11.594614483108987,
            -15.93165981857656,
            -10.59319458338873,
            -3.7238820397489683
        ],
        [
            3.1984389807957356,
            -11.824993362267104,
            -14.890548927110448,
            6.461036216607194,
            1.0140547520707344,
            7.950002569018505,
            -11.133923371992829,
            -13.819439100133145,
            -0.379647234889287,
            1.1021319903561917
        ],
        [
            2.4912376384147557,
            5.248985294268323,
            -1.8418852103706094,
            -11.593376146811895,
            -9.484394879408395,
            -8.962286024805334,
            9.040758531074207,
            6.651536273554878,
            0.7677666825214331,
            15.32917760714237
        ],
        [
            -7.457210610928385,
            7.3076878875957085,
            -4.094566605201372,
            -0.5224079174822123,
            8.823705641937295,
            14.359289854274152,
            5.332338556272173,
            7.500652692408085,
            4.667994780976397,
            -15.391999266167158
        ],
        [
            13.219377160311993,
            -3.6895009964706524,
            2.0285354789513974,
            -14.160381886467889,
            4.145317170581375,
            -13.22007401765956,
            -10.734756880208998,
            -9.588497186657964,
            -1.7808018643518402,
            13.873971766979313
        ],
        [
            -15.914555130922228,
            -8.744580786398025,
            2.8171494751392814,
            4.289743099429792,
            -12.253088024383679,
            -6.523602347148653,
            5.671876495976761,
            -5.186866819708914,
            6.389067786008326,
            -14.281240705264267
        ],
        [
            -13.437925090724118,
            13.999929997233359,
            14.640954545915477,
            1.421212514834835,
            -0.4885068943130477,
            -12.758822656067462,
            -8.295474430222342,
            3.1707032120103946,
            9.18948000646645,
            0.44722371887809587
        ],
        [
            -11.964408150303708,
            9.18230582077532,
            -2.5289109285668303,
            13.851401612747399,
            -12.001246937606346,
            10.53824283903591,
            -2.8053451692787092,
            5.298280410221935,
            -14.76215431385532,
            9.350122659400636
        ]
    ],
    "outputs": [
        0.0,
        0.0,
        0.0,
        0.0,
        0.0,
        0.0,
        0.0,
        0.0,
        0.0,
        0.0
    ],
    "weight_range": 16,
    "bias_range": 16,
    "tc_min": 1,
    "tc_max": 1,
    "inv_time_constants": [
        1.0,
        1.0,
        1.0,
        1.0,
        1.0,
        1.0,
        1.0,
        1.0,
        1.0,
        1.0
    ]
}