{
    "size": 10,
    "voltages": [
        0.0,
        0.0,
        0.0,
        0.0,
        0.0,
        0.0,
        0.0,
        0.0,
        0.0,
        0.0
    ],
    "time_constants": [
        1.0,
        1.0,
        1.0,
        1.0,
        1.0,
        1.0,
        1.0,
        1.0,
        1.0,
        1.0
    ],
    "biases": [
        -5.037302352272185,
        -5.510988225825795,
        9.831078251133345,
        12.973734722339795,
        4.785323693078606,
        -7.360166255638109,
        -14.947534933314724,
        -14.42807718220756,
        -1.1969226404753996,
        -10.609977189520489
    ],
    "inner_weights": [
        [
            1.500452996651351,
            9.532768681043368,
            10.252860156748202,
            -12.094404261433564,
            3.264064217326016,
            0.8164666676666776,
            -1.1549310140778104,
            -0.913736178415494,
            4.246810972074606,
            13.621244175125234
        ],
        [
            10.09609330401414,
            14.222136076266803,
            13.426724545905273,
            -2.7254145167673265,
            10.425982793700811,
            14.280323802861343,
            4.097473703532355,
            -7.927366644386982,
            2.9552288904013473,
            11.532921954332952
        ],
        [
            -14.449522187775347,
            11.35355351397822,
            7.04684856100765,
            -6.528850020574982,
            -0.46699289025698576,
            11.01681593624917,
            3.2797166084747325,
            -10.97133377104393,
            0.8352719133400797,
            -9.996888323789754
        ],
        [
            5.454304148253392,
            1.5599735345363435,
            -10.994371070413028,
            13.83987963611878,
            1.3745041364594783,
            4.881831346823841,
            5.483120841664832,
            10.206247172618646,
            -15.566120556916662,
            11.131032995604809
        ],
        [
            -2.077699743898666,
            -0.7213771760995513,
            6.888447402986202,
            10.886123209746792,
            -12.375904344796464,
            3.5955904203451787,
            -8.916564167371835,
            -14.728859952742496,
            -7.018979665451951,
            -6.603106395779626
        ],
        [
            -11.728302848545592,
            7.134760795933634,
            -9.491272096086885,
            9.307247601785729,
            7.1326996052011395,
            -4.9072904598709,
            -8.984733261186253,
            -8.488652697271089,
            -12.501027933024162,
            14.07611094265581
        ],
        [
            1.317760519774268,
            12.66639194119455,
            12.370467461527813,
            -15.563620476468525,
            11.803823047177772,
            -6.353419492737853,
            14.334366029562961,
            -15.485539575280693,
            15.241366737239623,
            10.06076365188633
        ],
        [
            -5.819027610848309,
            -6.449762373815528,
            -2.8386636569891692,
            -5.12000284655139,
            14.416023688801975,
            -1.9707853021744555,
            -6.151731938900202,
            6.104514971826063,
            -13.09361402357382,
            14.420378403231766
        ],
        [
            10.691598252530401,
            7.012200627253797,
            7.118100781505273,
            -12.34058840191484,
            -0.6102663510884803,
            2.1617307159419035,
            -6.122418919067595,
            9.491165242419562,
            12.21757379707675,
            6.523256836313635
        ],
        [
            14.522429595068772,
            -3.1429966652335324,
            0.6799971555621269,
            8.884522101797163,
            -15.6313849462373,
            2.025764099245194,
            -0.2248699869311146,
            4.711865507174899,
            11.852697743858172,
            3.0728157440718142
        ]
    ],
    "outputs": [
        0.0,
        0.0,
        0.0,
        0.0,
        0.0,
        0.0,
        0.0,
        0.0,
        0.0,
        0.0
    ],
    "weight_range": 16,
    "bias_range": 16,
    "tc_min": 1,
    "tc_max": 1,
    "inv_time_constants": [
        1.0,
        1.0,
        1.0,
        1.0,
        1.0,
        1.0,
        1.0,
        1.0,
        1.0,
        1.0
    ]
}