{
    "size": 10,
    "voltages": [
        0.0,
        0.0,
        0.0,
        0.0,
        0.0,
        0.0,
        0.0,
        0.0,
        0.0,
        0.0
    ],
    "time_constants": [
        1.0,
        1.0,
        1.0,
        1.0,
        1.0,
        1.0,
        1.0,
        1.0,
        1.0,
        1.0
    ],
    "biases": [
        -13.47905907913023,
        6.874756252526627,
        7.151973416448829,
        -15.257897342623096,
        -12.065917712852183,
        -1.6371973574010248,
        -5.795441200624527,
        -0.43435956293274813,
        -15.756439400899659,
        -2.5880902510755988
    ],
    "inner_weights": [
        [
            9.08263522578402,
            4.314678593687365,
            -8.030621071496036,
            8.258427668794166,
            -5.981538059786246,
            13.991595439628721,
            -14.628305652727555,
            -1.8922494902462574,
            13.207113277926325,
            -1.4398745943430775
        ],
        [
            0.25389890252133185,
            -13.282945446569595,
            -2.356806685902793,
            7.862942710203907,
            11.746604659545287,
            -5.642693539178541,
            -12.669619285974775,
            9.667457499310306,
            -3.3653776262362314,
            4.088578823494071
        ],
        [
            -14.848366604809577,
            -6.402948799310867,
            -14.475096972670936,
            -4.089245510203995,
            -7.602713714297693,
            15.696838605205954,
            -3.355348860702069,
            -6.158743596829879,
            -8.924763636873458,
            -0.19119920043560512
        ],
        [
            -14.14799393206588,
            -6.7295986967086385,
            -8.481587499991118,
            14.829773278516122,
            3.7015639384799925,
            11.602687017665335,
            -13.117271801598623,
            -11.232355149443038,
            5.522398837929053,
            15.327741593997885
        ],
        [
            -15.256847836214568,
            13.046902117624597,
            -14.14235788107991,
            8.18129389702171,
            -13.932707901125578,
            -7.816530438132723,
            -10.57255153707517,
            -9.755926504164126,
            -12.59018076511025,
            0.6652672124435348
        ],
        [
            -15.800119157269002,
            9.299363086131198,
            -11.561250431580131,
            -12.571353755248062,
            -2.2527627647192325,
            -8.992867923988921,
            10.7472553300174,
            -15.81200895839234,
            -11.253667355411533,
            6.347002961275283
        ],
        [
            -11.276483048099848,
            11.865105158613108,
            0.44755893999732876,
            -2.4063918006745055,
            -15.393011895240086,
            -0.18157036329020926,
            14.291972123445412,
            -4.934290314302935,
            -2.965475425664085,
            10.525645785755462
        ],
        [
            6.848492693382433,
            -0.42970331833023323,
            -8.55217916090669,
            5.503887648164689,
            2.516949838481004,
            -1.6516578028826885,
            2.4484145467834644,
            -6.044889224833646,
            4.866283568269335,
            -13.089580753592546
        ],
        [
            -4.247949543954526,
            2.309477972259426,
            9.942827300678733,
            -1.069331823056391,
            3.9773306253256706,
            1.8453640669016451,
            -5.367823774921675,
            -11.609118567542879,
            12.932544896894932,
            -8.679372074613315
        ],
        [
            -9.203339521573163,
            -10.310919061807269,
            4.9683475971322295,
            -14.366740839184576,
            -13.07265478254714,
            6.459380079452277,
            7.2011190927955155,
            0.5019539862897098,
            5.090194762274887,
            -6.063826745164345
        ]
    ],
    "outputs": [
        0.0,
        0.0,
        0.0,
        0.0,
        0.0,
        0.0,
        0.0,
        0.0,
        0.0,
        0.0
    ],
    "weight_range": 16,
    "bias_range": 16,
    "tc_min": 1,
    "tc_max": 1,
    "inv_time_constants": [
        1.0,
        1.0,
        1.0,
        1.0,
        1.0,
        1.0,
        1.0,
        1.0,
        1.0,
        1.0
    ]
}