{
    "size": 10,
    "voltages": [
        0.0,
        0.0,
        0.0,
        0.0,
        0.0,
        0.0,
        0.0,
        0.0,
        0.0,
        0.0
    ],
    "time_constants": [
        1.0,
        1.0,
        1.0,
        1.0,
        1.0,
        1.0,
        1.0,
        1.0,
        1.0,
        1.0
    ],
    "biases": [
        4.590726725430567,
        2.18719281562867,
        -8.314179150514814,
        -6.537382300613544,
        -15.839202440776305,
        -11.87540644554215,
        0.932960629717293,
        4.719839621916176,
        -11.348417456185825,
        6.124456334747041
    ],
    "inner_weights": [
        [
            0.5535322830908562,
            14.302803322074052,
            8.494712300701021,
            -6.9633329930523935,
            -8.926548375627117,
            5.95910672759894,
            -10.6515455007982,
            -3.4418410731190185,
            3.777675112089895,
            -2.8182369645201284
        ],
        [
            -15.921123801571643,
            12.289029835907353,
            12.318321228047154,
            -6.38688994027261,
            2.866619686870866,
            15.309661312474589,
            11.043002308041956,
            -13.917585950169808,
            -6.568177129044301,
            -6.786097889048115
        ],
        [
            10.318922851309857,
            4.037857214727875,
            -12.464713154762439,
            -15.983078042583166,
            14.149319451375987,
            -11.471975752793927,
            -2.508911162682889,
            -4.912337915246585,
            11.833122700709808,
            -2.284742004726837
        ],
        [
            10.520047498328182,
            6.971258823233224,
            -12.184745786108074,
            3.0842935267074836,
            -11.847798473434242,
            -13.51890906473033,
            10.598568182093377,
            -1.1396603270335213,
            -10.815600671912033,
            1.5352093469762131
        ],
        [
            2.8315462989549616,
            8.755621410423498,
            4.987054656220906,
            1.8466163033095349,
            -10.296087469755413,
            -8.30132700102358,
            0.19374823580349698,
            -3.3041376374454714,
            -0.5422340658258733,
            14.583674914821948
        ],
        [
            12.851270169836184,
            0.18429830328048524,
            10.262447525213275,
            10.486909634399396,
            -8.581332876734258,
            -13.470224435042226,
            -1.0955863526698728,
            12.12722586893674,
            -11.27990212141269,
            -8.59995823006312
        ],
        [
            13.374265782525754,
            -11.869967116602538,
            13.325047106106865,
            -8.486478370838494,
            3.7115765964640772,
            14.450808320040455,
            -7.835813768885252,
            -1.5918352529603084,
            15.1205689736478,
            -8.340128058827563
        ],
        [
            -9.642198313771875,
            6.014284061472882,
            11.0402942294103,
            -1.4938821818622365,
            -12.756159118817223,
            3.9311350576852497,
            -13.328770020486889,
            -14.295452971233999,
            -4.944688704665744,
            12.975207206967767
        ],
        [
            9.555206635222603,
            -3.7047378320502204,
            -13.032767857070542,
            -11.944799692162974,
            1.100712999391206,
            0.2337343064053954,
            0.1131127576897768,
            -11.948583178091077,
            9.321298913803119,
            3.073640131942387
        ],
        [
            8.24861992637344,
            -1.3003490595797835,
            -13.617305444335894,
            3.27961099092796,
            -2.0608265754761668,
            -15.794294414933002,
            -14.507843892425818,
            -2.6002431998107767,
            12.10450736669668,
            -2.1434338141280556
        ]
    ],
    "outputs": [
        0.0,
        0.0,
        0.0,
        0.0,
        0.0,
        0.0,
        0.0,
        0.0,
        0.0,
        0.0
    ],
    "weight_range": 16,
    "bias_range": 16,
    "tc_min": 1,
    "tc_max": 1,
    "inv_time_constants": [
        1.0,
        1.0,
        1.0,
        1.0,
        1.0,
        1.0,
        1.0,
        1.0,
        1.0,
        1.0
    ]
}