{
    "size": 10,
    "voltages": [
        0.0,
        0.0,
        0.0,
        0.0,
        0.0,
        0.0,
        0.0,
        0.0,
        0.0,
        0.0
    ],
    "time_constants": [
        1.0,
        1.0,
        1.0,
        1.0,
        1.0,
        1.0,
        1.0,
        1.0,
        1.0,
        1.0
    ],
    "biases": [
        6.107524750266194,
        1.2912455559707716,
        2.69793412415304,
        3.3333028196191066,
        -6.181986151833385,
        11.504428684982823,
        -13.85133917843915,
        11.061665541112287,
        2.105091429362762,
        -8.69727136390338
    ],
    "inner_weights": [
        [
            -6.520026826482127,
            9.890166901546454,
            -4.791919192850834,
            9.261096205788562,
            1.9631672246583207,
            -7.885153464955739,
            -12.64073332207651,
            -14.129256665699849,
            5.545356184635015,
            6.330549024054722
        ],
        [
            7.449062590452925,
            9.211969871926733,
            -13.555957747405031,
            -5.834220908161143,
            7.712744869876058,
            -5.488184666398464,
            -0.9553444825585835,
            -10.205257032490103,
            -5.6478591421087785,
            -1.4430030090563761
        ],
        [
            0.9481764954160852,
            -6.623022443120487,
            -7.136795267834213,
            5.7008983031983895,
            -8.529321580619136,
            5.6721718314156,
            -2.165360077861557,
            -3.594678871494917,
            -5.26572138756821,
            0.4231079779949276
        ],
        [
            15.606115659511577,
            0.9892598810929307,
            5.773957044487403,
            -3.4836885362729646,
            -12.270201745545222,
            6.631223243820479,
            -2.7642849740809794,
            -1.4069429735406231,
            -5.377518854339108,
            -13.001112213879463
        ],
        [
            -1.3530657264514119,
            9.78537307855943,
            -9.80770522912789,
            -1.1190882754993012,
            -9.890639309668693,
            -13.571786727395988,
            -14.976393208428277,
            -11.121422410429098,
            -7.773055412339858,
            -13.78003943368255
        ],
        [
            13.67006211482532,
            1.4920294434211776,
            14.95347318163303,
            12.713872718852564,
            -3.486393027573367,
            -3.879368623887057,
            4.850380804578666,
            11.400907635777621,
            -1.822354476448357,
            1.0496674678098863
        ],
        [
            -10.786631850407161,
            1.7650741028326422,
            -11.942875279927101,
            14.263527076110456,
            15.443595792666716,
            -6.353723849233216,
            8.628018229816785,
            -6.017599337413586,
            15.301616128122717,
            -6.99909904675091
        ],
        [
            5.561930854281115,
            -2.141639105627455,
            -3.0502907611171928,
            2.592591711326616,
            2.930596241566871,
            -14.138137320366603,
            -2.5331279537527784,
            6.230688266840367,
            -15.30553465137534,
            6.215548112715975
        ],
        [
            -7.6964804043109325,
            0.5963780425583494,
            1.5205088002495195,
            -4.3554929487430805,
            -3.122492909348317,
            -13.87026046953066,
            -8.668518086835288,
            -15.967745805119439,
            -9.75767588686315,
            -12.353812422236114
        ],
        [
            -2.3289108476718,
            8.332734278807926,
            7.002598049021614,
            3.7645664787487974,
            -7.5062717651151765,
            5.593223012833246,
            -9.944307295197301,
            7.176321477256401,
            3.759646852766682,
            3.3850793980525538
        ]
    ],
    "outputs": [
        0.0,
        0.0,
        0.0,
        0.0,
        0.0,
        0.0,
        0.0,
        0.0,
        0.0,
        0.0
    ],
    "weight_range": 16,
    "bias_range": 16,
    "tc_min": 1,
    "tc_max": 1,
    "inv_time_constants": [
        1.0,
        1.0,
        1.0,
        1.0,
        1.0,
        1.0,
        1.0,
        1.0,
        1.0,
        1.0
    ]
}