{
    "size": 10,
    "voltages": [
        0.0,
        0.0,
        0.0,
        0.0,
        0.0,
        0.0,
        0.0,
        0.0,
        0.0,
        0.0
    ],
    "time_constants": [
        1.0,
        1.0,
        1.0,
        1.0,
        1.0,
        1.0,
        1.0,
        1.0,
        1.0,
        1.0
    ],
    "biases": [
        -8.682006787486891,
        15.599338389840685,
        4.127953166136965,
        -5.974625887837746,
        -5.802762742625298,
        7.516904527881106,
        14.174315570332219,
        6.108098489813063,
        -15.15923975871343,
        11.84451546408787
    ],
    "inner_weights": [
        [
            10.782211976464758,
            15.047547262090553,
            -1.6910788716316354,
            -6.893407711083789,
            8.678930816312132,
            -6.4338037684551175,
            15.242722396649103,
            13.732863203127557,
            -9.450429896354418,
            -4.955407448908176
        ],
        [
            -9.203198404094998,
            -6.436476578624951,
            -5.003186111119938,
            13.11879100162113,
            -11.659462544356927,
            -9.765982150533588,
            -10.854114762630527,
            -12.410994157153912,
            -2.7151576918391207,
            -6.355447251225176
        ],
        [
            -11.628484310972155,
            8.49264390057846,
            3.2812309516528018,
            3.739480787712125,
            5.337017478203816,
            7.707307582804333,
            -3.0175169769275705,
            -10.408457242000576,
            -10.480330126914694,
            -5.451913079312792
        ],
        [
            4.396862064817412,
            14.110275350214113,
            -7.419018323566235,
            -13.278328552389823,
            15.88334613941154,
            -15.778681425652849,
            13.969428987307648,
            -4.384513276429384,
            10.275864643300668,
            -11.93899628151335
        ],
        [
            -2.6740025351127557,
            11.71948227601926,
            -10.040133925912272,
            5.261639571419689,
            -0.0901043840590674,
            -10.637445903586276,
            13.366794625235478,
            -7.568146660735422,
            8.242619467801156,
            12.226282464223146
        ],
        [
            -7.921920190764325,
            11.395571555622134,
            -13.163179663836008,
            -1.9496204756173618,
            13.192999349377065,
            15.968519984104145,
            14.371482667173602,
            0.8055599477931104,
            4.157316004847129,
            -7.43253530060106
        ],
        [
            -5.656842916762468,
            0.11112705411844459,
            -12.96918055368619,
            -14.393183356927022,
            -4.611721833460397,
            -9.751346300266118,
            -13.158948117088453,
            12.94572392205394,
            -0.32810245313441655,
            9.930068309617731
        ],
        [
            -12.772745087904962,
            -1.7742338089778436,
            -3.85783672019555,
            4.031341502237758,
            -8.722731068713212,
            -12.406468328114528,
            -5.189959905892195,
            1.2139236588604732,
            -9.126643087676268,
            11.155354701626681
        ],
        [
            3.2599635861099117,
            12.949165223346569,
            -15.125674233741023,
            -10.028335630011927,
            8.11752560450822,
            -11.594632872372223,
            0.19245597113552648,
            13.212644412825561,
            -1.8597164598642095,
            -8.159766698611417
        ],
        [
            -8.295816164953973,
            -5.701316354530025,
            6.629505608113696,
            0.93569068659313,
            -15.255312045337476,
            7.980931426473749,
            -9.780895190058725,
            13.212167247647336,
            5.886916949813994,
            -3.8414492886766674
        ]
    ],
    "outputs": [
        0.0,
        0.0,
        0.0,
        0.0,
        0.0,
        0.0,
        0.0,
        0.0,
        0.0,
        0.0
    ],
    "weight_range": 16,
    "bias_range": 16,
    "tc_min": 1,
    "tc_max": 1,
    "inv_time_constants": [
        1.0,
        1.0,
        1.0,
        1.0,
        1.0,
        1.0,
        1.0,
        1.0,
        1.0,
        1.0
    ]
}