{
    "size": 10,
    "voltages": [
        0.0,
        0.0,
        0.0,
        0.0,
        0.0,
        0.0,
        0.0,
        0.0,
        0.0,
        0.0
    ],
    "time_constants": [
        1.0,
        1.0,
        1.0,
        1.0,
        1.0,
        1.0,
        1.0,
        1.0,
        1.0,
        1.0
    ],
    "biases": [
        -9.651271866943283,
        -7.587428743978439,
        4.759774773462905,
        15.288793663702588,
        6.9272132298560045,
        6.089292650550917,
        -0.7197932121230188,
        4.4304875744100265,
        -12.494458063260371,
        9.62872020298516
    ],
    "inner_weights": [
        [
            -7.700112961649811,
            -14.612446362819192,
            2.624970948051338,
            -12.399610630044116,
            3.5448570399088126,
            -6.515585334536734,
            9.83207018915806,
            -12.965192482680969,
            6.403211961458219,
            13.852672738152162
        ],
        [
            10.950684771155942,
            9.598687501074597,
            15.130345410145836,
            1.1547655495784142,
            0.2314497618356519,
            14.55458743319996,
            8.822296830828705,
            2.8977877270422248,
            -10.595902634159923,
            -10.131505883857631
        ],
        [
            -14.98389755000106,
            -8.652052779457428,
            0.9571640478564412,
            6.141298015706305,
            -6.721050752870273,
            -13.116807945605725,
            15.540305652886769,
            8.741466815506271,
            1.5611356510081897,
            -10.935572990131451
        ],
        [
            8.01417696840084,
            0.7902260533016374,
            9.785686862163129,
            6.930097074191707,
            -15.491379210994591,
            0.4219192229091071,
            5.538217635777251,
            5.905322943586903,
            -0.43807821953931736,
            15.93342120579769
        ],
        [
            -4.502871616883546,
            -4.274803040822352,
            -11.650497499496332,
            -5.4341603211071785,
            -10.549910616288322,
            10.893500397306948,
            3.3767631247041585,
            -1.4284864710538905,
            6.476685829024262,
            15.73506131092471
        ],
        [
            4.375067387139307,
            -15.413694371812436,
            -11.534047284270873,
            4.650754482229662,
            -15.849991320734436,
            -13.68782277671611,
            2.1853302361403557,
            5.420386997524403,
            11.118225717178849,
            -7.84124827000009
        ],
        [
            7.564525449772653,
            15.910269841748125,
            -15.221345627292258,
            15.830121278979622,
            -12.796909200204865,
            9.494948146919285,
            -13.606321338943772,
            -6.97130870754912,
            -13.2576510984292,
            13.09734271165426
        ],
        [
            7.118800244283424,
            9.107569147037008,
            -10.760649118740425,
            11.726656514070307,
            -11.283339290817455,
            -4.365507482548487,
            15.712669684689782,
            -11.907369541456596,
            1.5811929849728195,
            5.883385394394477
        ],
        [
            3.9719970177821757,
            -2.6157033141740413,
            -15.500943097994305,
            -4.018811317888556,
            4.5972536880008015,
            -14.18830197070056,
            11.59683957439697,
            -3.256880082758908,
            3.2176123207731173,
            -15.347046522785458
        ],
        [
            2.391005089954529,
            -8.69446078873705,
            0.38512071164038275,
            2.1526163002409042,
            0.34331530675490285,
            0.21484743926645677,
            -1.298956276310122,
            1.4001675013426862,
            2.4494723508453546,
            -14.869785349040086
        ]
    ],
    "outputs": [
        0.0,
        0.0,
        0.0,
        0.0,
        0.0,
        0.0,
        0.0,
        0.0,
        0.0,
        0.0
    ],
    "weight_range": 16,
    "bias_range": 16,
    "tc_min": 1,
    "tc_max": 1,
    "inv_time_constants": [
        1.0,
        1.0,
        1.0,
        1.0,
        1.0,
        1.0,
        1.0,
        1.0,
        1.0,
        1.0
    ]
}