{
    "size": 7,
    "voltages": [
        0.0,
        0.0,
        0.0,
        0.0,
        0.0,
        0.0,
        0.0
    ],
    "time_constants": [
        1.0,
        1.0,
        1.0,
        1.0,
        1.0,
        1.0,
        1.0
    ],
    "biases": [
        5.258999640242132,
        -0.323516714333264,
        0.8580671558535954,
        7.490819777251619,
        -6.487196656339401,
        -1.9186465240698403,
        -8.041849475601978
    ],
    "inner_weights": [
        [
            -4.353952199285766,
            11.733647376070671,
            -11.005106142163303,
            5.05373197330131,
            6.301672866205113,
            14.33086476296507,
            -15.286377906851172
        ],
        [
            -14.261396421843255,
            -4.308336989778474,
            13.81283353508771,
            -14.15779197275811,
            15.736520694174148,
            -8.314672836262202,
            16.0
        ],
        [
            15.185436203084755,
            -16.0,
            -1.1490923942390694,
            9.13285443390837,
            -15.52309938356766,
            14.513482535251491,
            -14.595078247706526
        ],
        [
            -3.7309015995866766,
            15.544280898642556,
            -14.02819587217264,
            -2.9352323709897523,
            12.777897199595696,
            14.608339340735164,
            15.318689735079314
        ],
        [
            -8.485551774970634,
            -14.268033339532698,
            14.653348874270058,
            -15.01468227833692,
            -3.693306866015494,
            -16.0,
            13.950320140797071
        ],
        [
            -15.946978023792617,
            14.83887627576401,
            -13.901329471671861,
            10.447724108832531,
            14.94925771207032,
            -7.582994529316759,
            14.766258916994918
        ],
        [
            16.0,
            -8.549125261165404,
            15.361985474809122,
            -15.810662063956995,
            -13.335377543171479,
            -15.571877493306395,
            -0.3530529878639469
        ]
    ],
    "outputs": [
        0.0,
        0.0,
        0.0,
        0.0,
        0.0,
        0.0,
        0.0
    ],
    "inputs": [
        0.0,
        0.0,
        0.0,
        0.0,
        0.0,
        0.0,
        0.0
    ],
    "weight_range": 16,
    "bias_range": 16,
    "tc_min": 1,
    "tc_max": 1,
    "sensors": null,
    "motors": null,
    "inv_time_constants": [
        1.0,
        1.0,
        1.0,
        1.0,
        1.0,
        1.0,
        1.0
    ]
}