{
    "size": 9,
    "voltages": [
        0.0,
        0.0,
        0.0,
        0.0,
        0.0,
        0.0,
        0.0,
        0.0,
        0.0
    ],
    "time_constants": [
        1.0,
        1.0,
        1.0,
        1.0,
        1.0,
        1.0,
        1.0,
        1.0,
        1.0
    ],
    "biases": [
        1.0408489528752651,
        2.1942525220043665,
        6.826288499059237,
        0.12387990127103876,
        3.4642726074681005,
        -11.611221199935468,
        6.934646845158093,
        1.2249301028728365,
        -3.8975238941873585
    ],
    "inner_weights": [
        [
            -3.1508045673159284,
            -6.315227683974784,
            10.16130700259728,
            -14.538421373772517,
            -14.577683762697033,
            15.916954218436297,
            -6.9368236248670705,
            15.226149815479173,
            7.605016646305446
        ],
        [
            4.839942644508385,
            -11.15979598309039,
            -7.438993586341311,
            14.155573716294079,
            15.046231979347928,
            8.252377812343457,
            -12.320562789557368,
            -11.57986147116466,
            15.320785413812601
        ],
        [
            -9.833240656612098,
            4.318307583194863,
            -4.990677971895842,
            14.462267514719052,
            15.212134709738738,
            -12.011019190254995,
            7.666923471422435,
            10.944094618232295,
            -13.911784422614089
        ],
        [
            12.849400680440915,
            -5.9953583945260105,
            -10.139876025368434,
            -8.12686923239373,
            -0.811391006839937,
            14.432769566350764,
            -12.48331694160391,
            -2.2079890869734564,
            10.775636251027619
        ],
        [
            14.970325267753235,
            14.384537364578467,
            -14.120122167981005,
            14.535227062869332,
            -13.523513969959536,
            14.863511960000064,
            -14.34875617458816,
            -13.750420630982907,
            11.358711258792779
        ],
        [
            -15.177501083181282,
            -14.79206552440976,
            12.88396204119292,
            -15.302742696630549,
            -12.93131374250329,
            -0.25928476245546517,
            15.945155684733132,
            11.585581653021148,
            -11.974659575738421
        ],
        [
            13.89226248148193,
            15.723214257202669,
            -5.395395894002452,
            9.676559415456259,
            12.378202359644588,
            -14.776375625182116,
            2.5891355901652156,
            -10.935527620259288,
            15.948891911338954
        ],
        [
            -13.497596271069495,
            11.71618145823271,
            -1.9322625814324463,
            -4.422472828953563,
            -1.2706064132289994,
            -8.769373830623257,
            15.28129155617493,
            -10.215655422685437,
            -15.884302887676478
        ],
        [
            -5.519868128407312,
            -16.0,
            8.843355495438129,
            -16.0,
            -12.391914942190851,
            11.166034363438529,
            -11.607811726254784,
            13.84957577393353,
            -7.521998937548125
        ]
    ],
    "outputs": [
        0.0,
        0.0,
        0.0,
        0.0,
        0.0,
        0.0,
        0.0,
        0.0,
        0.0
    ],
    "inputs": [
        0.0,
        0.0,
        0.0,
        0.0,
        0.0,
        0.0,
        0.0,
        0.0,
        0.0
    ],
    "weight_range": 16,
    "bias_range": 16,
    "tc_min": 1,
    "tc_max": 1,
    "sensors": null,
    "motors": null,
    "inv_time_constants": [
        1.0,
        1.0,
        1.0,
        1.0,
        1.0,
        1.0,
        1.0,
        1.0,
        1.0
    ]
}