{
    "size": 8,
    "voltages": [
        0.0,
        0.0,
        0.0,
        0.0,
        0.0,
        0.0,
        0.0,
        0.0
    ],
    "time_constants": [
        1.0,
        1.0,
        1.0,
        1.0,
        1.0,
        1.0,
        1.0,
        1.0
    ],
    "biases": [
        -9.709364426238288,
        -4.2007945388491486,
        10.271783355133923,
        -12.89275917462204,
        10.814237039961725,
        -12.924850947393182,
        15.246702880428664,
        -1.0031615472735496
    ],
    "inner_weights": [
        [
            1.562032125674392,
            6.886059723917423,
            3.288428034292604,
            1.4362618559006997,
            -2.4430464211550493,
            4.668611618132996,
            -1.9972092395938397,
            12.536736025026553
        ],
        [
            14.837208336032937,
            -3.7298713975751134,
            9.335201218645267,
            0.9246374320929434,
            2.177425955005834,
            13.619092425365153,
            -13.726846137667618,
            -13.211862409550697
        ],
        [
            -15.353011281909577,
            10.643835057534016,
            8.901016030395215,
            11.840388743898213,
            15.315786951448448,
            9.573074054935155,
            -1.232660407906181,
            8.976933641166575
        ],
        [
            -12.215218372194137,
            4.477472682480762,
            -11.412694802910515,
            14.229405345586684,
            0.6991462960022936,
            -2.730817920303245,
            -7.534220412651937,
            8.775478061894933
        ],
        [
            -1.4031893690704464,
            2.1898863637967523,
            -15.398726386036635,
            3.764335906428066,
            3.587063127117485,
            3.7418878999922214,
            14.199938512467973,
            5.818249571311469
        ],
        [
            -4.495747181638848,
            -2.0149774784210734,
            6.3241982696724754,
            -14.072784907863365,
            5.336534894261366,
            5.460411827781101,
            -9.267758045637091,
            -11.874358475044694
        ],
        [
            -5.906292770426116,
            -4.3612553298360766,
            2.2462966533721485,
            -1.964751569205749,
            15.627962817895238,
            -12.734566056063102,
            -9.31594380496529,
            -10.83809542768012
        ],
        [
            4.89946641489275,
            -7.894668718726972,
            -1.0780552685981988,
            -8.178381055948712,
            -10.912973323343369,
            -12.467995482742236,
            5.0025468628887495,
            -11.578145556844358
        ]
    ],
    "outputs": [
        0.0,
        0.0,
        0.0,
        0.0,
        0.0,
        0.0,
        0.0,
        0.0
    ],
    "weight_range": 16,
    "bias_range": 16,
    "tc_min": 1,
    "tc_max": 1,
    "inv_time_constants": [
        1.0,
        1.0,
        1.0,
        1.0,
        1.0,
        1.0,
        1.0,
        1.0
    ]
}